<?xml version="1.0"?>
<opencv_storage>
<opencv_ml_svm>
  <format>3</format>
  <svmType>C_SVC</svmType>
  <kernel>
    <type>LINEAR</type></kernel>
  <C>1.0000000000000001e-01</C>
  <term_criteria><epsilon>1.1920928955078125e-07</epsilon>
    <iterations>1000</iterations></term_criteria>
  <var_count>16128</var_count>
  <class_count>2</class_count>
  <class_labels type_id="opencv-matrix">
    <rows>2</rows>
    <cols>1</cols>
    <dt>i</dt>
    <data>
      -1 1</data></class_labels>
  <sv_total>1</sv_total>
  <support_vectors>
    <_>
      4.69003164e-04 4.26366496e-05 0. 4.26366496e-05 4.26366496e-05 0.
      0. 4.26366496e-05 1.70546598e-04 4.26366496e-05 -4.26366496e-05
      8.52732992e-05 4.26366496e-05 4.26366496e-05 8.52732992e-05
      2.13183259e-04 8.52732992e-05 0. 0. 0. 0. 0. -4.26366496e-05
      4.26366496e-05 0. 0. 0. -4.26366496e-05 0. 0. 4.26366496e-05
      -1.27909952e-04 4.26366496e-05 0. 4.26366496e-05 0. 0. 0. 0. 0.
      4.26366496e-05 0. 4.26366496e-05 4.26366496e-05 0. 0. 0.
      8.52732992e-05 4.26366496e-05 0. 0. 0. 0. 0. 0. 0. 4.26366496e-05
      0. 0. 4.26366496e-05 0. 0. 0. -8.52732992e-05 4.26366496e-05 0. 0.
      0. -4.26366496e-05 0. -4.26366496e-05 -4.26366496e-05 0. 0. 0. 0.
      0. 0. 0. -4.26366496e-05 4.26366496e-05 0. 0. 0. 0. 0.
      -4.26366496e-05 -4.26366496e-05 4.26366496e-05 0. 0. 0. 0. 0. 0.
      -8.52732992e-05 4.26366496e-05 0. 0. 0. 0. 0. 0. 4.26366496e-05 0.
      4.26366496e-05 -4.26366496e-05 4.26366496e-05 0. 4.26366496e-05 0.
      4.26366496e-05 0. 0. 0. 0. 0. 0. 0. 0. 0. 0. 0. 0. 0. 0. 0.
      -4.26366496e-05 0. 0. 0. 0. 0. 0. 0. 4.26366496e-05 4.26366496e-05
      0. 0. 0. 0. 0. 0. 0. 4.26366496e-05 0. 0. 0. 0. 0. 0.
      -4.26366496e-05 4.26366496e-05 -4.26366496e-05 0. 0. 0. 0. 0.
      -4.26366496e-05 0. 0. 0. 0. 0. 0. 0. 0. 0. 0. 0. 0. 0. 0. 0. 0.
      4.26366496e-05 0. 0. 0. 0. 0. 0. -4.26366496e-05 0. 0. 0. 0. 0. 0.
      0. -2.55819905e-04 0. 0. 0. 0. 0. 0. 0. 0. 0. 0. 0. 0. 0. 0. 0. 0.
      4.26366496e-05 0. 4.26366496e-05 0. 4.26366496e-05 0.
      -1.70546598e-04 -8.52732992e-05 -4.26366496e-05 0. 0.
      -4.26366496e-05 0. 0. 0. -1.70546598e-04 4.26366496e-05
      8.52732992e-05 0. -4.26366496e-05 0. 0. -4.26366496e-05 0. 0.
      4.26366496e-05 0. -8.52732992e-05 0. 4.26366496e-05 0.
      -8.52732992e-05 1.70546598e-04 4.26366496e-05 0. 4.26366496e-05
      4.26366496e-05 0. -8.52732992e-05 -8.52732992e-05 4.26366496e-05
      4.26366496e-05 -1.27909952e-04 4.26366496e-05 0. -2.98456551e-04
      -1.27909952e-04 -5.96913102e-04 2.98456551e-04 0. 4.26366496e-05
      -8.52732992e-05 0. -4.26366496e-05 0. 4.26366496e-05 0. 0. 0.
      -4.26366496e-05 0. 4.26366496e-05 0. 2.13183259e-04 2.98456551e-04
      0. 0. 0. 0. 4.26366496e-05 -4.26366496e-05 4.26366496e-05 0.
      4.26366496e-05 0. 0. 0. 0. 0. 4.26366496e-05 1.27909952e-04 0.
      -4.26366496e-05 4.26366496e-05 0. 0. 0. 0. 0. 4.26366496e-05 0. 0.
      0. 0. 0. 4.26366496e-05 0. 0. -4.26366496e-05 0. 4.26366496e-05 0.
      0. 0. 4.26366496e-05 -4.26366496e-05 -4.26366496e-05
      -4.26366496e-05 0. 0. 0. -8.52732992e-05 8.52732992e-05 0. 0. 0.
      4.26366496e-05 0. -4.26366496e-05 0. -8.52732992e-05 0. 0.
      -4.26366496e-05 0. 0. 0. 0. 4.26366496e-05 0. 0. 0. 0. 0.
      4.26366496e-05 0. 0. 0. 0. 0. 0. 0. 0. 0. 8.52732992e-05
      -4.26366496e-05 0. 4.26366496e-05 4.26366496e-05 0. 0.
      4.26366496e-05 4.26366496e-05 -4.26366496e-05 0. -1.27909952e-04
      -4.26366496e-05 0. 0. -1.27909952e-04 0. 0. 0. 0. 0. 0. 0. 0.
      4.26366496e-05 4.26366496e-05 0. -4.26366496e-05 0.
      -4.26366496e-05 0. -1.27909952e-04 0. 0. 0. 0. 0. 0. 0. 0.
      8.52732992e-05 -4.26366496e-05 -4.26366496e-05 0. 0. 0. 0. 0.
      -4.26366496e-05 0. 0. 0. 8.52732992e-05 0. 0. 4.26366496e-05 0. 0.
      0. 0. 0. 0. 0. -1.70546598e-04 0. 0. 0. 0. 0. 0. 0. 0. 0. 0. 0. 0.
      0. 0. 0. 0. 0. 0. 0. 0. 0. 0. 0. 0. 0. 0. 0. 0. 0. 0.
      -4.26366496e-05 -4.26366496e-05 0. 0. -4.26366496e-05 0. 0. 0.
      4.26366496e-05 0. 0. 0. 0. 0. 0. 0. 0. -4.26366496e-05
      4.26366496e-05 0. 0. 4.26366496e-05 0. 0. -4.26366496e-05 0. 0. 0.
      0. -4.26366496e-05 4.26366496e-05 0. 0. -4.26366496e-05
      1.70546598e-04 0. 0. 0. 4.26366496e-05 0. 4.26366496e-05 0.
      4.26366496e-05 -1.27909952e-04 8.52732992e-05 -1.70546598e-04
      4.26366496e-05 0. 4.26366496e-05 4.26366496e-05 -4.26366496e-05
      4.26366496e-05 0. -4.26366496e-05 0. -4.26366496e-05
      4.26366496e-05 0. -2.13183259e-04 1.27909952e-04 4.26366496e-05 0.
      -8.52732992e-05 0. -4.26366496e-05 -5.11639810e-04 2.13183259e-04
      0. 0. 4.26366496e-05 4.26366496e-05 4.26366496e-05 0. 0.
      4.26366496e-05 0. 0. 4.26366496e-05 8.52732992e-05 0. 0.
      8.52732992e-05 1.27909952e-04 0. 4.26366496e-05 0. 1.27909952e-04
      0. -4.26366496e-05 0. -4.26366496e-05 0. 0. 0. 0. 0. 0.
      -8.52732992e-05 4.26366496e-05 0. 0. 4.26366496e-05 4.26366496e-05
      0. 0. 0. 0. 0. 0. 2.98456551e-04 0. 0. 8.52732992e-05
      4.26366496e-05 4.26366496e-05 0. 0. 0. 4.26366496e-05 0. 0. 0. 0.
      -4.26366496e-05 0. 0. 0. 0. 0. -4.26366496e-05 8.52732992e-05 0.
      4.26366496e-05 0. 0. 0. 0. 0. 0. 0. 0. -8.52732992e-05 0. 0. 0. 0.
      4.26366496e-05 0. 0. 0. 0. 0. 0. 0. 0. 0. 4.26366496e-05 0. 0. 0.
      0. -4.26366496e-05 0. 0. 0. 0. 4.26366496e-05 0. 0. 0.
      4.26366496e-05 -4.26366496e-05 0. -8.52732992e-05 -4.26366496e-05
      0. 0. -4.26366496e-05 0. 0. 0. 0. 4.26366496e-05 0. 4.26366496e-05
      4.26366496e-05 4.26366496e-05 0. 4.26366496e-05 -8.52732992e-05 0.
      0. 0. -4.26366496e-05 0. 0. 0. 0. 4.26366496e-05 0. 0.
      4.26366496e-05 0. 0. 0. 0. 0. -4.26366496e-05 0. 0. 4.26366496e-05
      0. 0. 0. 0. 0. -4.26366496e-05 4.26366496e-05 -4.26366496e-05 0.
      0. -4.26366496e-05 0. 4.26366496e-05 4.26366496e-05
      -8.52732992e-05 0. 0. 0. 0. 0. 0. 0. 0. 0. 0. 0. 0. 0. 0. 0.
      4.26366496e-05 4.26366496e-05 0. 0. 0. 0. -4.26366496e-05 0.
      -8.52732992e-05 0. 0. 0. 0. 0. 0. 0. -1.27909952e-04
      8.52732992e-05 0. 0. -4.26366496e-05 0. 0. 0. 0. 0. 0. 0.
      -4.26366496e-05 0. 0. 0. 0. 1.27909952e-04 0. -4.26366496e-05
      -4.26366496e-05 1.27909952e-04 0. -8.52732992e-05 -8.52732992e-05
      0. -4.26366496e-05 -4.26366496e-05 8.52732992e-05 0. 0. 0.
      -1.27909952e-04 1.27909952e-04 0. -4.26366496e-05 0. 0. 0. 0.
      4.26366496e-05 0. 4.26366496e-05 4.26366496e-05 -8.52732992e-05
      4.26366496e-05 -1.27909952e-04 0. -4.26366496e-05 1.70546598e-04
      8.52732992e-05 0. 0. 1.70546598e-04 0. -4.26366496e-05
      -8.52732992e-05 -4.26366496e-05 0. -4.26366496e-05 -4.26366496e-05
      -1.70546598e-04 -4.26366496e-05 -2.13183259e-04 -7.67459685e-04
      3.41093197e-04 -4.26366496e-05 0. 0. 4.26366496e-05 0. 0. 0.
      8.52732992e-05 8.52732992e-05 0. 1.27909952e-04 4.26366496e-05 0.
      0. 0. 8.52732992e-05 0. 4.26366496e-05 0. 8.52732992e-05 0. 0. 0.
      4.26366496e-05 0. 0. -4.26366496e-05 0. 0. 0. -1.27909952e-04
      1.27909952e-04 0. 4.26366496e-05 0. 4.26366496e-05 0. 0. 0.
      4.26366496e-05 4.26366496e-05 0. 4.26366496e-05 0. 0. 0.
      8.52732992e-05 0. 0. 0. 0. 0. 0. 0. 0. 0. 4.26366496e-05 0. 0. 0.
      0. 0. -8.52732992e-05 8.52732992e-05 0. -4.26366496e-05 0. 0.
      -4.26366496e-05 -4.26366496e-05 0. 0. 0. 0. 0. 4.26366496e-05 0.
      0. 0. 4.26366496e-05 0. 0. 0. 0. 0. -4.26366496e-05 0. 0. 0. 0. 0.
      0. 0. 0. 0. 0. 0. -4.26366496e-05 0. 0. 0. 0. 0. 1.27909952e-04
      1.27909952e-04 4.26366496e-05 0. 4.26366496e-05 0. 4.26366496e-05
      -8.52732992e-05 0. 0. 0. 4.26366496e-05 -4.26366496e-05 0. 0. 0.
      4.26366496e-05 0. 0. -8.52732992e-05 -4.26366496e-05 0. 0.
      -1.27909952e-04 4.26366496e-05 0. 8.52732992e-05 0. 0. 0. 0. 0.
      4.26366496e-05 0. 0. 0. 0. 0. 0. 0. 0. 0. 0. 0. 0. 0. 0.
      8.52732992e-05 0. 0. 0. 0. -4.26366496e-05 0. 4.26366496e-05
      -4.26366496e-05 0. -4.26366496e-05 0. 0. 0. 0. 0. 0. 0. 0. 0. 0.
      0. 0. 0. 0. 0. 0. 0. 0. 0. 0. 0. -4.26366496e-05 0.
      -4.26366496e-05 0. 0. 4.26366496e-05 0. 0. -4.26366496e-05
      4.26366496e-05 0. 0. 0. 0. 0. 0. 4.26366496e-05 0. 0. 0.
      4.26366496e-05 0. 0. 0. 0. 8.52732992e-05 0. 0. 0. 0.
      4.26366496e-05 -1.70546598e-04 -8.52732992e-05 4.26366496e-05 0.
      0. 0. -4.26366496e-05 0. -4.26366496e-05 -4.26366496e-05 0. 0. 0.
      8.52732992e-05 0. 0. 4.26366496e-05 4.26366496e-05 4.26366496e-05
      8.52732992e-05 0. -8.52732992e-05 0. 0. 0. -8.52732992e-05
      8.52732992e-05 4.26366496e-05 0. 0. 4.26366496e-05 0.
      -8.52732992e-05 0. -1.70546598e-04 -8.52732992e-05 -4.26366496e-05
      -8.52732992e-05 4.26366496e-05 -8.52732992e-05 -1.70546598e-04
      -8.10096331e-04 2.98456551e-04 0. 8.52732992e-05 0. 1.27909952e-04
      0. 4.26366496e-05 0. 1.27909952e-04 4.26366496e-05 0.
      -8.52732992e-05 -4.26366496e-05 0. 4.26366496e-05 0.
      4.26366496e-05 -4.26366496e-05 0. 4.26366496e-05 0. 0. 0.
      -4.26366496e-05 0. 0. 0. 0. 0. 0. 0. -8.52732992e-05
      8.52732992e-05 0. -8.52732992e-05 4.26366496e-05 0. 0. 0. 0.
      4.26366496e-05 0. 4.26366496e-05 -8.52732992e-05 4.26366496e-05 0.
      0. -4.26366496e-05 0. 0. 0. 4.26366496e-05 0. 0. 0. 4.26366496e-05
      0. 0. 0. 0. 4.26366496e-05 0. -4.26366496e-05 0. 2.13183259e-04 0.
      -4.26366496e-05 -8.52732992e-05 0. 0. 0. 0. 0. 0. 0.
      -4.26366496e-05 0. 0. 0. -4.26366496e-05 0. 0. 0. 0. 0. 0. 0.
      4.26366496e-05 0. 0. 0. 0. 0. 0. 4.26366496e-05 0. 4.26366496e-05
      0. 4.26366496e-05 0. 0. 0. 0. 0. -4.26366496e-05 -4.26366496e-05
      4.26366496e-05 -2.98456551e-04 0. 0. -4.26366496e-05
      -4.26366496e-05 0. 8.52732992e-05 0. 0. 0. 0. -4.26366496e-05 0.
      0. 0. 0. 0. -1.27909952e-04 0. 0. -1.27909952e-04 0. 0. 0. 0.
      4.26366496e-05 0. 0. 0. 8.52732992e-05 0. 0. 0. 4.26366496e-05 0.
      4.26366496e-05 -4.26366496e-05 4.26366496e-05 4.26366496e-05
      4.26366496e-05 0. 4.26366496e-05 0. 0. 0. -4.26366496e-05 0. 0. 0.
      0. 0. 0. -4.26366496e-05 0. 0. 0. 0. -4.26366496e-05 0. 0. 0. 0.
      0. 0. 4.26366496e-05 0. 0. 0. 0. 0. 0. 0. 0. 0. 0. 0. 0. 0. 0.
      -4.26366496e-05 0. 0. 0. -4.26366496e-05 -1.70546598e-04 0. 0.
      -4.26366496e-05 -4.26366496e-05 0. 0. 4.26366496e-05
      4.26366496e-05 0. 0. 0. 0. 0. 0. 0. 0. -4.26366496e-05 0. 0.
      4.26366496e-05 -8.52732992e-05 0. 0. -8.52732992e-05
      -4.26366496e-05 -4.26366496e-05 0. 4.26366496e-05 -4.26366496e-05
      0. -4.26366496e-05 -8.52732992e-05 4.26366496e-05 0. 0. 0.
      -4.26366496e-05 0. 0. 0. -8.52732992e-05 -4.26366496e-05 0. 0. 0.
      0. 0. 0. 0. 0. -4.26366496e-05 -8.52732992e-05 -4.26366496e-05
      -4.26366496e-05 -1.27909952e-04 4.26366496e-05 4.26366496e-05 0.
      0. 0. 0. 0. -2.55819905e-04 8.10096331e-04 2.55819905e-04
      8.52732992e-05 0. 8.52732992e-05 -4.26366496e-05 4.26366496e-05 0.
      0. 0. -4.26366496e-05 0. 0. 0. 0. 0. 4.26366496e-05 1.27909952e-04
      4.26366496e-05 -4.26366496e-05 4.26366496e-05 0. 0.
      -4.26366496e-05 4.26366496e-05 0. 0. 0. 0. 0. 0. 0.
      -4.26366496e-05 0. 0. 0. 0. 0. 0. 0. 4.26366496e-05 0.
      4.26366496e-05 0. 0. 0. 0. 0. 1.27909952e-04 0. 4.26366496e-05 0.
      0. 4.26366496e-05 0. 0. 8.52732992e-05 4.26366496e-05 0. 0. 0. 0.
      0. 4.26366496e-05 -4.26366496e-05 -1.27909952e-04 8.52732992e-05
      0. 0. -4.26366496e-05 0. 0. 0. 0. 0. 0. -4.26366496e-05
      8.52732992e-05 0. 0. 0. 0. 0. 0. 0. 0. 0. 4.26366496e-05 0. 0. 0.
      0. 0. 0. 0. 0. 0. 8.52732992e-05 0. -4.26366496e-05 0. 0. 0. 0. 0.
      -8.52732992e-05 -4.26366496e-05 4.26366496e-05 -8.52732992e-05
      4.26366496e-05 0. 0. -4.26366496e-05 4.26366496e-05 0. 0. 0. 0. 0.
      0. -4.26366496e-05 4.26366496e-05 -4.26366496e-05 -4.26366496e-05
      4.26366496e-05 0. 0. 0. -2.13183259e-04 0. 0. 0. 0. 0. 0. 0. 0.
      4.26366496e-05 0. 0. 0. 0. 0. 0. -4.26366496e-05 -4.26366496e-05
      0. 0. 4.26366496e-05 4.26366496e-05 0. 0. -8.52732992e-05
      -8.52732992e-05 0. 0. 0. 0. 0. 0. -4.26366496e-05 0. 0. 0. 0. 0.
      0. 0. 0. 0. 0. 0. -4.26366496e-05 0. 0. 0. 0. 0. 0. 0. 0. 0. 0. 0.
      0. 0. 0. 0. 0. 0. -4.26366496e-05 0. -8.52732992e-05 0. 0. 0. 0.
      0. 0. 4.26366496e-05 0. 4.26366496e-05 0. 0. 0. 0. 0. 0. 0.
      4.26366496e-05 4.26366496e-05 0. 0. 4.26366496e-05 -4.26366496e-05
      -8.52732992e-05 4.26366496e-05 -4.26366496e-05 0. 0.
      -4.26366496e-05 -8.52732992e-05 0. 0. -4.26366496e-05
      4.26366496e-05 0. 0. 0. 0. 0. -4.26366496e-05 0. 1.27909952e-04
      8.52732992e-05 0. 0. 0. -4.26366496e-05 0. -1.70546598e-04
      4.26366496e-05 0. 0. 0. -8.52732992e-05 -4.26366496e-05
      -8.52732992e-05 0. 0. 0. 0. -1.27909952e-04 -4.26366496e-05
      -1.27909952e-04 -1.27909952e-04 3.83729843e-04 5.11639810e-04
      4.26366496e-05 8.52732992e-05 0. 0. -4.26366496e-05 0. 0.
      -4.26366496e-05 -4.26366496e-05 4.26366496e-05 0. 4.26366496e-05
      4.26366496e-05 0. 0. 8.52732992e-05 4.26366496e-05 0. 0. 0. 0. 0.
      4.26366496e-05 8.52732992e-05 4.26366496e-05 0. -4.26366496e-05
      4.26366496e-05 0. 0. 0. 4.26366496e-05 0. 4.26366496e-05 0. 0. 0.
      0. 4.26366496e-05 8.52732992e-05 0. 0. 0. 0. -4.26366496e-05
      8.52732992e-05 4.26366496e-05 0. 0. 0. 0. 0. 0. 0. 4.26366496e-05
      0. -4.26366496e-05 0. 0. 0. 0. -4.26366496e-05 -8.52732992e-05
      8.52732992e-05 0. 0. 0. 4.26366496e-05 0. 0. 0. 0. 0. 0. 0.
      4.26366496e-05 0. -4.26366496e-05 0. 0. 0. 0. 0. 0. 0. 0. 0. 0. 0.
      0. 0. 0. 0. 0. 0. 1.27909952e-04 0. 0. 0. 0. 0. 0. 0.
      -4.26366496e-05 -4.26366496e-05 0. -2.98456551e-04 0. 0. 0.
      -2.13183259e-04 4.26366496e-05 0. 0. 0. 4.26366496e-05
      4.26366496e-05 0. 0. 0. 0. 0. -1.27909952e-04 -4.26366496e-05 0.
      0. -8.52732992e-05 -4.26366496e-05 0. 4.26366496e-05 0. 0. 0.
      4.26366496e-05 0. 4.26366496e-05 0. 0. 0. 0. 0. 0. 0. 0. 0. 0. 0.
      -4.26366496e-05 0. -4.26366496e-05 4.26366496e-05 4.26366496e-05
      4.26366496e-05 0. 0. -8.52732992e-05 0. 4.26366496e-05
      -4.26366496e-05 0. 0. 0. 0. 0. 0. 0. 0. 0. 0. 0. 0. 4.26366496e-05
      0. 0. 0. 4.26366496e-05 0. 0. 0. 0. 0. 0. -4.26366496e-05 0.
      -4.26366496e-05 0. 4.26366496e-05 0. -4.26366496e-05 0.
      4.26366496e-05 4.26366496e-05 0. 0. 0. 0. 0. 0. 1.27909952e-04 0.
      0. 0. 0. 4.26366496e-05 0. 0. 0. 0. 0. 0. 0. -8.52732992e-05
      8.52732992e-05 -1.27909952e-04 -1.70546598e-04 -4.26366496e-05 0.
      0. 4.26366496e-05 4.26366496e-05 0. -1.27909952e-04
      -8.52732992e-05 0. 0. 0. -4.26366496e-05 0. 0. 0. 4.26366496e-05
      0. 0. 0. -8.52732992e-05 0. 4.26366496e-05 4.26366496e-05
      4.26366496e-05 0. 0. 0. 4.26366496e-05 -4.26366496e-05 0.
      -1.70546598e-04 -1.27909952e-04 8.52732992e-05 4.26366496e-05 0.
      -8.52732992e-05 -4.26366496e-05 0. -1.27909952e-04 -8.52732992e-05
      4.26366518e-04 0. 0. 0. 4.26366496e-05 0. 0. 8.52732992e-05
      2.13183259e-04 0. 4.26366496e-05 -8.52732992e-05 0. 8.52732992e-05
      4.26366496e-05 4.26366496e-05 1.70546598e-04 0. 0. 0.
      4.26366496e-05 0. 0. 0. 4.26366496e-05 4.26366496e-05 0. 0. 0. 0.
      0. 0. 0. 0. 4.26366496e-05 0. 0. 0. 0. 0. 8.52732992e-05 0. 0. 0.
      -4.26366496e-05 0. -4.26366496e-05 0. 4.26366496e-05 0. 0. 0. 0.
      0. 4.26366496e-05 -4.26366496e-05 0. 0. 0. 0. 0. -4.26366496e-05
      0. 0. 4.26366496e-05 4.26366496e-05 0. 0. -4.26366496e-05 0. 0. 0.
      4.26366496e-05 8.52732992e-05 0. 4.26366496e-05 0. 0. 0. 0.
      4.26366496e-05 0. 4.26366496e-05 0. 4.26366496e-05 0.
      -4.26366496e-05 0. 0. 0. 0. 0. 0. 0. 0. -4.26366496e-05 0. 0.
      -4.26366496e-05 0. 0. 0. 0. 0. 4.26366496e-05 0. 0. 4.26366496e-05
      -4.26366496e-05 0. -4.26366496e-05 -8.52732992e-05 4.26366496e-05
      -4.26366496e-05 0. 0. 0. -4.26366496e-05 0. 8.52732992e-05
      8.52732992e-05 0. 0. 4.26366496e-05 4.26366496e-05 -4.26366496e-05
      0. -4.26366496e-05 0. 0. 8.52732992e-05 0. -4.26366496e-05 0.
      -4.26366496e-05 0. 0. 0. 0. 0. 0. 0. 0. 4.26366496e-05
      4.26366496e-05 0. 0. 0. 0. 0. -8.52732992e-05 -4.26366496e-05
      8.52732992e-05 0. 0. 0. 0. 0. -4.26366496e-05 0. 0. 0.
      4.26366496e-05 0. 0. 0. 0. 0. 0. 0. 0. -4.26366496e-05 0. 0.
      4.26366496e-05 -4.26366496e-05 0. 0. 0. 0. 0. 0. -4.26366496e-05
      0. 0. 4.26366496e-05 0. 0. 0. -8.52732992e-05 0. -1.70546598e-04
      0. 0. 0. 0. 0. 0. 0. 4.26366496e-05 0. 0. 0. 0. 0. 0. 0. 0.
      4.26366496e-05 0. 0. 0. -4.26366496e-05 0. -2.98456551e-04
      -4.26366496e-05 0. 0. 0. 4.26366496e-05 0. 8.52732992e-05 0.
      -2.13183259e-04 8.52732992e-05 0. 0. 4.26366496e-05 4.26366496e-05
      0. 0. 8.52732992e-05 4.26366496e-05 4.26366496e-05 -4.26366496e-05
      -8.52732992e-05 0. 0. 0. 0. 1.70546598e-04 8.52732992e-05 0. 0. 0.
      8.52732992e-05 0. -4.26366496e-05 0. 4.26366496e-05
      -4.26366496e-05 0. -4.26366496e-05 -4.26366496e-05 -8.52732992e-05
      -1.19382620e-03 4.69003164e-04 0. 0. 4.26366496e-05 0. 0. 0.
      4.26366496e-05 4.26366496e-05 -8.52732992e-05 8.52732992e-05
      1.27909952e-04 0. 0. 0. 2.13183259e-04 4.26366496e-05 0. 0. 0.
      4.26366496e-05 0. 4.26366496e-05 -4.26366496e-05 0.
      -4.26366496e-05 0. -8.52732992e-05 0. 0. 0. -4.26366496e-05
      1.27909952e-04 0. 0. 0. 8.52732992e-05 0. 0. 0. 0. -4.26366496e-05
      0. -4.26366496e-05 0. 0. -4.26366496e-05 1.27909952e-04 0.
      -4.26366496e-05 0. 0. 4.26366496e-05 0. -4.26366496e-05
      4.26366496e-05 0. 0. 0. -4.26366496e-05 4.26366496e-05 0. 0. 0. 0.
      0. 0. 0. 4.26366496e-05 0. 0. -4.26366496e-05 0. 0. 0. 0. 0. 0.
      4.26366496e-05 0. 1.27909952e-04 0. 0. 0. 0. 0. 0. -4.26366496e-05
      0. 0. 0. 0. 0. 0. 0. -4.26366496e-05 8.52732992e-05 0.
      4.26366496e-05 0. 0. 0. 0. 0. 0. -4.26366496e-05 -4.26366496e-05
      -4.26366496e-05 -4.26366496e-05 -4.26366496e-05 4.26366496e-05
      -8.52732992e-05 1.27909952e-04 0. 0. 0. -4.26366496e-05 0. 0.
      -4.26366496e-05 0. 4.26366496e-05 0. 0. 0. -4.26366496e-05 0.
      -4.26366496e-05 4.26366496e-05 0. 0. 0. 0. -4.26366496e-05 0. 0.
      0. 4.26366496e-05 0. -4.26366496e-05 4.26366496e-05 0. 0. 0. 0. 0.
      0. 4.26366496e-05 4.26366496e-05 0. -4.26366496e-05 8.52732992e-05
      1.27909952e-04 0. 0. 4.26366496e-05 -4.26366496e-05 0. 0.
      -4.26366496e-05 0. 0. 0. 0. 0. 0. 0. 0. 0. 0. 0. 0. 0. 0. 0. 0.
      4.26366496e-05 0. 0. 0. 0. 0. 0. -4.26366496e-05 0. 0. 0. 0. 0.
      -4.26366496e-05 0. -4.26366496e-05 4.26366496e-05 0. 0. 0. 0. 0.
      4.26366496e-05 0. 4.26366496e-05 4.26366496e-05 0. 4.26366496e-05
      0. 0. 0. 0. 4.26366496e-05 4.26366496e-05 0. 0. 8.52732992e-05
      4.26366496e-05 -8.52732992e-05 0. 0. 0. 0. -4.26366496e-05 0.
      -4.26366496e-05 0. -4.26366496e-05 0. 0. -4.26366496e-05 0.
      4.26366496e-05 0. -4.26366496e-05 0. -4.26366496e-05
      -4.26366496e-05 0. -1.27909952e-04 -4.26366496e-05 0. 0. 0.
      8.52732992e-05 8.52732992e-05 4.26366496e-05 0. 1.70546598e-04
      4.26366496e-05 -8.52732992e-05 -8.52732992e-05 -1.70546598e-04
      -8.52732992e-05 -8.52732992e-05 4.26366496e-05 -4.26366496e-05
      -8.52732992e-05 0. -9.38006327e-04 5.54276456e-04 0.
      -1.70546598e-04 0. 4.26366496e-05 -8.52732992e-05 4.26366496e-05
      4.26366496e-05 4.26366496e-05 4.26366496e-05 4.26366496e-05
      4.26366496e-05 0. 0. 0. 1.27909952e-04 1.70546598e-04 0.
      4.26366496e-05 0. 8.52732992e-05 0. 8.52732992e-05 4.26366496e-05
      0. 4.26366496e-05 0. 0. 4.26366496e-05 0. 0. -4.26366496e-05
      -4.26366496e-05 0. 4.26366496e-05 0. 4.26366496e-05 0. 0. 0.
      4.26366496e-05 0. 4.26366496e-05 1.27909952e-04 0. 0.
      4.26366496e-05 0. 0. 0. 0. 0. -4.26366496e-05 0. 0. 4.26366496e-05
      0. 0. 0. 4.26366496e-05 0. 0. 0. -8.52732992e-05 -4.26366496e-05
      0. 4.26366496e-05 0. 0. 4.26366496e-05 4.26366496e-05 0.
      4.26366496e-05 0. 0. 0. 0. 0. 0. -4.26366496e-05 0. 0. 0. 0. 0. 0.
      0. 0. 0. 0. 0. 0. 4.26366496e-05 0. -4.26366496e-05
      -4.26366496e-05 0. 0. 0. 0. 4.26366496e-05 0. 0. 0. 4.26366496e-05
      4.26366496e-05 0. -8.52732992e-05 -4.26366496e-05 0.
      4.26366496e-05 -8.52732992e-05 0. 0. 0. 4.26366496e-05 0. 0. 0. 0.
      0. -4.26366496e-05 0. 0. 0. 0. 0. -8.52732992e-05 -8.52732992e-05
      0. 0. -4.26366496e-05 0. 0. -4.26366496e-05 0. 4.26366496e-05 0.
      0. 4.26366496e-05 0. 0. 0. 0. 0. 4.26366496e-05 0. 0. 0. 0. 0.
      2.13183259e-04 0. 0. 0. 0. 0. 4.26366496e-05 0. -8.52732992e-05
      -4.26366496e-05 0. 0. 0. 0. 0. 0. 0. 0. 0. 0. 4.26366496e-05 0. 0.
      0. 8.52732992e-05 0. 0. 0. -4.26366496e-05 0. 0. 0. 4.26366496e-05
      0. 0. 0. 0. 4.26366496e-05 0. 0. -1.70546598e-04 4.26366496e-05 0.
      -4.26366496e-05 0. 0. 0. 0. 0. 4.26366496e-05 4.26366496e-05 0. 0.
      0. 0. 0. 0. 0. -4.26366496e-05 0. 0. 4.26366496e-05 0.
      -4.26366496e-05 8.52732992e-05 0. 0. -4.26366496e-05 0. 0. 0. 0.
      -8.52732992e-05 4.26366496e-05 0. 0. -4.26366496e-05 0. 0.
      -4.26366496e-05 0. 1.70546598e-04 8.52732992e-05 0.
      -4.26366496e-05 0. 0. 0. -4.26366496e-05 8.52732992e-05 0. 0. 0.
      0. 0. -1.70546598e-04 -8.52732992e-05 -8.52732992e-05
      -8.52732992e-05 -4.26366496e-05 -8.52732992e-05 -2.55819905e-04
      -1.27909952e-04 -1.70546598e-04 -5.54276456e-04 1.27909952e-04
      1.27909952e-04 1.27909952e-04 -4.26366496e-05 4.26366496e-05 0. 0.
      0. 8.52732992e-05 1.27909952e-04 -4.26366496e-05 0. 0. 0.
      4.26366496e-05 -4.26366496e-05 -1.27909952e-04 0. 0. 0.
      -4.26366496e-05 0. 8.52732992e-05 2.13183259e-04 -1.27909952e-04
      0. 0. 0. 0. 0. 0. 0. 4.26366496e-05 0. -4.26366496e-05 0.
      4.26366496e-05 0. 0. 0. 4.26366496e-05 -4.26366496e-05
      4.26366496e-05 4.26366496e-05 4.26366496e-05 0. 0. 4.26366496e-05
      0. 0. 4.26366496e-05 0. 0. 0. -4.26366496e-05 0. 8.52732992e-05 0.
      0. 0. 0. 0. 0. -4.26366496e-05 4.26366496e-05 0. 0. 0.
      -4.26366496e-05 0. -4.26366496e-05 -8.52732992e-05 0. 0. 0. 0. 0.
      0. 0. 4.26366496e-05 0. 0. 0. 0. 4.26366496e-05 0. 0.
      -4.26366496e-05 0. 0. 0. 0. 0. 0. -4.26366496e-05 4.26366496e-05
      0. 0. 0. 0. -4.26366496e-05 0. 0. 0. 4.26366496e-05 0. 0.
      -4.26366496e-05 0. 0. 0. -8.52732992e-05 4.26366496e-05 0. 0. 0.
      0. 0. 0. 0. 4.26366496e-05 0. 0. -8.52732992e-05 0. 0. 0.
      -8.52732992e-05 4.26366496e-05 0. 8.52732992e-05 4.26366496e-05 0.
      0. 0. 0. 0. 4.26366496e-05 0. 0. 0. 0. 0. 4.26366496e-05
      8.52732992e-05 0. 0. 0. 4.26366496e-05 0. 4.26366496e-05
      4.26366496e-05 0. 0. -4.26366496e-05 0. 4.26366496e-05 0.
      4.26366496e-05 -8.52732992e-05 0. 0. 0. 0. -4.26366496e-05 0. 0.
      0. 0. 0. 0. 0. 0. 0. 0. 0. 4.26366496e-05 0. 0. 0. 0. 0. 0.
      4.26366496e-05 0. 0. 0. 0. 0. -4.26366496e-05 0. -1.27909952e-04
      0. 0. -4.26366496e-05 0. 0. 4.26366496e-05 0. 0. 0. 0. 0. 0. 0.
      4.26366496e-05 0. 0. -4.26366496e-05 4.26366496e-05 0. 0.
      -8.52732992e-05 0. -8.52732992e-05 0. 0. 0. 0. 0. 0. 0.
      4.26366496e-05 -4.26366496e-05 0. 0. -4.26366496e-05 0. 0. 0.
      -4.26366496e-05 0. 4.26366496e-05 0. 0. -8.52732992e-05 0. 0. 0.
      -4.26366496e-05 -1.27909952e-04 0. -4.26366496e-05 0.
      -8.52732992e-05 0. 0. 0. -1.70546598e-04 0. -4.26366496e-05
      -4.26366496e-05 -1.70546598e-04 -8.52732992e-05 -2.55819905e-04
      5.11639810e-04 4.69003164e-04 4.26366496e-05 8.52732992e-05 0.
      1.70546598e-04 0. 4.26366496e-05 4.26366496e-05 0. 0.
      8.52732992e-05 4.26366496e-05 4.26366496e-05 0. 4.26366496e-05
      -4.26366496e-05 8.52732992e-05 0. 0. 0. 4.26366496e-05
      4.26366496e-05 8.52732992e-05 0. 0. 4.26366496e-05 0.
      -4.26366496e-05 0. 4.26366496e-05 0. -4.26366496e-05
      8.52732992e-05 4.26366496e-05 0. 0. 0. 0. -4.26366496e-05 0. 0.
      -4.26366496e-05 0. -1.27909952e-04 -4.26366496e-05 0. 0.
      4.26366496e-05 0. 8.52732992e-05 0. 0. 0. 0. 4.26366496e-05 0. 0.
      0. 0. 0. 0. 0. 0. -8.52732992e-05 8.52732992e-05 0. 0. 0. 0. 0. 0.
      -4.26366496e-05 4.26366496e-05 0. 0. -4.26366496e-05 0. 0. 0. 0.
      4.26366496e-05 4.26366496e-05 0. 0. 0. 0. 0. 0. 0. -4.26366496e-05
      0. 0. 0. 0. 0. 0. 4.26366496e-05 0. 0. 0. 0. 0. 0. 0.
      4.26366496e-05 0. 0. -1.27909952e-04 4.26366496e-05 0. 0.
      -1.70546598e-04 0. 0. 4.26366496e-05 0. 0. 4.26366496e-05 0. 0. 0.
      0. 4.26366496e-05 1.27909952e-04 0. 0. 0. -1.70546598e-04
      8.52732992e-05 0. 0. 0. 4.26366496e-05 0. 4.26366496e-05 0.
      8.52732992e-05 0. 0. 0. 0. 0. 0. 0. 0. 4.26366496e-05
      4.26366496e-05 4.26366496e-05 0. -4.26366496e-05 8.52732992e-05
      -4.26366496e-05 0. 0. 0. 0. 0. 0. 0. 4.26366496e-05 0. 0. 0. 0. 0.
      0. 0. 0. 0. 0. 0. -4.26366496e-05 0. 0. 0. 0. 0. 4.26366496e-05 0.
      0. -4.26366496e-05 0. 0. 4.26366496e-05 0. 0. 0. -8.52732992e-05
      4.26366496e-05 0. -4.26366496e-05 -1.27909952e-04 0. 0. 0. 0. 0.
      0. 4.26366496e-05 0. 4.26366496e-05 0. 0. 0. 4.26366496e-05
      4.26366496e-05 0. 0. -4.26366496e-05 0. 4.26366496e-05 0.
      -4.26366496e-05 0. -8.52732992e-05 -8.52732992e-05 0. 0. 0.
      -4.26366496e-05 0. 8.52732992e-05 0. 0. -4.26366496e-05 0. 0. 0.
      0. 0. 0. -4.26366496e-05 -5.11639810e-04 -8.52732992e-05 0. 0. 0.
      0. 4.26366496e-05 -8.52732992e-05 -8.52732992e-05 0.
      4.26366496e-05 -4.26366496e-05 4.26366496e-05 -4.26366496e-05
      -1.27909952e-04 -1.27909952e-04 -2.98456551e-04 0. -4.26366496e-05
      -1.27909952e-04 0. -4.26366496e-05 -1.70546598e-04 2.98456551e-04
      6.39549748e-04 8.52732992e-05 1.27909952e-04 0. -8.52732992e-05
      4.26366496e-05 0. -4.26366496e-05 -4.26366496e-05 4.26366496e-05
      0. 8.52732992e-05 0. 0. 4.26366496e-05 8.52732992e-05
      -4.26366496e-05 -4.26366496e-05 0. 0. 0. 0. 4.26366496e-05
      1.27909952e-04 0. 0. 0. 0. 1.27909952e-04 0. -4.26366496e-05
      -8.52732992e-05 4.26366496e-05 0. 0. -4.26366496e-05 0. 0.
      4.26366496e-05 -4.26366496e-05 0. -4.26366496e-05 0.
      -8.52732992e-05 0. 0. -4.26366496e-05 0. 4.26366496e-05
      -4.26366496e-05 0. 0. 0. 0. 0. 0. 4.26366496e-05 -4.26366496e-05
      4.26366496e-05 0. 0. 0. -4.26366496e-05 8.52732992e-05
      8.52732992e-05 0. 0. 0. 0. 0. 4.26366496e-05 -4.26366496e-05 0.
      8.52732992e-05 0. 0. -4.26366496e-05 0. 0. 0. 0. 0. 0. 0. 0. 0. 0.
      -4.26366496e-05 0. 0. 0. 0. 4.26366496e-05 0. 0. 4.26366496e-05
      4.26366496e-05 0. 0. 0. 0. 0. 0. 0. 0. -1.70546598e-04 0.
      -8.52732992e-05 8.52732992e-05 -4.26366496e-05 0. -4.26366496e-05
      0. 0. 0. 0. 4.26366496e-05 0. 0. 0. 0. 0. 0. 0. -4.26366496e-05 0.
      0. -4.26366496e-05 0. 0. 0. 0. 0. 0. 0. 0. 4.26366496e-05 0. 0.
      -4.26366496e-05 0. 0. 0. 0. 4.26366496e-05 0. 0. 0. 4.26366496e-05
      0. -1.27909952e-04 0. 0. 0. 0. 0. 0. 0. 0. -4.26366496e-05 0. 0.
      0. 4.26366496e-05 -4.26366496e-05 0. 0. 0. 0. 0. 0. 0. 0. 0. 0.
      -8.52732992e-05 4.26366496e-05 0. 0. 0. 0. 0. 0. -8.52732992e-05
      0. 0. 0. 0. 0. 0. 0. -1.27909952e-04 4.26366496e-05 0. 0. 0. 0. 0.
      -4.26366496e-05 -4.26366496e-05 0. 0. 4.26366496e-05 0. 0. 0. 0.
      0. 4.26366496e-05 0. -8.52732992e-05 -4.26366496e-05
      -4.26366496e-05 0. 0. -8.52732992e-05 4.26366496e-05 0. 0.
      -4.26366496e-05 0. 0. 0. -4.26366496e-05 8.52732992e-05 0. 0.
      4.26366496e-05 0. 0. 0. 0. 0. 0. 0. -8.52732992e-05
      -4.26366496e-05 -4.26366496e-05 4.26366496e-05 -4.26366496e-05
      2.13183259e-04 8.52732992e-05 0. 0. -1.27909952e-04 0.
      -4.26366496e-05 -8.52732992e-05 -1.70546598e-04 -8.52732992e-05 0.
      -1.70546598e-04 0. -1.70546598e-04 0. 2.98456551e-04
      6.39549748e-04 4.26366496e-05 4.26366496e-05 0. 4.26366496e-05 0.
      0. 0. 8.52732992e-05 1.27909952e-04 -4.26366496e-05
      -2.13183259e-04 0. 0. 0. -4.26366496e-05 4.26366496e-05
      -4.26366496e-05 8.52732992e-05 0. 0. 0. 0. 0. 8.52732992e-05
      4.26366496e-05 0. 0. 4.26366496e-05 4.26366496e-05 -8.52732992e-05
      -4.26366496e-05 4.26366496e-05 0. 0. -4.26366496e-05 0. 0.
      8.52732992e-05 0. -4.26366496e-05 0. 0. 0. -4.26366496e-05 0.
      -4.26366496e-05 -2.13183259e-04 0. 0. 4.26366496e-05 0.
      -4.26366496e-05 -4.26366496e-05 0. 4.26366496e-05 0. 0. 0. 0. 0.
      0. 0. -1.27909952e-04 4.26366496e-05 4.26366496e-05 4.26366496e-05
      0. 0. 0. -4.26366496e-05 0. 0. 0. 0. 0. -4.26366496e-05 0. 0. 0.
      0. 0. 0. 0. 4.26366496e-05 0. -4.26366496e-05 0. 0. 0. 0. 0.
      4.26366496e-05 0. 0. -4.26366496e-05 -4.26366496e-05 0.
      -4.26366496e-05 4.26366496e-05 0. 0. 0. 8.52732992e-05
      4.26366496e-05 1.27909952e-04 -4.26366496e-05 -1.70546598e-04 0.
      0. 0. 8.52732992e-05 0. 4.26366496e-05 0. 0. 0. 0. 0. 0.
      -4.26366496e-05 0. 0. 0. 0. 0. -4.26366496e-05 -1.27909952e-04
      8.52732992e-05 -4.26366496e-05 0. 0. 0. 0. 0. 0. 4.26366496e-05 0.
      0. 4.26366496e-05 0. 0. 0. 0. 0. 4.26366496e-05 4.26366496e-05 0.
      0. 0. 0. 0. -4.26366496e-05 4.26366496e-05 0. 0. 0. 0. 0.
      -1.27909952e-04 0. 4.26366496e-05 0. 0. 0. 0. 0. -4.26366496e-05
      0. 4.26366496e-05 0. -4.26366496e-05 0. 0. 0. 0. -4.26366496e-05
      0. 0. 0. 4.26366496e-05 0. 0. 0. 0. 0. 0. 0. 0. 0. -4.26366496e-05
      -8.52732992e-05 0. 0. 0. 0. 4.26366496e-05 0. 4.26366496e-05 0. 0.
      0. 0. 0. -4.26366496e-05 0. 0. -4.26366496e-05 -8.52732992e-05 0.
      0. -4.26366496e-05 -8.52732992e-05 4.26366496e-05 -1.27909952e-04
      4.26366496e-05 0. 0. 0. 0. 4.26366496e-05 4.26366496e-05 0.
      -8.52732992e-05 0. 0. 0. 0. 0. 4.26366496e-05 0. 8.52732992e-05
      4.26366496e-05 0. 0. 0. 0. -4.26366496e-05 4.26366496e-05
      -4.26366496e-05 0. 0. 4.26366496e-05 -8.52732992e-05 0.
      -4.26366496e-05 -1.70546598e-04 0. 0. -4.26366496e-05
      -4.26366496e-05 -4.26366496e-05 0. -4.26366496e-05 -4.26366496e-05
      2.13183259e-04 3.83729843e-04 8.52732992e-05 0. 0. 4.26366496e-05
      0. 0. 4.26366496e-05 0. 4.26366496e-05 4.26366496e-05
      8.52732992e-05 4.26366496e-05 4.26366496e-05 8.52732992e-05
      4.26366496e-05 2.13183259e-04 0. 4.26366496e-05 0. 0.
      4.26366496e-05 8.52732992e-05 4.26366496e-05 -4.26366496e-05 0. 0.
      0. 4.26366496e-05 0. 0. 0. -4.26366496e-05 4.26366496e-05 0. 0. 0.
      0. 0. 0. -4.26366496e-05 -4.26366496e-05 0. 4.26366496e-05 0.
      4.26366496e-05 0. 0. 0. 0. 0. 0. 0. 0. -4.26366496e-05 0.
      4.26366496e-05 -4.26366496e-05 0. -4.26366496e-05 0.
      4.26366496e-05 0. 8.52732992e-05 0. 4.26366496e-05 4.26366496e-05
      -4.26366496e-05 0. 0. 0. 4.26366496e-05 0. -4.26366496e-05
      4.26366496e-05 0. 0. 0. 0. 0. 0. 0. 4.26366496e-05 0. 0. 0.
      4.26366496e-05 0. 0. 0. 0. 0. 0. 0. 0. 0. 4.26366496e-05 0.
      -4.26366496e-05 0. 0. 0. 0. 0. -8.52732992e-05 -5.54276456e-04 0.
      -1.27909952e-04 0. -4.26366496e-05 0. 0. 0. 4.26366496e-05 0. 0.
      0. 0. 0. 0. -4.26366496e-05 0. 0. 4.26366496e-05 0. 0. 0.
      -8.52732992e-05 4.26366496e-05 0. 0. 0. 0. 0. 0. 0. 0. 0. 0. 0. 0.
      0. 0. 0. 0. 4.26366496e-05 0. 0. 8.52732992e-05 0. -1.70546598e-04
      -4.26366496e-05 0. 0. 0. 4.26366496e-05 0. -4.26366496e-05 0.
      8.52732992e-05 0. 0. 0. 0. 0. 0. 0. 0. 4.26366496e-05 0. 0. 0. 0.
      4.26366496e-05 0. 0. 0. 0. 0. 0. 0. 4.26366496e-05 0.
      -4.26366496e-05 4.26366496e-05 4.26366496e-05 0. 0. 0. 0. 0.
      -1.27909952e-04 0. 0. 0. 0. 0. 0. 0. 0. 0. 4.26366496e-05 0. 0. 0.
      0. 0. 4.26366496e-05 4.26366496e-05 0. 0. -4.26366496e-05
      -4.26366496e-05 0. 0. 0. 0. 0. 0. 0. 0. 0. 0. -1.27909952e-04
      4.26366496e-05 0. 0. 0. 0. 0. 0. 0. 0. -8.52732992e-05
      -4.26366496e-05 -1.70546598e-04 4.26366496e-05 0. 0.
      -8.52732992e-05 1.70546598e-04 0. 4.26366496e-05 0. 8.52732992e-05
      0. -4.26366496e-05 1.27909952e-04 -2.13183259e-04 -1.27909952e-04
      0. -1.70546598e-04 -4.26366496e-05 -8.52732992e-05 -4.26366496e-05
      -1.27909952e-04 2.98456551e-04 8.52732992e-05 4.26366496e-05
      -4.26366496e-05 0. 0. 0. 4.26366496e-05 2.55819905e-04
      -4.26366496e-05 0. -8.52732992e-05 8.52732992e-05 0.
      4.26366496e-05 1.70546598e-04 4.26366496e-05 0. 0. 0. 0.
      4.26366496e-05 -4.26366496e-05 -8.52732992e-05 8.52732992e-05 0.
      0. 4.26366496e-05 0. 0. -4.26366496e-05 8.52732992e-05
      4.26366496e-05 0. 4.26366496e-05 0. 0. 0. 0. 4.26366496e-05
      -4.26366496e-05 0. 4.26366496e-05 0. 0. 0. 0. 1.27909952e-04
      2.13183259e-04 0. 0. 0. 0. 0. 4.26366496e-05 0. 4.26366496e-05 0.
      4.26366496e-05 -4.26366496e-05 0. 0. 0. 0. -1.27909952e-04
      -4.26366496e-05 -4.26366496e-05 0. 0. 0. 0. 0. 4.26366496e-05 0.
      0. 0. 0. 0. 4.26366496e-05 0. 4.26366496e-05 0. 0. 0. 0. 0. 0. 0.
      4.26366496e-05 0. 0. 0. 0. 0. 0. 0. 0. 0. 0. 0. 4.26366496e-05 0.
      0. 0. -8.52732992e-05 0. 0. -4.26366496e-05 0. 0. -4.26366496e-05
      0. 0. 0. 0. 4.26366496e-05 0. -8.52732992e-05 4.26366496e-05
      4.26366496e-05 0. -8.52732992e-05 -4.26366496e-05 -4.26366496e-05
      4.26366496e-05 0. -4.26366496e-05 -8.52732992e-05 0. 0.
      -4.26366496e-05 0. 0. 0. 0. 0. 0. 0. 0. 0. 0. 0. 0. 4.26366496e-05
      4.26366496e-05 8.52732992e-05 0. 0. 0. 0. -8.52732992e-05 0. 0. 0.
      0. 0. 0. 0. 0. -4.26366496e-05 0. 0. 0. 0. 0. 0. 0. 0. 0. 0. 0. 0.
      0. 0. 0. -4.26366496e-05 0. 0. 0. 0. 0. 0. -4.26366496e-05
      -4.26366496e-05 0. -4.26366496e-05 -4.26366496e-05 0. 0. 0.
      -4.26366496e-05 -1.70546598e-04 0. 4.26366496e-05 0. 0. 0. 0. 0.
      4.26366496e-05 0. 0. 0. 0. 0. 0. 0. -8.52732992e-05 8.52732992e-05
      0. 0. -4.26366496e-05 -8.52732992e-05 0. 0. 0. 0. -4.26366496e-05
      0. 0. -4.26366496e-05 0. 0. -1.70546598e-04 4.26366496e-05 0.
      -8.52732992e-05 -4.26366496e-05 0. 0. 0. 4.26366496e-05
      4.26366496e-05 4.26366496e-05 0. -4.26366496e-05 0.
      -4.26366496e-05 0. -4.26366496e-05 2.98456551e-04 0.
      -4.26366496e-05 -4.26366496e-05 4.26366496e-05 4.26366496e-05
      4.26366496e-05 0. 8.52732992e-05 0. -4.26366496e-05
      -4.26366496e-05 -4.26366496e-05 -2.13183259e-04 -4.26366496e-05
      -3.83729843e-04 3.83729843e-04 -4.26366496e-05 2.13183259e-04
      4.26366496e-05 -4.26366496e-05 0. 4.26366496e-05 4.26366496e-05
      4.26366496e-05 1.27909952e-04 0. -1.27909952e-04 0. 0.
      4.26366496e-05 0. 8.52732992e-05 -4.26366496e-05 0. 0.
      4.26366496e-05 0. 0. -4.26366496e-05 -4.26366496e-05
      4.26366496e-05 0. 0. 0. 0. 0. -2.13183259e-04 -4.26366496e-05 0.
      0. 0. 0. 0. 0. 0. 0. 0. 0. 0. 0. 0. 0. -8.52732992e-05
      8.52732992e-05 0. 0. 0. 0. 0. 0. 4.26366496e-05 0. -4.26366496e-05
      0. 0. 0. 0. 0. -2.13183259e-04 8.52732992e-05 0. -4.26366496e-05
      0. 0. 0. 0. -4.26366496e-05 4.26366496e-05 0. 0. 0. 4.26366496e-05
      0. 0. 0. 0. 0. 0. 0. 0. 0. 0. 0. 0. 0. 0. -4.26366496e-05 0. 0. 0.
      0. 4.26366496e-05 0. 0. 0. 0. 0. 0. 0. 0. 8.52732992e-05 0. 0.
      -4.26366496e-05 0. 0. -1.70546598e-04 4.26366496e-05 0. 0. 0. 0.
      0. -4.26366496e-05 0. 0. 0. 0. 0. -4.26366496e-05 0. 0.
      -1.70546598e-04 0. 0. 0. 0. 0. 0. 0. 0. 0. 0. 0. 0. 0. 0. 0. 0.
      4.26366496e-05 0. 0. 0. 4.26366496e-05 0. 4.26366496e-05
      -4.26366496e-05 0. 0. 0. -4.26366496e-05 -8.52732992e-05 0. 0.
      -4.26366496e-05 -4.26366496e-05 0. 0. 0. 0. -4.26366496e-05 0. 0.
      0. 0. 0. -4.26366496e-05 0. 0. 0. 0. 0. 0. 0. 0. 0. 0. 0. 0. 0. 0.
      0. 0. 0. 0. 4.26366496e-05 -8.52732992e-05 4.26366496e-05 0. 0. 0.
      0. 0. 0. -4.26366496e-05 0. 0. 0. 0. 0. 0. 0. 4.26366496e-05
      -1.27909952e-04 0. 0. 0. 1.70546598e-04 0. -8.52732992e-05
      -8.52732992e-05 0. -4.26366496e-05 -4.26366496e-05 0. 0. 0. 0.
      -8.52732992e-05 8.52732992e-05 0. -4.26366496e-05 4.26366496e-05
      0. 0. 0. 0. 0. 0. 0. -8.52732992e-05 4.26366496e-05 0. 0.
      -1.27909952e-04 0. 0. 0. 0. 0. -4.26366496e-05 -8.52732992e-05
      -8.52732992e-05 -1.70546598e-04 -1.27909952e-04 0. -4.26366496e-05
      -1.27909952e-04 -8.52732992e-05 -1.70546598e-04 1.49228272e-03
      3.83729843e-04 1.27909952e-04 0. 4.26366496e-05 -4.26366496e-05 0.
      1.27909952e-04 4.26366496e-05 0. -8.52732992e-05 0.
      -4.26366496e-05 0. 0. 0. -8.52732992e-05 8.52732992e-05 0.
      4.26366496e-05 0. 4.26366496e-05 0. 4.26366496e-05 1.27909952e-04
      8.52732992e-05 4.26366496e-05 0. 0. -4.26366496e-05 4.26366496e-05
      4.26366496e-05 1.27909952e-04 4.26366496e-05 0. 0. 0.
      4.26366496e-05 0. 0. 0. -8.52732992e-05 0. 0. -1.70546598e-04 0.
      0. 0. -4.26366496e-05 0. 0. 0. 0. -8.52732992e-05 0. 0. 0.
      4.26366496e-05 0. 0. 0. 0. 0. 0. 0. 0. 0. -8.52732992e-05 0.
      -4.26366496e-05 0. 0. 0. 0. 0. 0. 0. 0. 0. 0. 0. 8.52732992e-05 0.
      0. 0. 0. 0. 0. 0. 0. 0. 0. 0. 0. 0. 0. 0. -4.26366496e-05
      4.26366496e-05 0. 0. 0. 0. 0. 8.52732992e-05 4.26366496e-05
      8.52732992e-05 0. 0. -4.26366496e-05 0. 0. -4.26366496e-05 0. 0.
      0. 0. 0. 0. 0. 0. 0. -4.26366496e-05 0. 4.26366496e-05 0. 0.
      4.26366496e-05 0. 0. 0. 4.26366496e-05 0. 0. 0. 0. 0. 0. 0. 0. 0.
      0. 0. 0. 0. -8.52732992e-05 0. 0. 4.26366496e-05 -4.26366496e-05
      0. -4.26366496e-05 0. 0. 0. 0. 0. 0. 4.26366496e-05 4.26366496e-05
      4.26366496e-05 0. 0. 0. 0. 0. 0. 0. 0. 0. 0. 0. 0. 0. 0. 0.
      4.26366496e-05 4.26366496e-05 0. 0. 0. 4.26366496e-05 0. 0. 0. 0.
      0. 0. 0. 0. 4.26366496e-05 0. 4.26366496e-05 4.26366496e-05 0. 0.
      4.26366496e-05 4.26366496e-05 0. 0. 4.26366496e-05 0. 0. 0. 0. 0.
      0. 0. -4.26366496e-05 4.26366496e-05 0. 0. 0. -5.54276456e-04 0.
      -2.13183259e-04 4.26366496e-05 4.26366496e-05 0. 0. 4.26366496e-05
      -4.26366496e-05 0. 0. 4.26366496e-05 1.27909952e-04 0.
      4.26366496e-05 -4.26366496e-05 0. 0. 0. 4.26366496e-05
      2.13183259e-04 1.27909952e-04 0. 0. 0. 4.26366496e-05 0.
      -1.27909952e-04 2.13183259e-04 0. 0. 0. -8.52732992e-05
      4.26366496e-05 -1.27909952e-04 2.55819905e-04 4.26366496e-05 0. 0.
      0. 4.26366496e-05 0. -8.52732992e-05 -1.49228272e-03
      1.70546598e-04 4.26366496e-05 1.27909952e-04 4.26366496e-05
      4.26366496e-05 0. 4.26366496e-05 -4.26366496e-05 -8.52732992e-05
      8.52732992e-05 0. 8.52732992e-05 4.26366496e-05 0. 0. 0.
      -4.26366496e-05 -4.26366496e-05 -4.26366496e-05 0. -8.52732992e-05
      0. 4.26366496e-05 -8.52732992e-05 0. 8.52732992e-05 0. 0. 0. 0. 0.
      0. 4.26366496e-05 4.26366496e-05 0. -4.26366496e-05 0. 0.
      4.26366496e-05 0. 0. -8.52732992e-05 0. -4.26366518e-04 0. 0. 0.
      0. 0. 0. 0. 0. 0. 0. 0. 0. 0. 0. 0. 0. 0. 0. -4.26366496e-05 0.
      8.52732992e-05 4.26366496e-05 0. 0. 0. 0. 0. 0. -4.26366496e-05 0.
      0. 0. 0. 0. 0. 0. 0. 0. 0. 0. 0. 0. 0. 0. 0. 0. 0. 0. 0. 0. 0. 0.
      8.52732992e-05 4.26366496e-05 0. 0. 0. 0. 0. 0. -4.26366496e-05 0.
      -4.26366496e-05 -2.13183259e-04 -4.26366496e-05 4.26366496e-05 0.
      -4.26366496e-05 4.26366496e-05 0. 0. 0. 4.26366496e-05 0. 0.
      -4.26366496e-05 0. 0. 0. -4.26366496e-05 0. 0. 0. 0.
      4.26366496e-05 0. 0. 4.26366496e-05 0. 0. 0. 0. -4.26366496e-05 0.
      0. 0. 0. 0. 0. 0. 1.27909952e-04 0. 0. 0. -8.52732992e-05 0.
      1.27909952e-04 4.26366496e-05 0. 4.26366496e-05 0. 0. 0. 0. 0.
      -4.26366496e-05 0. 0. 0. 0. 0. 0. 0. 0. 0. 0. 0. 0. 0. 0. 0. 0. 0.
      0. 0. 0. 0. 0. 4.26366496e-05 -4.26366496e-05 0. 0. 0. 0. 0. 0.
      4.26366496e-05 4.26366496e-05 -4.26366496e-05 0. -4.26366496e-05
      4.26366496e-05 0. 0. -4.26366496e-05 0. -4.26366496e-05
      -4.26366496e-05 0. 0. -4.26366496e-05 0. 0. 0. -4.26366496e-05 0.
      4.26366496e-05 0. -8.52732992e-05 0. -8.52732992e-05
      4.26366496e-05 0. 0. 0. 0. 0. 0. 4.26366496e-05 0. 0.
      -4.26366496e-05 0. 0. -4.26366496e-05 0. 0. 0. -8.52732992e-05
      -8.52732992e-05 0. 0. 0. 0. 0. -8.52732992e-05 0. 0.
      4.26366496e-05 0. -4.26366496e-05 0. -4.26366496e-05
      4.26366496e-05 0. -4.26366496e-05 0. 0. -4.26366496e-05 0.
      -4.26366496e-05 6.39549748e-04 4.69003164e-04 1.27909952e-04
      -4.26366496e-05 -4.26366496e-05 1.27909952e-04 4.26366496e-05
      4.26366496e-05 4.26366496e-05 -4.26366496e-05 1.27909952e-04
      4.26366496e-05 -4.26366496e-05 0. 0. 4.26366496e-05 2.98456551e-04
      -4.26366496e-05 4.26366496e-05 4.26366496e-05 0. -4.26366496e-05
      4.26366496e-05 -4.26366496e-05 -4.26366496e-05 4.26366496e-05 0.
      4.26366496e-05 0. 4.26366496e-05 0. -4.26366496e-05 0. 0. 0. 0. 0.
      0. 0. 4.26366496e-05 4.26366496e-05 8.52732992e-05 0. 0.
      -8.52732992e-05 0. 0. 0. -1.70546598e-04 0. 0. 0. 0. 0. 0. 0. 0.
      4.26366496e-05 0. 0. 4.26366496e-05 0. 0. 0. 8.52732992e-05
      -4.26366496e-05 0. 4.26366496e-05 4.26366496e-05 0. 0. 0.
      -4.26366496e-05 0. 4.26366496e-05 0. 0. 4.26366496e-05 0. 0.
      4.26366496e-05 0. 0. 0. 0. 4.26366496e-05 0. 0. 0. 0.
      4.26366496e-05 0. 0. 0. 0. 0. -4.26366496e-05 0. 4.26366496e-05
      -4.26366496e-05 0. 0. 0. 0. 0. -4.26366496e-05 -4.26366496e-05
      4.26366496e-05 -8.52732992e-05 -4.26366496e-05 0. 0.
      -4.26366496e-05 4.26366496e-05 0. 0. 0. 0. 4.26366496e-05 0. 0. 0.
      0. 0. 4.26366496e-05 -4.26366496e-05 0. -4.26366496e-05
      -8.52732992e-05 0. 0. 0. 0. 0. 0. 0. 0. 0. 0. 0. 0. 4.26366496e-05
      0. 0. -8.52732992e-05 0. 4.26366496e-05 0. 0. 0. 0.
      -8.52732992e-05 8.52732992e-05 0. 0. 0. 0. 0. 0. 0.
      -1.27909952e-04 0. 0. 0. 0. 0. 0. 0. 0. 0. 0. 0. -4.26366496e-05
      0. 0. 0. 0. 4.26366496e-05 0. 0. 0. 0. 0. 0. 0. 0. 0. 0.
      -4.26366496e-05 0. 0. 0. -1.70546598e-04 4.26366496e-05 0. 0. 0.
      0. 0. 0. 0. 0. 0. 0. 0. 0. 0. 0. 0. -1.27909952e-04 0. 0. 0. 0.
      -4.26366496e-05 -1.27909952e-04 -8.52732992e-05 0. 0. 0. 0.
      4.26366496e-05 -4.26366496e-05 4.26366496e-05 -8.52732992e-05 0.
      0. 0. -8.52732992e-05 0. 0. 0. 0. 1.27909952e-04 8.52732992e-05
      -4.26366496e-05 0. 0. 0. 0. 2.13183259e-04 0. 0. 0. 0.
      -4.26366496e-05 -4.26366496e-05 0. -1.27909952e-04 -1.27909952e-04
      -4.26366496e-05 0. 4.26366496e-05 -1.27909952e-04 -4.26366496e-05
      -8.52732992e-05 -2.13183259e-04 2.55819905e-04 4.26366496e-05
      -4.26366496e-05 0. 4.26366496e-05 0. 4.26366496e-05 8.52732992e-05
      8.52732992e-05 8.52732992e-05 4.26366496e-05 -2.13183259e-04
      4.26366496e-05 0. 0. 0. 8.52732992e-05 4.26366496e-05
      4.26366496e-05 4.26366496e-05 8.52732992e-05 0. 4.26366496e-05 0.
      4.26366496e-05 0. 0. 4.26366496e-05 4.26366496e-05 0. 0.
      8.52732992e-05 4.26366496e-05 0. 0. 0. 0. 0. 0. 8.52732992e-05 0.
      0. 0. -4.26366496e-05 4.26366496e-05 4.26366496e-05 0. 0.
      -4.26366496e-05 0. 0. 0. 4.26366496e-05 0. -4.26366496e-05
      4.26366496e-05 4.26366496e-05 -4.26366496e-05 0. 0. 0. 0. 0.
      -1.70546598e-04 4.26366496e-05 0. -2.13183259e-04 -4.26366496e-05
      -4.26366496e-05 0. 0. 0. -4.26366496e-05 0. 0. 0. 4.26366496e-05
      0. 0. 0. 0. 0. 0. 0. 0. 4.26366496e-05 0. 4.26366496e-05 0. 0. 0.
      0. 0. 0. -4.26366496e-05 0. 0. 0. -4.26366496e-05 0.
      4.26366496e-05 0. 0. 0. 8.52732992e-05 4.26366496e-05
      -8.52732992e-05 -2.13183259e-04 -4.26366496e-05 0. 0.
      -1.70546598e-04 8.52732992e-05 0. 0. 0. 4.26366496e-05 0.
      -4.26366496e-05 4.26366496e-05 0. 4.26366496e-05 0.
      -8.52732992e-05 0. 0. 0. 4.26366496e-05 4.26366496e-05 0. 0. 0. 0.
      0. 4.26366496e-05 0. 0. 0. 0. 0. 4.26366496e-05 0. 0.
      4.26366496e-05 4.26366496e-05 0. 0. 4.26366496e-05 -4.26366496e-05
      0. 4.26366496e-05 4.26366496e-05 -4.26366496e-05 0. 0. 0. 0.
      -4.26366496e-05 4.26366496e-05 4.26366496e-05 0. 0. 0. 0. 0. 0. 0.
      0. 0. 0. 0. 0. 0. 0. 0. 8.52732992e-05 0. 0. 0. 0. 4.26366496e-05
      0. 0. 0. 0. -4.26366496e-05 0. 4.26366496e-05 0. 0. 0.
      -1.70546598e-04 1.27909952e-04 4.26366496e-05 0. 4.26366496e-05 0.
      0. 0. 0. 0. 0. 0. 0. 0. 0. 4.26366496e-05 -8.52732992e-05
      -4.26366496e-05 0. 0. -4.26366496e-05 -1.27909952e-04 0.
      -1.70546598e-04 -4.26366496e-05 0. 0. 0. 0. 0. 0. 0. 0. 0. 0. 0.
      4.26366496e-05 0. 0. 0. -4.26366496e-05 2.13183259e-04
      4.26366496e-05 0. 1.27909952e-04 0. 4.26366496e-05 0. 0. 0. 0.
      4.26366496e-05 -4.26366496e-05 -1.27909952e-04 -8.52732992e-05
      -8.52732992e-05 -4.26366496e-05 4.26366496e-05 0. -4.26366496e-05
      -4.26366496e-05 0. -8.52732992e-05 -8.52732992e-05 -4.26366518e-04
      2.55819905e-04 -4.26366496e-05 4.26366496e-05 0. 1.27909952e-04 0.
      0. 8.52732992e-05 -4.26366496e-05 4.26366496e-05 0. 0. 0. 0.
      4.26366496e-05 4.26366496e-05 -8.52732992e-05 0. 0. 4.26366496e-05
      4.26366496e-05 0. 0. 0. 0. 4.26366496e-05 4.26366496e-05 0. 0.
      4.26366496e-05 4.26366496e-05 8.52732992e-05 1.27909952e-04 0. 0.
      0. 0. 0. 0. 0. -4.26366496e-05 -8.52732992e-05 0. -1.70546598e-04
      0. 0. 0. 4.26366496e-05 4.26366496e-05 0. 0. 0. 0. 0.
      4.26366496e-05 4.26366496e-05 4.26366496e-05 0. 0. 0. 0. 0. 0.
      8.52732992e-05 -4.26366496e-05 0. 0. 0. 0. 0. 0. 0. 0. 0. 0. 0. 0.
      0. 0. 4.26366496e-05 8.52732992e-05 0. 0. 4.26366496e-05 0. 0. 0.
      4.26366496e-05 4.26366496e-05 0. 0. 0. 0. 0. 0. -4.26366496e-05 0.
      0. 0. 0. 0. 0. 0. 4.26366496e-05 4.26366496e-05 -5.54276456e-04 0.
      -2.13183259e-04 0. 0. 0. -4.26366496e-05 8.52732992e-05 0. 0. 0.
      0. 0. 0. 0. 4.26366496e-05 0. 0. -4.26366496e-05 0. 0. 0. 0. 0. 0.
      0. 0. 4.26366496e-05 0. 0. 0. 8.52732992e-05 0. 0. 0. 0.
      4.26366496e-05 0. 4.26366496e-05 -4.26366496e-05 0. 0. 0. 0.
      4.26366496e-05 -4.69003164e-04 4.26366496e-05 -4.26366496e-05 0.
      0. 0. 0. 0. 0. 0. 8.52732992e-05 0. 0. 0. 0. 0. 0. 0. 0. 0. 0. 0.
      0. 0. 0. 0. 4.26366496e-05 0. 0. 0. 0. 0. 0. 0. 0. 0. 0. 0. 0. 0.
      0. 4.26366496e-05 -4.26366496e-05 0. 0. 0. -4.26366496e-05 0. 0.
      -4.26366496e-05 0. 0. 0. 0. -4.26366496e-05 0. 0. 0.
      8.52732992e-05 0. 4.26366496e-05 0. -8.52732992e-05 0.
      -8.52732992e-05 0. 0. 0. 0. 0. 4.26366496e-05 -4.26366496e-05 0.
      8.52732992e-05 0. 0. 0. 0. 0. 0. 0. 0. 1.27909952e-04 0.
      -4.26366496e-05 -8.52732992e-05 4.26366496e-05 0. 1.27909952e-04
      2.55819905e-04 0. 0. 0. 4.26366496e-05 8.52732992e-05 0.
      -1.27909952e-04 -2.13183259e-04 1.27909952e-04 1.27909952e-04 0.
      -4.26366496e-05 -4.26366496e-05 0. -1.70546598e-04 -4.69003164e-04
      3.83729843e-04 4.26366496e-05 4.26366496e-05 4.26366496e-05
      1.27909952e-04 -4.26366496e-05 4.26366496e-05 -4.26366496e-05
      1.27909952e-04 4.26366496e-05 4.26366496e-05 -4.26366496e-05
      4.26366496e-05 0. 0. 3.41093197e-04 2.13183259e-04 0.
      4.26366496e-05 0. 0. 0. 0. -8.52732992e-05 0. 0. 0. 4.26366496e-05
      0. 0. 0. 0. -4.26366496e-05 0. 0. 0. 4.26366496e-05 0. 0. 0. 0.
      4.26366496e-05 0. 4.26366496e-05 0. 0. 4.26366496e-05 0.
      4.26366496e-05 4.26366496e-05 0. 0. 0. 4.26366496e-05 0. 0. 0.
      -4.26366496e-05 0. 0. 4.26366496e-05 0. 0. 4.26366496e-05 0. 0.
      4.26366496e-05 0. 0. 0. 0. 4.26366496e-05 0. 0. 0. 0.
      -4.26366496e-05 0. 4.26366496e-05 0. 4.26366496e-05 0. 0. 0. 0. 0.
      0. 0. 0. 4.26366496e-05 0. -4.26366496e-05 0. 0. 0. 0. 0. 0.
      4.26366496e-05 0. -4.26366496e-05 0. 0. 0. -8.52732992e-05
      -4.26366496e-05 0. 4.26366496e-05 -4.26366496e-05 0. 0.
      -4.26366496e-05 0. 0. 0. 0. 0. 0. 0. 0. -4.26366496e-05 0.
      4.26366496e-05 4.26366496e-05 0. 0. -4.26366496e-05
      -4.26366496e-05 4.26366496e-05 0. 4.26366496e-05 4.26366496e-05 0.
      0. 0. 0. 0. 0. 0. 0. 0. 0. 0. 8.52732992e-05 4.26366496e-05 0.
      4.26366496e-05 0. 4.26366496e-05 0. -4.26366496e-05 0. 0. 0. 0. 0.
      0. 0. 4.26366496e-05 -8.52732992e-05 -8.52732992e-05 0. 0.
      4.26366496e-05 4.26366496e-05 0. 0. 0. 0. 0. 0. 0. 0. 0. 0. 0. 0.
      0. 0. 0. 0. 4.26366496e-05 0. -4.26366496e-05 -4.26366496e-05 0.
      0. -4.26366496e-05 0. 0. -4.26366496e-05 -4.26366496e-05 0. 0. 0.
      0. 0. 0. 0. 0. 4.26366496e-05 -4.26366496e-05 0. 0. 0. 0. 0. 0.
      -8.52732992e-05 -4.26366496e-05 0. 0. 0. 0. -4.26366496e-05
      -4.26366496e-05 0. 0. 4.26366496e-05 0. 0. 0. 4.26366496e-05
      -8.52732992e-05 8.52732992e-05 4.26366496e-05 0. -4.26366496e-05
      0. 0. 0. 4.26366496e-05 -1.70546598e-04 0. -4.26366496e-05
      -8.52732992e-05 4.26366496e-05 0. -4.26366496e-05 -1.70546598e-04
      0. 1.27909952e-04 0. 4.26366496e-05 0. 4.26366496e-05
      -4.26366496e-05 1.70546598e-04 -4.26366496e-05 -8.52732992e-05
      -4.26366496e-05 -2.55819905e-04 0. -1.27909952e-04 -1.27909952e-04
      -7.67459685e-04 0. -4.26366496e-05 2.13183259e-04 0. 0.
      4.26366496e-05 8.52732992e-05 0. -4.26366496e-05 4.26366496e-05 0.
      -4.26366496e-05 0. 0. 0. 0. -4.26366496e-05 0. 4.26366496e-05 0.
      -4.26366496e-05 0. 4.26366496e-05 -4.26366496e-05 0. 0. 0. 0.
      -4.26366496e-05 0. 0. 0. 0. 0. 0. 0. 0. 0. 0. 0. 0. 8.52732992e-05
      0. 2.13183259e-04 0. 4.26366496e-05 0. 0. 0. 0. 0. 0. 0. 0. 0. 0.
      -4.26366496e-05 0. 0. 0. 0. 4.26366496e-05 0. 8.52732992e-05
      1.70546598e-04 4.26366496e-05 0. 0. 0. 0. -4.26366496e-05
      -4.26366496e-05 0. 4.26366496e-05 0. -4.26366496e-05 0. 0. 0. 0.
      0. 0. 4.26366496e-05 0. 0. 0. 0. -4.26366496e-05 0. 0. 0. 0. 0. 0.
      0. -8.52732992e-05 0. 0. 0. 0. 0. 0. 0. 0. 0. 5.11639810e-04 0.
      4.26366496e-05 0. 0. -4.26366496e-05 0. -4.26366496e-05 0. 0. 0.
      0. 0. 0. 0. 0. 0. 4.26366496e-05 0. 0. 0. 0. 4.26366496e-05
      4.26366496e-05 0. 0. 4.26366496e-05 4.26366496e-05 0. 0. 0. 0. 0.
      0. -4.26366496e-05 0. 0. 0. 0. 0. 0. 8.52732992e-05 0.
      1.70546598e-04 0. 1.70546598e-04 4.26366496e-05 0. 0. 0. 0. 0. 0.
      -8.52732992e-05 -4.26366496e-05 0. 0. 0. 0. 0. 0. 0. 0. 0. 0. 0.
      0. 0. 0. 0. 0. 0. 0. 0. 0. 0. 0. 0. 0. 0. 0. 0. -4.26366496e-05 0.
      0. 0. -8.52732992e-05 -1.27909952e-04 0. 4.26366496e-05 0. 0. 0.
      0. 0. 0. 0. 0. 0. 0. 0. 0. 0. 4.26366496e-05 0. -4.26366496e-05 0.
      -3.41093197e-04 0. -7.67459685e-04 -4.26366496e-05 0. 0. 0. 0. 0.
      -4.26366496e-05 0. -8.52732992e-05 0. 0. -4.26366496e-05 0. 0. 0.
      0. 0. 0. 0. 0. -4.26366496e-05 0. 0. 0. -4.26366496e-05 0. 0.
      -4.26366496e-05 0. 0. 0. -8.52732992e-05 -4.26366496e-05 0.
      -8.52732992e-05 -1.27909952e-04 -8.52732992e-05 4.26366496e-05
      -8.52732992e-05 -4.26366496e-05 5.54276456e-04 4.26366496e-05 0.
      -2.13183259e-04 8.52732992e-05 0. 0. -1.70546598e-04 0.
      2.13183259e-04 4.26366496e-05 0. -1.70546598e-04 0. 0. 0.
      2.55819905e-04 8.52732992e-05 0. 4.26366496e-05 0. 8.52732992e-05
      -4.26366496e-05 0. 1.27909952e-04 4.26366496e-05 0. 0. 0. 0. 0. 0.
      1.27909952e-04 -4.26366496e-05 0. 4.26366496e-05 4.26366496e-05 0.
      0. 0. 0. -8.52732992e-05 -8.52732992e-05 0. -2.55819905e-04 0. 0.
      0. 4.26366496e-05 4.26366496e-05 0. 0. 0. 4.26366496e-05 0. 0. 0.
      0. 0. 0. 0. 4.26366496e-05 0. -4.26366496e-05 -4.26366496e-05
      -1.27909952e-04 -8.52732992e-05 -1.27909952e-04 0. 0. 0.
      -8.52732992e-05 0. 0. 0. 0. 0. 0. 0. 0. 0. -4.26366496e-05 0. 0.
      0. 0. 0. -8.52732992e-05 0. 0. 0. 0. 0. 0. 0. 0. 0.
      -4.26366496e-05 0. 0. 0. 0. 0. -4.26366496e-05 0. 8.52732992e-05
      -8.52732992e-05 0. -4.26366496e-05 0. -4.26366496e-05 0.
      -1.70546598e-04 4.26366496e-05 0. 0. 0. 0. 0. 0. 8.52732992e-05 0.
      0. 0. 0. -4.26366496e-05 0. 4.26366496e-05 -8.52732992e-05
      4.26366496e-05 0. 0. -4.26366496e-05 0. 0. 0. 0. 0. 0. 0. 0. 0. 0.
      0. -4.26366496e-05 4.26366496e-05 0. 0. 0. 0. 0. 0. 0.
      4.26366496e-05 0. 0. 0. 0. 0. 0. 8.52732992e-05 0. 0.
      -4.26366496e-05 0. 0. 0. 0. 0. 0. 0. 0. -4.26366496e-05 0. 0. 0.
      0. 0. 0. 0. 0. 0. 0. 0. -8.52732992e-05 -4.26366496e-05
      4.26366496e-05 0. -8.52732992e-05 -4.26366496e-05 4.26366496e-05
      -4.26366496e-05 -2.13183259e-04 -4.26366496e-05 0. 0.
      4.26366496e-05 0. 0. 0. 4.26366496e-05 0. 0. 0. 0. 0. 0. 0. 0.
      8.52732992e-05 0. 0. 0. 0. 0. 0. 0. 0. 0. 0. 0. 0. 0. 0.
      -8.52732992e-05 0. 0. 0. 0. -4.26366496e-05 0. 0. 8.52732992e-05
      1.70546598e-04 -1.70546598e-04 0. 0. 0. -4.26366496e-05 0.
      8.52732992e-05 2.13183259e-04 -4.26366496e-05 0. -4.26366496e-05
      4.26366496e-05 0. 4.26366496e-05 2.13183259e-04 0. -4.26366496e-05
      0. -1.27909952e-04 4.26366496e-05 -8.52732992e-05 -4.26366496e-05
      6.82186394e-04 4.26366496e-05 0. -1.27909952e-04 0. 1.27909952e-04
      0. -1.27909952e-04 -4.26366496e-05 4.26366496e-05 0. 0.
      -4.26366496e-05 0. 0. 0. 1.27909952e-04 8.52732992e-05 0.
      -4.26366496e-05 0. 8.52732992e-05 4.26366496e-05 -1.27909952e-04
      -4.26366496e-05 4.26366496e-05 0. 0. 0. 4.26366496e-05 0. 0.
      -1.70546598e-04 8.52732992e-05 0. 0. 0. 0. 0. 0. 0. 0. 0. 0.
      1.70546598e-04 0. 4.26366496e-05 0. 0. 4.26366496e-05 0. 0. 0. 0.
      0. 0. 0. 0. 4.26366496e-05 0. 4.26366496e-05 0. 0. 0. 0.
      4.26366496e-05 0. -3.41093197e-04 -4.26366496e-05 8.52732992e-05
      4.26366496e-05 0. 0. 0. -4.26366496e-05 0. 0. 0. 0. 0. 0.
      4.26366496e-05 4.26366496e-05 0. 0. 4.26366496e-05 0.
      -4.26366496e-05 0. 0. 0. 0. 0. 0. 0. 0. 0. 4.26366496e-05 0.
      -4.26366496e-05 0. 0. 0. 0. 0. 4.26366496e-05 0. -4.26366496e-05
      0. 0. -4.26366496e-05 0. 8.52732992e-05 4.26366496e-05 0. 0. 0. 0.
      0. 0. 4.26366496e-05 0. 4.26366496e-05 0. 0. 0. -4.26366496e-05 0.
      4.26366496e-05 8.52732992e-05 0. 0. 0. 0. 0. 0. 0. 0.
      4.26366496e-05 0. 0. 0. 0. 0. 0. -1.70546598e-04 4.26366496e-05 0.
      0. -4.26366496e-05 0. -4.26366518e-04 -8.52732992e-05 0.
      4.26366496e-05 0. 0. 0. -8.52732992e-05 4.26366496e-05
      4.26366496e-05 4.26366496e-05 0. 0. 0. 0. 0. 0. 0. 0. 0. 0. 0. 0.
      0. 0. 0. 0. 0. 0. 0. 0. 0. 0. 4.26366496e-05 0. -4.26366496e-05 0.
      0. -4.26366496e-05 -4.26366496e-05 0. 4.26366496e-05
      -4.26366496e-05 0. 0. 4.26366496e-05 0. 0. 0. 0. 0. 4.26366496e-05
      0. 0. 0. 0. 0. 4.26366496e-05 -4.26366496e-05 -4.26366496e-05 0.
      0. -4.26366496e-05 0. -4.26366496e-05 8.52732992e-05 0. 0. 0. 0.
      0. 0. 4.26366496e-05 -8.52732992e-05 0. 0. 0. 0. -4.26366496e-05
      0. 0. 0. 4.26366496e-05 0. 0. 0. 0. 0. 4.26366496e-05
      8.52732992e-05 -4.26366496e-05 4.26366496e-05 0. 0.
      -4.26366496e-05 0. 8.52732992e-05 4.26366496e-05 0. 8.52732992e-05
      0. -4.26366496e-05 4.26366496e-05 -2.55819905e-04 -4.26366496e-05
      2.13183259e-04 4.69003164e-04 4.26366496e-05 0. -4.26366496e-05
      -4.26366496e-05 0. 4.26366496e-05 0. 1.70546598e-04 4.26366496e-05
      -4.26366496e-05 4.26366496e-05 0. 0. 0. 4.26366496e-05
      1.70546598e-04 0. 0. 0. 4.26366496e-05 0. 8.52732992e-05 0. 0. 0.
      0. 0. 0. 4.26366496e-05 4.26366496e-05 -4.26366496e-05
      -4.26366496e-05 -4.26366496e-05 -4.26366496e-05 0. 0. 0. 0. 0. 0.
      8.52732992e-05 0. -4.26366496e-05 0. 4.26366496e-05 0. 0. 0. 0. 0.
      0. 0. -8.52732992e-05 0. 0. 0. -4.26366496e-05 0. 0. 0. 0. 0.
      -4.26366496e-05 -8.52732992e-05 -4.26366496e-05 -4.26366496e-05
      4.26366496e-05 4.26366496e-05 0. 4.26366496e-05 0. 8.52732992e-05
      0. 0. 0. 0. 0. 0. 0. 0. 0. 0. 0. 0. 0. 0. 0. 0. 0. 0. 0. 0. 0. 0.
      0. 0. 0. 0. 0. 4.26366496e-05 0. -4.26366496e-05 0. 0.
      -4.69003164e-04 4.26366496e-05 -3.83729843e-04 -8.52732992e-05
      4.26366496e-05 0. 0. 0. 0. 4.26366496e-05 0. 0. 0. 4.26366496e-05
      4.26366496e-05 0. 0. 0. -8.52732992e-05 0. -4.26366496e-05 0.
      -4.26366496e-05 0. 4.26366496e-05 -4.26366496e-05 4.26366496e-05
      0. 0. 0. 0. 4.26366496e-05 4.26366496e-05 0. -8.52732992e-05
      -4.26366496e-05 0. 0. -8.52732992e-05 0. 4.26366496e-05
      4.26366496e-05 4.26366496e-05 0. 0. 3.41093197e-04 8.52732992e-05
      4.26366496e-05 4.26366496e-05 -4.26366496e-05 4.26366496e-05
      4.26366496e-05 0. 0. 0. 0. 0. -4.26366496e-05 0. 0. 0. 0. 0. 0. 0.
      -4.26366496e-05 0. 0. 0. 0. 0. 0. 0. 0. 0. 0. 0. 0. 0.
      1.27909952e-04 0. 0. 0. 0. 0. 0. 0. 4.26366496e-05 4.26366496e-05
      0. 0. 0. 0. 4.26366496e-05 0. 0. 0. 0. 0. 0. 0. 0. 0.
      4.26366496e-05 -4.26366496e-05 -4.26366496e-05 0. 0.
      4.26366496e-05 4.26366496e-05 -4.26366496e-05 0. 0. 0.
      -8.52732992e-05 0. 4.26366496e-05 0. -8.52732992e-05
      4.26366496e-05 -4.26366496e-05 0. 0. 4.26366496e-05 0. 0. 0.
      -4.26366496e-05 -8.52732992e-05 0. 0. -8.52732992e-05
      -4.26366496e-05 0. -1.27909952e-04 -4.26366496e-05 4.26366496e-05
      0. 4.26366496e-05 0. 4.26366496e-05 8.52732992e-05 4.26366496e-05
      0. -1.27909952e-04 0. -8.52732992e-05 8.52732992e-05
      4.26366496e-05 -1.27909952e-04 -2.98456551e-04 2.55819905e-04
      1.27909952e-04 0. 0. 8.52732992e-05 0. 4.26366496e-05
      -4.26366496e-05 1.70546598e-04 0. 0. -1.27909952e-04 0.
      4.26366496e-05 4.26366496e-05 0. -4.26366496e-05 0. 4.26366496e-05
      4.26366496e-05 0. 0. -8.52732992e-05 -4.26366496e-05 0. 0. 0. 0.
      0. 0. 0. -1.27909952e-04 0. 0. 0. 4.26366496e-05 0. 0. 0. 0.
      4.26366496e-05 4.26366496e-05 0. -4.26366496e-05 0. 0. 0.
      -8.52732992e-05 0. 0. 0. 0. 0. 0. 4.26366496e-05 1.27909952e-04 0.
      0. 0. 0. 0. 0. 0. 4.26366496e-05 4.26366496e-05 4.26366496e-05
      4.26366496e-05 0. 0. 0. 0. 0. 4.26366496e-05 0. 0. -4.26366496e-05
      0. 4.26366496e-05 4.26366496e-05 8.52732992e-05 8.52732992e-05 0.
      0. 0. 4.26366496e-05 0. -4.26366496e-05 0. 0. 0. 0. 0. 0. 0.
      -4.26366496e-05 4.26366496e-05 4.26366496e-05 -4.26366496e-05 0.
      -4.26366496e-05 0. 0. 0. 0. -1.70546598e-04 -8.52732992e-05
      -4.26366496e-05 -8.52732992e-05 4.26366496e-05 0. -4.26366496e-05
      4.26366496e-05 0. 0. 4.26366496e-05 0. 0. 0. 0. 0. 0. 0. 0.
      1.27909952e-04 0. 0. 4.26366496e-05 -8.52732992e-05 1.27909952e-04
      0. 4.26366496e-05 4.26366496e-05 0. 0. 0. -4.26366496e-05 0.
      4.26366496e-05 0. 4.26366496e-05 0. 0. 0. 0. 4.26366496e-05 0.
      1.27909952e-04 0. -4.26366496e-05 0. 0. 4.26366496e-05 0. 0. 0. 0.
      0. 0. 0. 8.52732992e-05 0. 0. 0. 0. 0. 0. 0. 0. 0. 4.26366496e-05
      0. 0. 0. 0. 0. 4.26366496e-05 8.52732992e-05 0. 0. 0.
      4.26366496e-05 0. 0. 0. 0. 0. 0. -4.26366496e-05 4.26366496e-05
      -4.26366496e-05 0. -4.26366496e-05 4.26366496e-05 4.26366496e-05
      4.26366496e-05 0. 0. 0. 0. 0. 0. 0. 0. 0. 0. 0. 0. 0.
      -8.52732992e-05 4.26366496e-05 0. 0. -1.27909952e-04
      4.26366496e-05 -1.27909952e-04 0. 0. 0. 0. 0. 0. 4.26366496e-05 0.
      0. 0. 4.26366496e-05 0. 0. 0. 0. 4.26366496e-05 0. 8.52732992e-05
      0. 0. -4.26366496e-05 0. 1.27909952e-04 0. -8.52732992e-05
      -4.26366496e-05 -4.26366496e-05 0. 0. 8.52732992e-05
      4.26366496e-05 8.52732992e-05 -1.70546598e-04 -4.26366496e-05 0.
      0. -8.52732992e-05 -4.26366496e-05 -1.27909952e-04 -8.52732992e-05
      -1.02327962e-03 5.11639810e-04 4.26366496e-05 0. 0. 0. 0.
      -8.52732992e-05 4.26366496e-05 1.27909952e-04 0. 4.26366496e-05
      -4.26366496e-05 0. 0. 4.26366496e-05 1.27909952e-04 0. 0.
      -4.26366496e-05 0. -8.52732992e-05 4.26366496e-05 -4.26366496e-05
      1.27909952e-04 0. 0. 4.26366496e-05 0. 0. 0. 0. 1.27909952e-04
      4.26366496e-05 4.26366496e-05 4.26366496e-05 0. 4.26366496e-05 0.
      0. 0. 0. -8.52732992e-05 0. -3.41093197e-04 0. 0. 0.
      4.26366496e-05 0. 4.26366496e-05 0. 4.26366496e-05 0. 0. 0. 0. 0.
      0. 0. 0. 0. 0. 4.26366496e-05 0. 8.52732992e-05 0. 0.
      8.52732992e-05 0. 0. 0. 0. 4.26366496e-05 -4.26366496e-05 0. 0. 0.
      0. 0. 4.26366496e-05 0. 0. 0. 0. 0. 0. 0. 0. 0. 0. 0. 0. 0. 0. 0.
      0. 4.26366496e-05 0. 0. 0. 0. 0. 0. 0. 0. -1.70546598e-04 0.
      -5.96913102e-04 0. 8.52732992e-05 0. 0. 0. 0. 4.26366496e-05 0.
      4.26366496e-05 0. 0. 0. 0. 0. 0. 0. 0. 0. 0. 8.52732992e-05
      4.26366496e-05 0. 0. 4.26366496e-05 0. 0. 0. 4.26366496e-05
      8.52732992e-05 8.52732992e-05 0. 0. 0. 0. 0. 0. -8.52732992e-05 0.
      0. 0. -1.70546598e-04 0. -5.96913102e-04 4.26366496e-05 0. 0. 0.
      0. 0. 0. 8.52732992e-05 0. 0. 0. 0. 4.26366496e-05 4.26366496e-05
      0. 0. 0. 0. 0. 0. 0. 0. 0. 4.26366496e-05 4.26366496e-05 0. 0. 0.
      0. 4.26366496e-05 0. 0. 0. 0. 0. 0. 0. 0. 0. 0. 1.27909952e-04 0.
      0. 0. 0. 0. 0. 0. 0. 0. 0. 0. 0. 0. 0. 0. 0. -8.52732992e-05 0.
      4.26366496e-05 0. -1.27909952e-04 0. -2.55819905e-04 0. 0.
      8.52732992e-05 0. 0. 0. 4.26366496e-05 0. 4.26366496e-05
      4.26366496e-05 0. 0. 0. 0. 0. 0. 0. 4.26366496e-05 4.26366496e-05
      4.26366496e-05 -8.52732992e-05 0. 4.26366496e-05 0. 1.70546598e-04
      1.27909952e-04 0. 0. 4.26366496e-05 0. 0. -1.70546598e-04
      8.52732992e-05 0. 4.26366496e-05 0. 8.52732992e-05 4.26366496e-05
      4.26366496e-05 -4.26366496e-05 -8.52733036e-04 5.54276456e-04 0.
      0. 0. -4.26366496e-05 0. 0. 0. 2.98456551e-04 0. 4.26366496e-05 0.
      4.26366496e-05 0. 1.27909952e-04 0. 3.41093197e-04 8.52732992e-05
      0. -4.26366496e-05 -8.52732992e-05 0. 0. 0. 4.26366496e-05
      4.26366496e-05 0. 0. 0. 0. -1.27909952e-04 -2.98456551e-04
      8.52732992e-05 0. 4.26366496e-05 0. 0. 0. 0. 0. 0. 0.
      -4.26366496e-05 0. 4.26366496e-05 0. 0. 4.26366496e-05 0. 0. 0. 0.
      0. -4.26366496e-05 0. -4.26366496e-05 0. 8.52732992e-05
      -4.26366496e-05 0. 0. 4.26366496e-05 0. -8.52732992e-05
      -4.26366496e-05 0. 4.26366496e-05 0. 4.26366496e-05 0. 0. 0. 0. 0.
      0. 0. 0. 0. 0. 0. 0. 4.26366496e-05 0. 0. 0. 0. 0. 0. 0. 0. 0. 0.
      0. 0. 0. 0. 4.26366496e-05 0. -4.26366496e-05 0. 0. 0. 0.
      4.26366496e-05 0. 4.26366496e-05 8.52732992e-05 0. 0. 0. 0.
      -1.27909952e-04 4.26366496e-05 0. 0. 0. 0. 0. -4.26366496e-05 0.
      0. 0. 0. 4.26366496e-05 -8.52732992e-05 0. 0. -4.26366496e-05 0.
      0. 0. 4.26366496e-05 0. 0. 0. 0. 4.26366496e-05 0. -4.26366496e-05
      0. 0. 0. 0. 0. 0. 4.26366496e-05 0. 0. -4.26366496e-05 0.
      -4.26366496e-05 -4.26366496e-05 0. -4.26366496e-05 0.
      -4.26366496e-05 4.26366496e-05 0. 0. -1.27909952e-04
      -4.26366496e-05 0. 0. 0. 0. 0. 0. 0. 0. 4.26366496e-05 0. 0. 0. 0.
      0. 4.26366496e-05 0. 0. 0. 0. 0. 0. 0. 0. 4.26366496e-05 0. 0.
      -4.26366496e-05 0. 0. 0. -4.26366496e-05 0. 0. 0. 0. 0. 0. 0.
      4.26366496e-05 1.27909952e-04 0. 0. 0. 4.26366496e-05 0. 0.
      -4.26366496e-05 -4.26366496e-05 -4.26366496e-05 4.26366496e-05 0.
      0. -4.26366496e-05 -8.52732992e-05 0. 4.26366496e-05
      -4.26366496e-05 0. -4.26366496e-05 0. -4.26366496e-05 0.
      -1.27909952e-04 4.26366496e-05 0. 0. 4.26366496e-05 4.26366496e-05
      0. 0. -4.26366496e-05 8.52732992e-05 4.26366496e-05 0.
      4.26366496e-05 4.26366496e-05 8.52732992e-05 4.26366496e-05
      2.55819905e-04 0. 0. 4.26366496e-05 -4.26366496e-05
      -8.52732992e-05 0. -2.13183259e-04 -4.26366496e-05 0.
      -1.27909952e-04 -4.26366496e-05 -1.27909952e-04 -1.70546598e-04
      -8.52732992e-05 -2.13183259e-04 -2.55819905e-04 2.98456551e-04 0.
      8.52732992e-05 0. -4.26366496e-05 0. -4.26366496e-05 0.
      4.26366496e-05 4.26366496e-05 0. -8.52732992e-05 -4.26366496e-05
      0. 0. 0. 0. 0. 0. 0. 0. 0. 4.26366496e-05 -4.26366496e-05
      4.26366496e-05 0. 0. 0. 0. 0. 0. -8.52732992e-05 0. 4.26366496e-05
      0. 0. 0. 0. -4.26366496e-05 0. 0. 0. 0. -4.26366496e-05
      4.26366496e-05 0. 0. 0. -8.52732992e-05 0. 0. 0. 0. 0. 0. 0. 0. 0.
      0. 0. 0. -4.26366496e-05 0. -8.52732992e-05 1.27909952e-04
      -4.26366496e-05 4.26366496e-05 0. 0. 0. 0. -4.26366496e-05 0.
      8.52732992e-05 0. 0. 0. 0. 0. 0. 0. 0. 0. 4.26366496e-05
      4.26366496e-05 0. -4.26366496e-05 -4.26366496e-05 0. 0. 0.
      -4.26366496e-05 0. 0. 0. 4.26366496e-05 -4.26366496e-05 0. 0. 0.
      0. 0. -4.26366496e-05 -4.26366496e-05 0. 1.70546598e-04 0. 0. 0.
      0. 0. 0. 0. 0. -4.26366496e-05 0. 0. 0. 0. -4.26366496e-05 0. 0.
      0. 0. 0. 0. 0. 8.52732992e-05 4.26366496e-05 -4.26366496e-05
      1.27909952e-04 4.26366496e-05 4.26366496e-05 0. 4.26366496e-05 0.
      0. 0. 0. 0. 0. 0. -4.26366496e-05 -8.52732992e-05 4.26366496e-05
      0. 8.52732992e-05 4.26366496e-05 -8.52732992e-05 0. 8.52732992e-05
      0. 0. 0. 0. 0. -4.26366496e-05 0. 0. 0. 0. 0. 0. 0. 0. 0. 0. 0.
      4.26366496e-05 0. 0. 0. 0. 0. 0. 0. 0. 0. 0. 0. 0. 0.
      -4.26366496e-05 0. 0. 0. 0. -4.26366496e-05 4.26366496e-05 0. 0.
      -1.27909952e-04 0. 0. 0. 0. 0. 0. 0. 0. 0. 4.26366496e-05
      -4.26366496e-05 4.26366496e-05 0. 0. 0. 4.26366496e-05
      4.26366496e-05 0. 0. 0. -1.70546598e-04 0. -4.69003164e-04
      -4.26366496e-05 4.26366496e-05 0. 0. -4.26366496e-05 0.
      4.26366496e-05 0. -8.52732992e-05 0. 4.26366496e-05 0.
      4.26366496e-05 0. 0. 0. 0. 0. 0. -8.52732992e-05 0. 0. 0.
      -4.26366496e-05 -8.52732992e-05 -1.27909952e-04 0. 0.
      -8.52732992e-05 8.52732992e-05 4.26366496e-05 4.26366496e-05
      -1.27909952e-04 0. -4.26366496e-05 0. -4.26366496e-05
      -4.26366496e-05 -4.26366496e-05 -4.26366496e-05 7.67459685e-04
      -4.26366496e-05 4.26366496e-05 4.26366496e-05 0. 4.26366496e-05 0.
      0. 4.26366496e-05 4.26366496e-05 -4.26366496e-05 4.26366496e-05
      4.26366496e-05 4.26366496e-05 0. 0. 4.26366496e-05 4.26366496e-05
      0. 0. 0. 4.26366496e-05 0. 4.26366496e-05 4.69003164e-04
      8.52732992e-05 0. 0. 0. 0. 4.26366496e-05 4.26366496e-05 0.
      -4.26366496e-05 0. -4.26366496e-05 0. 0. 0. 0. 0. 0.
      -4.26366496e-05 0. -4.26366496e-05 -4.26366496e-05 0. 0.
      8.52732992e-05 0. 0. 4.26366496e-05 0. 0. 0. 0. 4.26366496e-05
      4.26366496e-05 0. 0. 0. 0. 0. 0. 8.52732992e-05 -2.13183259e-04 0.
      -8.52732992e-05 0. 0. 0. 4.26366496e-05 0. 4.26366496e-05 0.
      -4.26366496e-05 -4.26366496e-05 4.26366496e-05 0. 0. 0. 0. 0. 0.
      0. 0. 0. 0. 0. 0. 0. 0. 0. 0. 0. 0. 0. -8.52732992e-05
      4.26366496e-05 4.26366496e-05 0. 4.26366496e-05 0. 0. 0.
      -4.26366496e-05 -9.80642973e-04 0. -8.52732992e-05 -4.26366496e-05
      -4.26366496e-05 4.26366496e-05 4.26366496e-05 0. 0. 0. 0.
      4.26366496e-05 0. 0. 0. 0. 0. 0. 0. 0. 0. 0. 0. -4.26366496e-05 0.
      0. 0. 0. 0. 0. 4.26366496e-05 0. 0. 0. -4.26366496e-05 0. 0. 0. 0.
      0. 4.26366496e-05 -8.52732992e-05 4.26366496e-05 0. 0.
      -3.41093197e-04 4.26366496e-05 0. 0. 0. 0. 0. 0. 4.26366496e-05
      -4.26366496e-05 0. 0. 0. 0. 0. 0. 0. 0. 0. 0. 0. -4.26366496e-05
      0. 0. 0. 0. 0. 0. 0. 0. 0. 0. -4.26366496e-05 0. 0. 0. 0. 0.
      -4.26366496e-05 -4.26366496e-05 -4.26366496e-05 -4.26366496e-05 0.
      0. 0. -4.26366496e-05 4.26366496e-05 0. 0. 0. 0. 8.52732992e-05 0.
      4.26366496e-05 0. 0. 0. 4.26366496e-05 -4.26366496e-05
      4.26366496e-05 4.26366496e-05 0. 1.70546598e-04 0. -4.26366496e-05
      0. -4.26366496e-05 0. 0. 0. -4.26366496e-05 0. 0. 4.26366496e-05
      4.26366496e-05 0. 0. 0. 0. 0. 0. 4.26366496e-05 0. -4.26366496e-05
      0. -4.26366496e-05 0. 0. 0. 0. 8.52732992e-05 0. 0. 0.
      4.26366496e-05 -4.26366496e-05 0. 3.83729843e-04 4.26366496e-05 0.
      0. 0. 4.26366496e-05 -2.13183259e-04 -1.27909952e-04
      2.13183259e-04 -5.55111512e-17 0. -4.26366496e-05 4.26366496e-05
      -4.26366496e-05 0. 0. 4.26366496e-05 0. 0. 4.26366496e-05
      8.52732992e-05 -8.52732992e-05 0. 0. 1.27909952e-04 0. 0. 0. 0.
      -4.26366496e-05 0. -4.26366496e-05 4.26366496e-05 0.
      -4.26366496e-05 0. 0. -4.26366496e-05 0. -4.26366496e-05
      4.26366496e-05 4.26366496e-05 0. 0. 0. 4.26366496e-05 0. 0.
      -4.26366496e-05 4.26366496e-05 0. 4.26366496e-05 1.27909952e-04 0.
      0. 4.26366496e-05 4.26366496e-05 -4.26366496e-05 0. 0.
      4.26366496e-05 4.26366496e-05 0. 0. 0. 0. -4.26366496e-05 0.
      -4.26366496e-05 4.26366496e-05 0. 0. -4.26366496e-05 0. 0.
      -4.26366496e-05 0. 4.26366496e-05 0. 0. 0. 0. 0. 0.
      -4.26366496e-05 -4.26366496e-05 0. 0. 0. -8.52732992e-05 0. 0. 0.
      4.26366496e-05 0. 0. 0. 0. 0. 0. 0. 0. 0. 0. 4.26366496e-05 0. 0.
      -4.26366496e-05 -4.26366496e-05 0. 0. 0. 0. -8.52732992e-05
      -4.26366496e-05 0. 1.27909952e-04 0. 0. 0. 0. 0. -4.26366496e-05
      0. 0. -4.26366496e-05 0. 0. 0. 0. 0. 0. 0. 0. 0. 4.26366496e-05 0.
      1.27909952e-04 0. 0. 0. -4.26366496e-05 0. 0. 4.26366496e-05 0. 0.
      4.26366496e-05 0. 0. 0. 0. 4.26366496e-05 4.26366496e-05
      -4.26366496e-05 0. -4.26366496e-05 -2.55819905e-04 0.
      8.52732992e-05 -4.26366496e-05 0. -4.26366496e-05 0. 0. 0. 0.
      -4.26366496e-05 0. 4.26366496e-05 0. 0. 0. 0. 0. 0. 0. 0. 0. 0. 0.
      0. 0. 0. 8.52732992e-05 4.26366496e-05 0. 0. 0. 0. 0. 0. 0. 0. 0.
      0. 4.26366496e-05 0. -8.52732992e-05 0. 0. 0. -4.26366496e-05 0.
      0. 4.26366496e-05 0. -4.26366496e-05 0. 0. -4.26366496e-05 0. 0.
      0. 0. 0. 4.26366496e-05 -8.52732992e-05 0. 0. 0. -1.27909952e-04
      0. -2.55819905e-04 0. 0. 0. 4.26366496e-05 4.26366496e-05 0.
      -4.26366496e-05 4.26366496e-05 0. 4.26366496e-05 0. 0. 0. 0. 0. 0.
      -4.26366496e-05 1.70546598e-04 0. 0. 4.26366496e-05 0. 0. 0.
      -1.27909952e-04 3.41093197e-04 4.26366496e-05 0. 0.
      -8.52732992e-05 0. -1.70546598e-04 -2.13183259e-04 0.
      -4.26366496e-05 0. 4.26366496e-05 -8.52732992e-05 -8.52732992e-05
      8.52732992e-05 3.83729843e-04 4.26366518e-04 4.26366496e-05
      8.52732992e-05 8.52732992e-05 4.26366496e-05 0. 8.52732992e-05 0.
      0. -1.70546598e-04 0. 4.26366496e-05 0. 4.26366496e-05 0. 0.
      8.52732992e-05 0. -4.26366496e-05 -4.26366496e-05 0. 0. 0.
      8.52732992e-05 0. 0. 0. -4.26366496e-05 0. 0. 0. 2.13183259e-04 0.
      0. 4.26366496e-05 0. 0. 0. 0. 0. 0. 4.26366496e-05 0.
      8.52732992e-05 0. 0. 4.26366496e-05 4.26366496e-05 0. 0. 0.
      -4.26366496e-05 0. 0. -4.26366496e-05 0. 0. 0. 0. -4.26366496e-05
      0. 0. 4.26366496e-05 4.26366496e-05 4.26366496e-05 0.
      8.52732992e-05 0. 0. 0. 0. 0. 0. 4.26366496e-05 0. 4.26366496e-05
      0. 0. 0. 0. 0. 0. -4.26366496e-05 0. 0. 0. 0. 0. 0. 0. 0. 0. 0. 0.
      0. 0. 4.26366496e-05 0. 4.26366496e-05 0. 0. 0. 0. 0.
      -1.27909952e-04 -1.06591627e-03 0. -4.26366496e-05 0. 0. 0.
      8.52732992e-05 0. 0. 0. 0. 4.26366496e-05 0. 0. 0. 0. 0. 0. 0. 0.
      0. 0. 0. 4.26366496e-05 0. 0. 0. 0. 0. 0. 4.26366496e-05
      4.26366496e-05 0. 0. 4.26366496e-05 0. 0. 0. -4.26366496e-05
      8.52732992e-05 0. 0. 0. 0. 0. -5.54276456e-04 8.52732992e-05 0. 0.
      0. 0. 4.26366496e-05 0. 0. 4.26366496e-05 0. 0. 0. 0. 0.
      -4.26366496e-05 0. 0. 0. 0. 0. 0. 0. 0. 0. 4.26366496e-05 0. 0. 0.
      0. 0. 0. 0. 0. 0. 0. 0. 4.26366496e-05 0. 0. 0. 8.52732992e-05
      4.26366496e-05 0. 0. 0. 0. 0. 0. 0. 0. -4.26366496e-05 0. 0. 0. 0.
      0. 0. -4.26366496e-05 0. 4.26366496e-05 4.26366496e-05 0. 0. 0.
      -4.26366496e-05 0. 0. 0. -4.26366496e-05 0. 0. 0. 0. 0. 0. 0. 0.
      0. 0. 0. 0. -8.52732992e-05 -4.26366496e-05 0. -4.26366496e-05 0.
      -4.26366496e-05 0. 0. 8.52732992e-05 0. 0. 0. 0. -4.26366496e-05
      4.26366496e-05 4.26366496e-05 -8.52732992e-05 -4.26366496e-05 0.
      -4.26366496e-05 0. 0. 0. 4.26366496e-05 4.26366518e-04
      -8.52732992e-05 8.52732992e-05 0. 4.26366496e-05 0.
      -4.26366496e-05 -4.26366496e-05 2.13183259e-04 4.26366496e-05 0.
      -4.26366496e-05 -4.26366496e-05 0. -4.26366496e-05 8.52732992e-05
      8.52732992e-05 0. 4.26366496e-05 0. -4.26366496e-05 0.
      -4.26366496e-05 8.52732992e-05 -4.26366496e-05 4.26366496e-05 0.
      4.26366496e-05 -4.26366496e-05 0. 0. -4.26366496e-05
      8.52732992e-05 0. 0. 0. 0. 0. -4.26366496e-05 -4.26366496e-05
      8.52732992e-05 4.26366496e-05 0. -8.52732992e-05 0. 0.
      4.26366496e-05 -4.26366496e-05 -4.26366496e-05 0. 0. 0.
      -4.26366496e-05 0. 4.26366496e-05 0. -4.26366496e-05
      -4.26366496e-05 0. 0. 4.26366496e-05 0. 4.26366496e-05
      -8.52732992e-05 0. 4.26366496e-05 -4.26366496e-05 0. 0. 0.
      4.26366496e-05 0. 0. 0. 4.26366496e-05 0. 0. 0. 0. 4.26366496e-05
      -8.52732992e-05 4.26366496e-05 0. 0. 0. 0. -4.26366496e-05 0. 0.
      0. 4.26366496e-05 0. 0. 0. 0. 4.26366496e-05 4.26366496e-05 0.
      4.26366496e-05 4.26366496e-05 0. 0. 0. 0. -4.26366496e-05 0. 0. 0.
      0. 0. 0. 0. -4.26366496e-05 0. 0. 0. 0. 0. 4.26366496e-05 0.
      4.26366496e-05 4.26366496e-05 0. -4.26366496e-05 0. 0. 0.
      -1.70546598e-04 1.27909952e-04 4.26366496e-05 4.26366496e-05
      4.26366496e-05 -4.26366496e-05 0. 0. 0. 4.26366496e-05 0. 0. 0.
      4.26366496e-05 0. 0. 0. -4.26366496e-05 0. 8.52732992e-05 0.
      4.26366496e-05 4.26366496e-05 0. 4.26366496e-05 0. 4.26366496e-05
      0. 8.52732992e-05 0. 0. -4.26366496e-05 -4.26366496e-05 0. 0. 0.
      0. 4.26366496e-05 0. 0. 0. -4.26366496e-05 0. 0. 0. 0. 0.
      4.26366496e-05 0. 0. 0. 0. 4.26366496e-05 0. 4.26366496e-05 0.
      -4.26366496e-05 4.26366496e-05 0. 0. 0. 0. -8.52732992e-05 0. 0.
      -4.26366496e-05 0. 0. 0. 0. 0. 0. 0. 0. 0. 0. 4.26366496e-05 0. 0.
      0. 0. -4.26366496e-05 -4.26366496e-05 -4.26366496e-05
      -4.26366496e-05 4.26366496e-05 0. -4.26366496e-05 -4.26366496e-05
      -4.26366496e-05 -4.26366496e-05 0. 0. 4.26366496e-05 0. 0.
      -8.52732992e-05 0. 0. 0. 0. 0. 4.26366496e-05 0. 0. 0.
      8.52732992e-05 0. -4.26366496e-05 0. 4.26366496e-05 0.
      -4.26366496e-05 0. 1.27909952e-04 0. 0. -8.52732992e-05
      -4.26366496e-05 8.52732992e-05 0. -8.52732992e-05 0. 0.
      -4.26366496e-05 4.26366496e-05 -8.52732992e-05 -4.26366496e-05
      -8.52733036e-04 5.11639810e-04 0. 8.52732992e-05 -4.26366496e-05
      4.26366496e-05 0. 0. 8.52732992e-05 1.70546598e-04 0.
      4.26366496e-05 -4.26366496e-05 0. 0. 4.26366496e-05 0.
      2.55819905e-04 4.26366496e-05 0. 0. 4.26366496e-05 4.26366496e-05
      -4.26366496e-05 -4.26366496e-05 4.26366496e-05 4.26366496e-05 0.
      4.26366496e-05 8.52732992e-05 0. 0. -1.27909952e-04 0. 0.
      4.26366496e-05 8.52732992e-05 0. 4.26366496e-05 0. 0.
      -4.26366496e-05 -4.26366496e-05 0. -9.38006327e-04 0. 0. 0.
      -2.13183259e-04 4.26366496e-05 4.26366496e-05 0. 0. 0. 0. 0. 0. 0.
      1.27909952e-04 0. 0. 8.52732992e-05 4.26366496e-05 0.
      -4.26366496e-05 1.27909952e-04 0. 8.52732992e-05 0. 0. 0. 0. 0. 0.
      -4.26366496e-05 0. 0. 0. 0. 0. -4.26366496e-05 0. 0. 0. 0. 0. 0.
      0. 8.52732992e-05 0. 0. 0. -4.26366496e-05 0. 0. 0. 0. 0. 0. 0.
      -4.26366496e-05 0. 0. 0. 0. -8.52732992e-05 4.26366496e-05 0.
      -8.52732992e-05 0. 0. 0. 0. 0. 0. 0. 0. 0. -4.26366496e-05 0. 0.
      0. 0. 0. 4.26366496e-05 0. 0. 0. -8.52732992e-05 0. 0. 0. 0. 0.
      4.26366496e-05 0. 4.26366496e-05 0. 0. 0. 4.26366496e-05 0.
      4.26366496e-05 4.26366496e-05 0. 0. 0. 0. 0. 4.26366496e-05 0.
      4.26366496e-05 4.26366496e-05 0. 0. 0. 0. -4.26366496e-05 0. 0.
      -8.52732992e-05 0. 0. 0. 0. 0. 0. 0. 0. 4.26366496e-05 0.
      4.26366496e-05 0. 0. 0. 0. 0. 0. 0. 0. 0. 4.26366496e-05 0. 0. 0.
      0. 0. 0. 0. 0. 0. 4.26366496e-05 0. 0. 0. 0. 0. 0. 0. 0. 0. 0. 0.
      0. 0. 0. 0. 0. 4.26366496e-05 -2.13183259e-04 0. 0. 0.
      -1.70546598e-04 0. 0. 4.26366496e-05 4.26366496e-05 4.26366496e-05
      0. 0. 0. 0. 4.26366496e-05 1.27909952e-04 0. 0. 0. 0.
      4.26366496e-05 0. 0. 4.26366496e-05 -4.26366496e-05 0. 0. 0. 0.
      4.26366496e-05 4.26366496e-05 8.52732992e-05 -8.52732992e-05 0. 0.
      0. -4.26366496e-05 4.26366496e-05 4.26366496e-05 3.41093197e-04
      -8.52732992e-05 -1.70546598e-04 0. 4.26366496e-05 0. 0.
      4.26366496e-05 -1.10855291e-03 5.54276456e-04 -8.52732992e-05 0.
      -4.26366496e-05 8.52732992e-05 0. -1.27909952e-04 0.
      2.55819905e-04 -4.26366496e-05 0. 0. 1.27909952e-04 0. 0.
      -4.26366496e-05 4.26366496e-05 0. 0. 0. 4.26366496e-05
      8.52732992e-05 0. -4.26366496e-05 -4.26366496e-05 8.52732992e-05
      0. 0. -4.26366496e-05 0. -4.26366496e-05 -8.52732992e-05 0. 0. 0.
      0. 0. 0. 0. 0. -4.26366496e-05 0. 0. 0. 0. 0. 4.26366496e-05
      -8.52732992e-05 0. 0. 4.26366496e-05 0. 0. 4.26366496e-05 0. 0.
      -4.26366496e-05 8.52732992e-05 4.26366496e-05 0. 0. 0. 0.
      -1.27909952e-04 0. 0. 0. 0. 4.26366496e-05 0. 0. 0. 0. 0. 0. 0. 0.
      0. 0. -4.26366496e-05 -4.26366496e-05 0. -8.52732992e-05 0. 0. 0.
      0. 0. 0. 4.26366496e-05 0. 0. 0. 0. -4.26366496e-05
      -1.27909952e-04 8.52732992e-05 0. 0. 0. 0. 0. 0. 4.26366496e-05
      8.52732992e-05 -4.26366496e-05 0. 0. 0. 0. 0. 4.26366496e-05
      4.26366496e-05 0. 0. 0. 0. 4.26366496e-05 0. 4.26366496e-05 0. 0.
      0. 0. 8.52732992e-05 0. 0. -1.27909952e-04 4.26366496e-05 0. 0.
      4.26366496e-05 0. 0. 0. 0. 0. 0. 0. 0. 0. 0. 0. -4.26366496e-05 0.
      0. 0. 0. 0. 0. 4.26366496e-05 0. 4.26366496e-05 -4.26366496e-05
      4.26366496e-05 0. 0. 0. 0. 0. 0. 0. 0. 4.26366496e-05 0. 0. 0. 0.
      0. 0. 0. 0. 0. 0. 0. 0. 0. 0. 0. 0. 0. 0. 0. 0. 0. 4.26366496e-05
      0. -4.26366496e-05 0. 0. 0. -2.13183259e-04 0. 0. 0.
      4.26366496e-05 0. 0. 0. -8.52732992e-05 0. 0. 0. 0. 0. 0. 0. 0. 0.
      0. 0. 4.26366496e-05 4.26366496e-05 0. 4.26366496e-05
      4.26366496e-05 4.26366496e-05 0. 0. 0. 0. -4.26366496e-05
      4.26366496e-05 -4.26366496e-05 4.26366496e-05 0. -4.26366496e-05
      0. 0. 0. 0. 0. -4.26366496e-05 4.26366496e-05 0. -8.52732992e-05
      0. 0. 0. 4.26366496e-05 -1.27909952e-04 0. 0. 0. -8.52732992e-05
      4.26366496e-05 -4.26366496e-05 -1.27909952e-04 -4.26366496e-05
      -4.26366496e-05 0. -4.26366496e-05 -4.26366496e-05 -8.52732992e-05
      -1.70546598e-04 4.26366496e-05 2.98456551e-04 1.27909952e-04
      4.26366496e-05 0. 1.27909952e-04 0. 0. 8.52732992e-05
      4.26366496e-05 0. 4.26366496e-05 -1.70546598e-04 4.26366496e-05 0.
      0. 0. 1.27909952e-04 4.26366496e-05 4.26366496e-05 0.
      4.26366496e-05 8.52732992e-05 0. -4.26366496e-05 0. 4.26366496e-05
      0. 1.27909952e-04 0. 4.26366496e-05 0. -8.52732992e-05
      4.26366496e-05 0. 0. 0. 0. 0. 0. 0. 4.26366496e-05 0. 0.
      4.26366496e-05 0. 0. -4.26366496e-05 -4.26366496e-05
      4.26366496e-05 0. 0. 0. 0. 0. 0. 0. 4.26366496e-05 0. 0. 0. 0. 0.
      -4.26366496e-05 0. 4.26366496e-05 4.26366496e-05 0. 0. 0. 0. 0. 0.
      0. 0. 0. 4.26366496e-05 0. 0. 0. 8.52732992e-05 8.52732992e-05
      4.26366496e-05 0. 0. -4.26366496e-05 0. 0. 0. 0. 0. 0. 0. 0. 0. 0.
      0. 2.13183259e-04 0. -4.26366496e-05 0. 0. 0. 0. 0. 4.26366496e-05
      4.26366496e-05 -4.26366496e-05 -4.26366496e-05 0. 0.
      -4.26366496e-05 -8.52732992e-05 0. 0. 0. 0. 0. 0. -4.26366496e-05
      4.26366496e-05 -4.26366496e-05 0. 0. 0. 0. 4.26366496e-05
      4.26366496e-05 -4.26366496e-05 0. 0. 0. 0. 0. 0. 4.26366496e-05 0.
      0. 0. 0. 0. 0. 0. 0. 4.26366496e-05 0. 0. 0. -4.26366496e-05
      -1.27909952e-04 0. -5.11639810e-04 8.52732992e-05 0. 0. 0.
      -4.26366496e-05 4.26366496e-05 0. 0. 0. 0. 0. 0. 0. 0. 0. 0. 0. 0.
      0. 0. 0. 0. 0. 0. 0. 0. 0. 0. 0. 0. 0. 4.26366496e-05 0.
      4.26366496e-05 -4.26366496e-05 0. 0. 0. 0. 0. 8.52732992e-05
      -4.26366496e-05 0. 0. 0. 0. 0. 0. 0. 8.52732992e-05 0. 0.
      -4.26366496e-05 0. 0. 0. 0. -4.26366496e-05 4.26366496e-05 0. 0.
      -3.83729843e-04 0. -3.41093197e-04 -4.26366496e-05 0. 0. 0. 0. 0.
      -8.52732992e-05 0. -4.26366496e-05 0. 4.26366496e-05 0. 0. 0. 0.
      0. 0. 0. 1.27909952e-04 0. -4.26366496e-05 4.26366496e-05 0.
      -4.26366496e-05 1.27909952e-04 4.26366496e-05 -4.26366496e-05 0.
      0. -8.52732992e-05 0. -4.26366496e-05 8.52732992e-05
      -4.26366496e-05 4.26366496e-05 0. 4.26366496e-05 -4.26366496e-05
      -8.52732992e-05 -1.27909952e-04 -2.13183259e-04 8.52732992e-05 0.
      -8.52732992e-05 -8.52732992e-05 4.26366496e-05 0. 0. 0.
      -4.26366496e-05 -4.26366496e-05 0. -8.52732992e-05 0. 0. 0. 0.
      4.26366496e-05 4.26366496e-05 8.52732992e-05 -4.26366496e-05 0. 0.
      -1.27909952e-04 -2.13183259e-04 0. -4.26366496e-05 0. 0. 0. 0.
      -4.26366496e-05 4.26366496e-05 0. 0. 0. 0. 0. 0. 0. 0.
      -4.26366496e-05 -1.27909952e-04 0. -4.26366496e-05 0. 0. 0. 0. 0.
      0. 0. 0. 0. 0. 0. -4.26366496e-05 0. 0. 0. 0. 0. 0. 4.26366496e-05
      4.26366496e-05 4.26366496e-05 4.26366496e-05 4.26366496e-05 0. 0.
      0. 0. 4.26366496e-05 0. 0. 0. 0. 0. 0. 0. -4.26366496e-05 0. 0. 0.
      0. 0. 0. 0. 0. 0. 0. 0. 0. 0. 0. 0. 0. -4.26366496e-05 0.
      4.26366496e-05 0. 0. 0. -4.26366496e-05 0. -1.27909952e-04
      4.26366496e-05 0. -1.27909952e-04 0. 4.26366496e-05 0. 0. 0. 0. 0.
      0. 4.26366496e-05 0. 0. 0. 0. 0. 0. 0. 0. 0. 0. -4.26366496e-05 0.
      0. 8.52732992e-05 0. 0. 0. 4.26366496e-05 0. 0. 0. 0.
      -4.26366496e-05 0. 0. 0. 0. 0. 0. 0. 4.26366496e-05 8.52732992e-05
      0. 4.26366496e-05 -4.26366496e-05 0. 0. 0. 0. 0. -4.26366496e-05
      0. 0. 0. 0. 0. 0. 0. 0. 0. 0. 0. 0. 0. 0. 0. 0. 0. 0. 0. 0.
      4.26366496e-05 0. 0. 0. 0. 0. 0. 0. 0. 0. -4.26366496e-05 0. 0.
      4.26366496e-05 -4.26366496e-05 0. 0. 0. 0. 0. 0. 0. 0. 0. 0. 0.
      4.26366496e-05 0. 0. 0. -8.52732992e-05 4.26366496e-05 0. 0. 0. 0.
      2.13183259e-04 0. 0. -4.26366496e-05 0. 0. 0. 0. 0. 4.26366496e-05
      4.26366496e-05 0. 4.26366496e-05 0. -4.26366496e-05 0. 0. 0.
      -4.26366518e-04 0. 0. 0. 0. 0. -4.26366496e-05 0. 8.52732992e-05
      4.26366496e-05 0. 0. 4.26366496e-05 0. -8.52732992e-05
      -4.26366496e-05 -4.26366496e-05 -4.26366496e-05 0. 4.26366496e-05
      0. 4.26366496e-05 0. 7.24823039e-04 2.98456551e-04 0.
      2.13183259e-04 0. 0. 0. -1.27909952e-04 4.26366496e-05
      -4.26366496e-05 0. 4.26366496e-05 -4.26366496e-05 0. 0.
      -4.26366496e-05 -1.70546598e-04 -4.26366496e-05 0. 0. 0.
      -4.26366496e-05 0. 4.26366496e-05 -8.52732992e-05 0. 0. 0. 0.
      -4.26366496e-05 0. -4.26366496e-05 0. 4.26366496e-05 0. 0.
      4.26366496e-05 0. 0. 0. 0. 0. 2.13183259e-04 -4.26366496e-05
      -6.39549748e-04 0. 0. 4.26366496e-05 0. 0. 0. 0. 0. 0. 0.
      4.26366496e-05 0. 0. 0. 0. 0. 4.26366496e-05 0. 0. 4.26366496e-05
      2.98456551e-04 4.26366496e-05 1.27909952e-04 0. 0. 0. 0. 0. 0.
      8.52732992e-05 0. 0. 0. 0. 0. 0. 4.26366496e-05 0. 0. 0. 0. 0. 0.
      0. 0. 0. 0. 0. 0. 0. 0. 0. 0. 0. 0. 0. 0. 0. 0. 0. -4.26366496e-05
      3.83729843e-04 0. -8.52732992e-05 0. 8.52732992e-05 0. 0.
      -4.26366496e-05 0. 0. 0. 0. 0. 0. 0. 0. 0. 0. 0. 0. 0. 0.
      -4.26366496e-05 0. 0. 8.52732992e-05 0. 0. 0. 0. 0. 0. 0. 0. 0. 0.
      0. 0. 0. 1.27909952e-04 0. 4.26366496e-05 0. 0. 0. 0. 0. 0. 0. 0.
      0. 0. 0. 0. -4.26366496e-05 0. 0. 0. 0. 0. 0. 0. 0. 0. 0. 0. 0. 0.
      0. 0. 0. 0. 0. 0. 0. 0. 0. -4.26366496e-05 0. -4.26366496e-05 0.
      0. 0. 0. 0. 8.52732992e-05 4.26366496e-05 0. 0. 0. 4.26366496e-05
      0. 0. 4.26366496e-05 0. 0. 0. 0. 0. 0. 0. 0. 0. -2.55819905e-04 0.
      0. 0. -2.13183259e-04 0. -4.26366496e-05 4.26366496e-05 0. 0. 0.
      0. 0. 4.26366496e-05 4.26366496e-05 0. -4.26366496e-05 0. 0.
      -4.26366496e-05 0. 0. -8.52732992e-05 0. -4.26366496e-05
      4.26366496e-05 0. 0. 4.26366496e-05 0. 0. -4.26366496e-05
      -3.41093197e-04 0. 0. 0. 0. 0. -4.26366496e-05 -8.52732992e-05 0.
      4.26366496e-05 0. 0. 8.52732992e-05 8.52732992e-05 4.26366496e-05
      -1.70546598e-04 2.55819905e-04 -4.26366496e-05 1.27909952e-04
      1.70546598e-04 8.52732992e-05 0. 0. 8.52732992e-05 4.26366496e-05
      4.26366496e-05 0. 4.26366496e-05 4.26366496e-05 0. 0.
      -1.70546598e-04 8.52732992e-05 4.26366496e-05 -4.26366496e-05 0.
      0. 4.26366496e-05 4.26366496e-05 4.26366496e-05 -1.27909952e-04
      -8.52732992e-05 0. -4.26366496e-05 0. 0. 0. 0. 4.26366496e-05
      8.52732992e-05 0. 4.26366496e-05 0. 0. 0. 0. 0. 0. 0.
      -4.26366496e-05 0. 0. 0. -8.52732992e-05 0. 0. 0. 0. 0. 0. 0. 0.
      0. 0. 0. 0. 0. 4.26366496e-05 -4.26366496e-05 -4.26366496e-05
      8.52732992e-05 0. 4.26366496e-05 4.26366496e-05 0. 0. 0.
      8.52732992e-05 -4.26366496e-05 0. 4.26366496e-05 -4.26366496e-05
      0. 0. 0. 0. 0. 0. 4.26366496e-05 0. 4.26366496e-05 4.26366496e-05
      0. 0. 0. 0. 0. 4.26366496e-05 0. 0. 0. 0. -4.26366496e-05 0. 0. 0.
      0. 0. 0. 0. -4.26366496e-05 8.52732992e-05 -4.26366496e-05
      -2.55819905e-04 0. 4.26366496e-05 0. -8.52732992e-05 0. 0. 0. 0.
      0. 0. 4.26366496e-05 0. 0. 4.26366496e-05 0. 0. -4.26366496e-05
      4.26366496e-05 0. -8.52732992e-05 4.26366496e-05 0. 0. 0. 0. 0. 0.
      0. 4.26366496e-05 0. 0. 0. 0. 0. 0. 0. 8.52732992e-05 0. 0.
      4.26366496e-05 -4.26366496e-05 0. 0. -8.52732992e-05
      -8.52732992e-05 -4.26366496e-05 0. 0. 4.26366496e-05 0. 0. 0. 0.
      0. 0. -4.26366496e-05 0. 0. 0. 0. 0. 0. 0. 0. 0. 0. 0. 0. 0.
      4.26366496e-05 0. 0. 0. 0. 4.26366496e-05 0. 0. 0. 0.
      -8.52732992e-05 0. -4.26366496e-05 0. 0. -1.27909952e-04
      4.26366496e-05 0. 4.26366496e-05 0. 0. 0. 0. 0. 0. 4.26366496e-05
      0. 0. 0. 0. 4.26366496e-05 0. 0. -4.26366496e-05 0. 1.27909952e-04
      0. 4.26366496e-05 0. 0. -8.52732992e-05 0. 0. 0. 0. 0.
      8.52732992e-05 0. 0. 0. 0. 0. 0. 0. 4.26366496e-05 1.27909952e-04
      -4.26366496e-05 0. -4.26366496e-05 -4.26366496e-05 4.26366496e-05
      0. -1.70546598e-04 0. 0. 4.26366496e-05 0. 0. -4.26366496e-05
      4.26366496e-05 0. 0. -4.26366496e-05 0. -4.26366496e-05
      4.26366496e-05 8.52732992e-05 -2.13183259e-04 -5.54276456e-04
      3.41093197e-04 0. 4.26366496e-05 4.26366496e-05 0. 0. 0.
      4.26366496e-05 1.70546598e-04 0. 1.27909952e-04 4.26366496e-05 0.
      0. 0. -1.27909952e-04 0. 0. 0. 0. 1.27909952e-04 0. 0.
      8.52732992e-05 4.26366496e-05 0. 0. 4.26366496e-05 0.
      -4.26366496e-05 0. -3.41093197e-04 4.26366496e-05 4.26366496e-05
      -4.26366496e-05 0. 0. 0. 4.26366496e-05 0. 1.27909952e-04
      4.26366496e-05 0. -8.52732992e-05 0. 0. 0. -4.26366496e-05 0. 0.
      0. 0. 0. 0. 0. -4.26366496e-05 -4.26366496e-05 0. 4.26366496e-05
      0. 4.26366496e-05 0. 0. -1.27909952e-04 4.26366496e-05
      4.26366496e-05 0. 0. 0. 0. 0. 0. 8.52732992e-05 0. 0. 0. 0. 0. 0.
      4.26366496e-05 4.26366496e-05 0. 0. 0. 0. 0. 0. 4.26366496e-05 0.
      -4.26366496e-05 0. 0. 0. 0. 0. 0. 0. 0. 0. 8.52732992e-05 0. 0. 0.
      0. 0. 0. 0. -4.26366496e-05 4.26366496e-05 0. 0. -4.26366496e-05
      0. 0. 0. 0. 0. 0. 0. 0. 0. -4.26366496e-05 0. 0. 0. 0.
      4.26366496e-05 -1.70546598e-04 8.52732992e-05 4.26366496e-05 0. 0.
      0. 0. 0. 0. 0. 0. 0. 0. 4.26366496e-05 0. 0. -4.26366496e-05 0.
      4.26366496e-05 4.26366496e-05 0. 0. 0. 0. -4.26366496e-05
      -4.26366496e-05 0. 0. 0. 0. 0. -4.26366496e-05 -1.27909952e-04 0.
      0. 0. 0. -4.26366496e-05 0. 0. 0. 4.26366496e-05 0. 0. 0. 0. 0. 0.
      4.26366496e-05 0. 4.26366496e-05 0. -4.26366496e-05 0. 0. 0. 0.
      4.26366496e-05 0. 0. 0. 0. 0. 0. 4.26366496e-05 0. 0. 0.
      4.26366496e-05 0. 0. 0. 0. -4.26366496e-05 0. 0. 0.
      -4.26366496e-05 0. 0. 0. -4.26366496e-05 0. -4.26366496e-05 0.
      -4.26366496e-05 0. -4.26366496e-05 -4.26366496e-05 0.
      4.26366496e-05 4.26366496e-05 0. 0. 0. 4.26366496e-05
      -8.52732992e-05 8.52732992e-05 0. 8.52732992e-05 0. 4.26366496e-05
      0. 0. -8.52732992e-05 2.13183259e-04 8.52732992e-05 4.26366496e-05
      -8.52732992e-05 0. 8.52732992e-05 4.26366496e-05 8.52732992e-05
      4.26366496e-05 0. 0. 4.26366496e-05 -4.26366496e-05 0.
      -1.27909952e-04 1.70546598e-04 4.26366496e-05 -8.52732992e-05
      -4.26366496e-05 0. -4.26366496e-05 0. -8.52732992e-05
      -1.06591627e-03 5.11639810e-04 4.26366496e-05 1.27909952e-04
      -4.26366496e-05 0. -4.26366496e-05 4.26366496e-05 0.
      4.26366496e-05 0. 0. 4.26366496e-05 0. 4.26366496e-05 0. 0.
      -8.52732992e-05 -8.52732992e-05 -4.26366496e-05 0. 8.52732992e-05
      4.26366496e-05 1.70546598e-04 -4.26366496e-05 -1.27909952e-04
      -4.26366496e-05 0. 0. 4.26366496e-05 0. 0. -1.70546598e-04
      -4.26366496e-05 0. 0. 0. 0. 0. 0. 0. 4.26366496e-05 0. 0. 0. 0.
      4.26366496e-05 4.26366496e-05 -1.70546598e-04 0. 0. 0. 0. 0.
      4.26366496e-05 4.26366496e-05 0. 0. 0. 0. -4.26366496e-05 0. 0.
      4.26366496e-05 -1.70546598e-04 8.52732992e-05 0. 0. 0.
      4.26366496e-05 0. 0. 0. -4.26366496e-05 4.26366496e-05 0. 0. 0. 0.
      0. 0. 4.26366496e-05 -4.26366496e-05 0. 0. 4.26366496e-05 0. 0. 0.
      0. 0. 0. 0. 0. 0. 0. -4.26366496e-05 0. 0. 0. 4.26366496e-05 0. 0.
      0. 0. -4.26366496e-05 0. -4.26366496e-05 -1.27909952e-04 0. 0. 0.
      0. 0. 0. 0. 0. 0. 0. 0. -4.26366496e-05 0. 0. 0. 4.26366496e-05 0.
      0. -4.26366496e-05 -1.70546598e-04 0. 0. 0. 4.26366496e-05
      4.26366496e-05 0. 0. 0. -1.27909952e-04 0. 0. 0. 0. 0. 0. 0.
      -4.26366496e-05 4.26366496e-05 4.26366496e-05 0. 0. 4.26366496e-05
      0. 4.26366496e-05 -4.26366496e-05 0. 0. -4.26366496e-05 0. 0.
      8.52732992e-05 -4.26366496e-05 0. 0. 0. 0. 0. 0. 0. 0. 0.
      4.26366496e-05 4.26366496e-05 0. 0. 0. 0. 0. 0. 4.26366496e-05 0.
      0. 4.26366496e-05 0. 0. -4.26366496e-05 0. 0. 0. 0.
      -4.26366496e-05 0. 4.26366496e-05 0. 0. 0. 0. 0. 0. 0. 0. 0.
      8.52732992e-05 0. 0. 0. 0. 0. 0. 0. 1.27909952e-04 0. 0. 0.
      4.26366496e-05 0. 4.26366496e-05 0. 0. -4.26366496e-05 0.
      4.26366496e-05 0. 4.26366496e-05 -4.26366496e-05 -8.52732992e-05
      -4.26366496e-05 0. 4.26366496e-05 0. 0. 0. 0. 0. -8.52732992e-05
      4.26366496e-05 0. -4.26366496e-05 0. 0. -4.26366496e-05
      -1.27909952e-04 0. 4.26366496e-05 0. 0. 0. -4.26366496e-05 0.
      -4.26366496e-05 -1.27909952e-04 -4.26366496e-05 0. -4.26366496e-05
      -4.26366496e-05 -8.52732992e-05 0. 1.70546598e-04 5.11639810e-04
      0. 0. 8.52732992e-05 4.26366496e-05 0. 0. 0. 0. 8.52732992e-05 0.
      -4.26366496e-05 4.26366496e-05 4.26366496e-05 0. 4.26366496e-05
      1.27909952e-04 0. -4.26366496e-05 -4.26366496e-05 4.26366496e-05
      0. 0. 0. -1.27909952e-04 -4.26366496e-05 0. 0. 0. -4.26366496e-05
      -4.26366496e-05 4.26366496e-05 8.52732992e-05 4.26366496e-05 0. 0.
      0. 0. 0. 0. 0. 4.26366496e-05 0. -1.70546598e-04 0. 0. 0.
      -4.26366496e-05 4.26366496e-05 4.26366496e-05 0. 0. 0. 0. 0. 0.
      -4.26366496e-05 -4.26366496e-05 0. 0. -4.26366496e-05 0. 0.
      -1.27909952e-04 -4.26366496e-05 0. 0. -4.26366496e-05 0. 0. 0. 0.
      0. -4.26366496e-05 0. 0. 4.26366496e-05 0. 0. -4.26366496e-05 0.
      0. 0. 4.26366496e-05 0. 0. 0. 0. 0. 0. 0. 0. 4.26366496e-05 0.
      -4.26366496e-05 0. 0. 0. -4.26366496e-05 0. 0. 4.26366496e-05 0.
      4.26366496e-05 0. 0. 0. -4.26366496e-05 0. 0. -4.26366496e-05
      -4.26366496e-05 4.26366496e-05 0. 4.26366496e-05 0.
      -4.26366496e-05 0. 0. 4.26366496e-05 -4.26366496e-05
      4.26366496e-05 -4.26366496e-05 0. 0. 0. -4.26366496e-05
      -4.26366496e-05 8.52732992e-05 0. 0. 0. 0. 0. 0. -4.26366496e-05
      4.26366496e-05 0. 0. 0. 0. 0. 4.26366496e-05 0. -4.26366496e-05 0.
      0. 0. 8.52732992e-05 0. 0. -4.26366496e-05 0. 0. 0.
      -4.26366496e-05 4.26366496e-05 0. 0. -4.26366496e-05 0. 0. 0. 0.
      0. 0. 0. 0. 0. 0. 0. 0. 0. 0. 0. 0. 0. 0. 0. 0. -4.26366496e-05 0.
      0. 0. 4.26366496e-05 4.26366496e-05 0. -4.26366496e-05 0. 0. 0. 0.
      0. 0. 0. 4.26366496e-05 -4.26366496e-05 0. 0. 8.52732992e-05 0. 0.
      0. -4.26366496e-05 0. 0. 0. 0. 4.26366496e-05 0. -4.26366496e-05
      0. 0. 0. 1.27909952e-04 0. 0. 0. 0. 0. 0. 0. 0. -8.52732992e-05
      8.52732992e-05 0. -4.26366496e-05 4.26366496e-05 0. 0. 0.
      4.26366496e-05 4.26366496e-05 -4.26366496e-05 0. -4.26366496e-05
      0. 4.26366496e-05 0. -1.27909952e-04 1.70546598e-04
      -4.26366496e-05 0. 0. -1.27909952e-04 0. -4.26366496e-05
      -4.26366496e-05 4.26366496e-05 4.26366496e-05 -8.52732992e-05
      -4.26366496e-05 -8.52732992e-05 -1.27909952e-04 -8.52732992e-05
      2.22044605e-16 3.83729843e-04 4.26366496e-05 4.26366496e-05 0.
      8.52732992e-05 0. 0. 0. 4.26366496e-05 0. 4.26366496e-05
      -4.26366496e-05 8.52732992e-05 0. 4.26366496e-05 2.55819905e-04
      1.70546598e-04 4.26366496e-05 0. 0. 4.26366496e-05 0.
      -4.26366496e-05 4.26366496e-05 4.26366496e-05 0. -4.26366496e-05
      0. 0. 0. 4.26366496e-05 0. 4.26366496e-05 0. -4.26366496e-05 0.
      8.52732992e-05 0. 0. 0. 4.26366496e-05 -8.52732992e-05 0.
      -6.82186394e-04 0. 4.26366496e-05 0. 1.27909952e-04 0.
      4.26366496e-05 0. 0. 0. 0. 0. 0. 4.26366496e-05 0. 0. 0. 0. 0.
      -4.26366496e-05 0. 4.26366496e-05 0. 4.26366496e-05
      -4.26366496e-05 0. 0. 0. 0. 0. 0. 0. 0. -4.26366496e-05 0. 0.
      8.52732992e-05 8.52732992e-05 0. 0. 0. -8.52732992e-05 0.
      8.52732992e-05 0. 0. 0. 0. 0. 4.26366496e-05 0. 0. 0. 0. 0. 0. 0.
      -4.26366496e-05 0. 4.26366496e-05 0. -4.26366496e-05 0. 0. 0. 0.
      -4.26366496e-05 0. 0. 4.26366496e-05 0. 0. 0. 0. 0. 0.
      4.26366496e-05 8.52732992e-05 0. 0. 0. 0. 0. 0. 0. 0.
      4.26366496e-05 0. 0. 0. 0. 0. 4.26366496e-05 4.26366496e-05
      -4.26366496e-05 0. 0. 0. 0. 0. 4.26366496e-05 8.52732992e-05
      4.26366496e-05 0. 0. 8.52732992e-05 0. 0. 0. 0. 0. 0. 0.
      4.26366496e-05 0. 0. -4.26366496e-05 0. 0. 0. 0. 0. 0. 0. 0. 0. 0.
      -4.26366496e-05 0. 0. 0. 0. 8.52732992e-05 -4.26366496e-05 0. 0.
      0. 0. 0. 0. 4.26366496e-05 0. 0. 0. 0. 0. 0. 0. 0. 0. 0. 0. 0. 0.
      0. 0. 4.26366496e-05 0. 4.26366496e-05 0. 0. 0. 0. 0. 0. 0. 0. 0.
      4.26366496e-05 -1.19382620e-03 0. -4.26366496e-05 0.
      8.52732992e-05 0. 0. -4.26366496e-05 0. 0. 4.26366496e-05 0. 0.
      4.26366496e-05 -4.26366496e-05 0. 0. 0. -4.26366496e-05
      1.27909952e-04 4.26366496e-05 4.26366496e-05 -4.26366496e-05
      4.26366496e-05 0. 0. 0. 4.26366496e-05 1.27909952e-04
      4.26366496e-05 0. 0. 0. 0. -4.26366496e-05 0. 0. -4.26366496e-05
      -4.26366496e-05 8.52732992e-05 4.26366496e-05 4.26366496e-05 0.
      -9.38006327e-04 8.52732992e-05 4.26366496e-05 -8.52732992e-05 0.
      8.52732992e-05 0. 8.52732992e-05 4.26366496e-05 8.52732992e-05 0.
      4.26366496e-05 1.27909952e-04 0. 0. 4.26366496e-05 0.
      4.26366496e-05 0. 0. 0. 4.26366496e-05 0. 4.26366496e-05
      4.26366496e-05 4.26366496e-05 0. 0. 4.26366496e-05 0. 0. 0. 0.
      4.26366496e-05 0. -4.26366496e-05 0. 0. 0. 0. 0. 0. 1.27909952e-04
      0. -8.10096331e-04 0. 0. 0. 0. 0. 0. 0. 0. 0. 0. 0. 0. 0. 0. 0. 0.
      0. 0. -4.26366496e-05 0. 4.26366496e-05 0. -4.26366496e-05 0.
      -4.26366496e-05 0. 0. 0. 0. 0. 0. 0. 0. 0. 0. 0. -4.26366496e-05
      0. 0. 0. -4.26366496e-05 0. -8.52732992e-05 0. 0. 0. 0. 0. 0. 0.
      0. 0. -4.26366496e-05 0. 0. 0. 0. 0. 0. 4.26366496e-05 0.
      4.26366496e-05 0. 0. 0. 0. -4.26366496e-05 -4.26366496e-05 0. 0.
      0. 0. 0. 0. 0. 0. 0. 0. 0. 0. 0. 0. 0. 0. 4.26366496e-05 0.
      4.26366496e-05 0. 0. 0. 0. 0. 0. 0. 0. 0. 0. 0. 0. 0.
      -4.26366496e-05 0. 0. 0. 4.26366496e-05 0. -1.27909952e-04 0. 0.
      0. 0. 4.26366496e-05 0. 0. 0. 0. 0. 0. 0. 0. 0. 0. 0. 0. 0. 0. 0.
      0. 0. 0. 0. 0. 0. 0. 0. 0. 0. 0. 0. 0. 0. 0. 0. 0. 0. 0. 0. 0. 0.
      0. 0. 0. 0. 0. 0. 0. 0. 0. 0. 0. 0. 0. 0. 0. 2.55819905e-04 0.
      4.26366496e-05 0. -1.27909952e-04 0. -3.41093197e-04
      4.26366496e-05 0. 0. 0. 0. -4.26366496e-05 0. 0. 0. 4.26366496e-05
      0. 0. 0. 4.26366496e-05 0. 4.26366496e-05 0. 0. 0. -4.26366496e-05
      0. 0. 0. 0. 4.26366496e-05 0. 0. 0. 0. 4.26366496e-05 0.
      -4.26366496e-05 0. 0. 0. 0. -4.26366496e-05 0. 0. 0.
      2.55819905e-04 2.98456551e-04 0. 0. -4.26366496e-05 4.26366496e-05
      0. -8.52732992e-05 8.52732992e-05 0. 0. 0. 4.26366496e-05 0. 0. 0.
      0. 8.52732992e-05 0. 0. 0. 0. 0. -8.52732992e-05 0. 0. 0. 0. 0. 0.
      0. 0. 0. 4.26366496e-05 0. 0. 0. 0. 0. 0. 0. 4.26366496e-05
      4.26366496e-05 4.26366496e-05 -5.11639810e-04 0. 0. 0. 0.
      4.26366496e-05 0. 0. 0. 0. 0. 0. 0. 0. 0. 0. 0. 4.26366496e-05 0.
      0. -4.26366496e-05 -8.52732992e-05 4.26366496e-05 -4.26366496e-05
      0. 0. 0. -4.26366496e-05 0. 0. 8.52732992e-05 0. -4.26366496e-05
      0. 0. 0. 0. 0. 0. 0. 0. 0. 0. 0. 4.26366496e-05 0. 0. 0. 0. 0. 0.
      0. 0. 4.26366496e-05 4.26366496e-05 -4.26366496e-05 0. 0. 0. 0. 0.
      4.26366496e-05 -2.13183259e-04 -8.52732992e-05 -8.52732992e-05 0.
      0. 4.26366496e-05 -8.52732992e-05 4.26366496e-05 0. 0. 0. 0. 0. 0.
      -4.26366496e-05 0. 0. 0. 0. 0. 0. 0. -4.26366496e-05
      -4.26366496e-05 0. 8.52732992e-05 0. 0. 0. 0. 0. 0. 0. 0. 0. 0. 0.
      0. 0. 1.70546598e-04 0. 0. 0. -4.26366496e-05 4.26366496e-05
      -1.27909952e-04 0. 0. 0. 0. 0. 0. 0. 0. -4.26366496e-05 0. 0. 0.
      0. 0. 0. 0. 0. 0. 0. 0. 0. 0. 0. 0. 4.26366496e-05 0. 0. 0. 0. 0.
      0. 4.26366496e-05 0. 0. 0. 0. 0. 0. 0. 0. 0. 4.26366496e-05 0.
      4.26366496e-05 0. 0. 0. 4.26366496e-05 0. 0. 0. 0. 0. 0. 0. 0. 0.
      4.26366496e-05 0. 4.26366496e-05 0. -3.83729843e-04 0.
      4.26366496e-05 -4.26366496e-05 0. 0. 0. 0. 0. 0. 0.
      -1.70546598e-04 8.52732992e-05 0. 0. 4.26366496e-05 0. 0. 0. 0. 0.
      0. -4.26366496e-05 0. 0. 0. -4.26366496e-05 4.26366496e-05
      4.26366496e-05 0. 0. 0. 0. 0. 4.26366496e-05 -8.52732992e-05 0.
      4.26366496e-05 0. 0. 4.26366496e-05 -4.26366496e-05
      -4.26366496e-05 5.11639810e-04 3.83729843e-04 1.27909952e-04
      -4.26366496e-05 1.27909952e-04 4.26366496e-05 -4.26366496e-05 0.
      0. 8.52732992e-05 0. 4.26366496e-05 -4.26366496e-05 0.
      4.26366496e-05 0. -4.26366496e-05 0. 8.52732992e-05 0.
      8.52732992e-05 4.26366496e-05 0. -8.52732992e-05 4.26366496e-05 0.
      4.26366496e-05 0. 0. 0. 0. 0. 0. 1.27909952e-04 0. 0. 0. 0. 0. 0.
      0. 8.52732992e-05 0. -8.52732992e-05 0. -4.26366496e-05 0. 0.
      -4.26366496e-05 0. 0. 0. 0. 0. 0. 4.26366496e-05 4.26366496e-05 0.
      0. 0. 4.26366496e-05 0. 0. 0. 0. 0. 0. 0. 0. 0. 0. 0.
      -4.26366496e-05 4.26366496e-05 0. 0. 0. 0. -4.26366496e-05 0.
      4.26366496e-05 0. 4.26366496e-05 0. 0. 0. 0. 0. 4.26366496e-05 0.
      -4.26366496e-05 0. 0. -4.26366496e-05 0. 0. -4.26366496e-05 0.
      -4.26366496e-05 0. 0. 0. 0. -4.26366496e-05 -4.26366496e-05 0.
      8.52732992e-05 -4.26366496e-05 0. 4.26366496e-05 4.26366496e-05
      -4.26366496e-05 0. -4.26366496e-05 0. 0. 0. -4.26366496e-05 0. 0.
      4.26366496e-05 0. 0. 0. -4.26366496e-05 -4.26366496e-05 0. 0.
      -1.70546598e-04 0. 0. -4.26366496e-05 0. 0. 0. 0. 8.52732992e-05
      4.26366496e-05 0. 0. 0. 0. 0. 0. 4.26366496e-05 -4.26366496e-05 0.
      0. 4.26366496e-05 0. 0. -4.26366496e-05 0. 0. 4.26366496e-05 0. 0.
      -4.26366496e-05 0. 0. -4.26366496e-05 0. 0. 0. 0. 0. 0. 0. 0. 0.
      0. 0. 0. 0. 0. 0. 4.26366496e-05 4.26366496e-05 0. 0. 0.
      -4.26366496e-05 0. 0. 0. 0. -4.26366496e-05 0. -4.26366496e-05 0.
      0. 0. -1.27909952e-04 0. 0. 0. -4.26366496e-05 0. 0. 0.
      -4.26366496e-05 4.26366496e-05 4.26366496e-05 4.26366496e-05 0. 0.
      0. 0. 0. 4.26366496e-05 0. 0. 0. 0. 0. -1.27909952e-04
      -1.27909952e-04 -4.26366496e-05 0. 0. -4.26366496e-05 0. 0. 0.
      -8.52732992e-05 0. 0. 4.26366496e-05 0. 0. 0. 4.26366496e-05
      4.26366496e-05 0. 8.52732992e-05 -4.26366496e-05 -8.52732992e-05
      4.26366496e-05 0. 0. -4.26366496e-05 -4.26366496e-05 0. 0. 0. 0.
      0. 4.26366496e-05 4.26366496e-05 -4.26366496e-05 0. 0. 0.
      8.52732992e-05 4.26366496e-05 -4.26366496e-05 -3.83729843e-04
      5.11639810e-04 4.26366496e-05 4.26366496e-05 0. 4.26366496e-05 0.
      -4.26366496e-05 0. 1.27909952e-04 8.52732992e-05 0.
      -4.26366496e-05 8.52732992e-05 0. 4.26366496e-05 0. 2.13183259e-04
      8.52732992e-05 0. 0. 4.26366496e-05 0. 0. 1.70546598e-04
      4.26366496e-05 0. 0. 4.26366496e-05 4.26366496e-05 8.52732992e-05
      0. -4.26366496e-05 0. 0. 4.26366496e-05 0. 0. 0. 0. 4.26366496e-05
      0. 0. 0. 4.26366496e-05 0. 0. 0. -2.55819905e-04 0. 0. 0. 0. 0. 0.
      0. 8.52732992e-05 0. 0. -4.26366496e-05 0. 4.26366496e-05 0. 0.
      -4.26366496e-05 0. 4.26366496e-05 0. 0. -8.52732992e-05 0. 0. 0.
      4.26366496e-05 0. 0. -4.26366496e-05 0. 0. 0. 0. -4.26366496e-05
      0. 0. 0. 0. 0. -8.52732992e-05 4.26366496e-05 4.26366496e-05 0. 0.
      0. 0. 0. 0. 0. 0. 0. 0. 0. 0. 0. 0. 0. 1.27909952e-04
      -4.26366496e-05 0. -1.70546598e-04 -4.26366496e-05 0.
      4.26366496e-05 -8.52732992e-05 0. -4.26366496e-05 0. 0.
      -4.26366496e-05 0. 4.26366496e-05 0. 0. 0. 0. -4.26366496e-05 0.
      0. -8.52732992e-05 -8.52732992e-05 0. 0. -4.26366496e-05 0. 0. 0.
      0. 0. -4.26366496e-05 0. 0. 0. 0. 0. 0. 4.26366496e-05
      4.26366496e-05 -4.26366496e-05 4.26366496e-05 4.26366496e-05
      4.26366496e-05 0. -4.26366496e-05 0. 0. -4.26366496e-05 0. 0. 0.
      -4.26366496e-05 -4.26366496e-05 0. -4.26366496e-05 0. 0. 0. 0. 0.
      0. 0. 0. 0. 0. 0. 0. 0. 0. 0. 0. 0. 0. 0. -4.26366496e-05 0.
      -4.26366496e-05 0. 0. 0. 0. 0. 0. -4.26366496e-05 0.
      -4.26366496e-05 4.26366496e-05 0. 0. 0. 0. 0. 0. 4.26366496e-05 0.
      0. 0. 0. 0. 0. 0. 8.52732992e-05 -4.26366496e-05 -4.26366496e-05
      0. 0. -4.26366496e-05 0. 8.52732992e-05 -8.52732992e-05
      -4.26366496e-05 0. -4.26366496e-05 -4.26366496e-05 -4.26366496e-05
      0. -4.26366496e-05 -8.52732992e-05 4.26366496e-05 0. 0. 0.
      -4.26366496e-05 0. -4.26366496e-05 -4.26366496e-05 2.55819905e-04
      0. 0. -4.26366496e-05 0. 0. -4.26366496e-05 8.52732992e-05
      2.13183259e-04 0. 0. 0. 8.52732992e-05 4.26366496e-05
      -1.27909952e-04 -1.27909952e-04 4.26366496e-05 -8.52732992e-05
      -4.26366496e-05 -8.52732992e-05 -1.27909952e-04 -8.52732992e-05
