<?xml version="1.0"?>
<opencv_storage>
<opencv_ml_svm>
  <format>3</format>
  <svmType>C_SVC</svmType>
  <kernel>
    <type>LINEAR</type></kernel>
  <C>1.0000000000000001e-01</C>
  <term_criteria><epsilon>1.1920928955078125e-07</epsilon>
    <iterations>1000</iterations></term_criteria>
  <var_count>16128</var_count>
  <class_count>2</class_count>
  <class_labels type_id="opencv-matrix">
    <rows>2</rows>
    <cols>1</cols>
    <dt>i</dt>
    <data>
      -1 1</data></class_labels>
  <sv_total>1</sv_total>
  <support_vectors>
    <_>
      -3.21771040e-05 -6.93889390e-18 -3.21771040e-05 -6.43542080e-05
      3.21771040e-05 0. -9.65313084e-05 -6.93889390e-18 -9.65313084e-05
      -6.93889390e-18 0. 0. 0. -3.21771040e-05 -6.93889390e-18
      -3.21771040e-05 9.65313084e-05 6.43542080e-05 -6.43542080e-05
      3.21771040e-05 0. 0. 3.21771040e-05 2.25239724e-04 0. 0. 0.
      3.21771040e-05 -3.21771040e-05 3.21771040e-05 6.43542080e-05
      -3.21771040e-05 6.43542080e-05 0. 0. 0. -3.21771040e-05 0. 0. 0.
      -6.93889390e-18 0. 0. 0. 0. 3.21771040e-05 0. 3.21771040e-05 0. 0.
      0. -3.21771040e-05 0. 0. -6.93889390e-18 3.21771040e-05
      3.21771040e-05 0. 0. 0. -6.93889390e-18 -6.43542080e-05 0.
      -6.43542080e-05 -6.93889390e-18 -6.43542080e-05 -3.21771040e-05
      3.21771040e-05 -3.21771040e-05 0. 0. 0. 0. 0. 3.21771040e-05
      3.21771040e-05 3.21771040e-05 0. 0. 3.21771040e-05 0. 0. 0. 0. 0.
      0. -3.21771040e-05 0. 0. 0. 0. 0. 0. 0. 0. 0. -3.21771040e-05 0.
      0. 0. 0. 0. 0. 0. -6.93889390e-18 0. -3.21771040e-05 0.
      -6.93889390e-18 -6.43542080e-05 0. 6.43542080e-05 0. 0. 0. 0.
      -3.21771040e-05 0. 0. -3.21771040e-05 0. 0. 0. 3.21771040e-05 0.
      0. 3.21771040e-05 -3.21771040e-05 -6.93889390e-18 0. 0.
      -3.21771040e-05 3.21771040e-05 0. 0. 0. 3.21771040e-05 0. 0.
      3.21771040e-05 0. 0. 0. -3.21771040e-05 3.21771040e-05 0.
      -6.43542080e-05 -3.21771040e-05 -6.43542080e-05 0. -6.93889390e-18
      -1.38777878e-17 -3.21771040e-05 0. -6.93889390e-18 3.21771040e-05
      -3.21771040e-05 -3.21771040e-05 0. -6.93889390e-18 0.
      3.21771040e-05 0. 0. 0. 0. 0. 0. 0. 3.21771040e-05 0. 0. 0. 0. 0.
      -6.43542080e-05 0. 0. 3.21771040e-05 0. 0. 0. 0. 0. 0. 0. 0. 0. 0.
      0. -9.65313084e-05 -9.65313084e-05 -6.93889390e-18 3.21771040e-05
      -6.43542080e-05 -3.21771040e-05 0. 0. 0. 0. 6.43542080e-05 0. 0.
      -3.21771040e-05 0. 3.21771040e-05 0. 0. 0. -6.93889390e-18 0. 0.
      -3.21771040e-05 -3.21771040e-05 3.21771040e-05 0. 0. 0. 0. 0. 0.
      0. 0. -6.93889390e-18 -3.21771040e-05 3.21771040e-05 0. 0. 0. 0.
      0. 0. 1.28708416e-04 3.21771040e-05 0. -6.93889390e-18 0.
      3.21771040e-05 -6.93889390e-18 -6.43542080e-05 -6.43542080e-05
      -3.21771040e-05 0. 3.21771040e-05 -6.93889390e-18 0.
      -6.93889390e-18 -3.21771040e-05 -6.93889390e-18 3.21771040e-05 0.
      -6.43542080e-05 -3.21771040e-05 -3.21771040e-05 0. 4.18302341e-04
      1.28708416e-04 -3.21771040e-05 3.21771040e-05 0. -6.93889390e-18
      0. 0. -9.65313084e-05 6.43542080e-05 -3.21771040e-05
      -3.21771040e-05 -6.43542080e-05 3.21771040e-05 -3.21771040e-05
      -3.21771040e-05 -3.21771040e-05 -6.43542080e-05 3.21771040e-05
      -6.93889390e-18 0. -3.21771040e-05 3.21771040e-05 3.21771040e-05
      -3.21771040e-05 3.21771040e-05 3.21771040e-05 0. 3.21771040e-05
      3.21771040e-05 0. 0. -6.93889390e-18 -3.21771040e-05 0.
      3.21771040e-05 3.21771040e-05 0. 0. -6.43542080e-05 0. 0.
      -3.21771040e-05 -3.21771040e-05 0. -3.21771040e-05 0. 0.
      -6.43542080e-05 3.21771040e-05 0. 0. 0. -3.21771040e-05 0. 0.
      -6.43542080e-05 3.21771040e-05 0. 0. 3.21771040e-05
      -6.93889390e-18 -3.21771040e-05 0. -6.43542080e-05 -3.21771040e-05
      3.21771040e-05 0. -3.21771040e-05 0. 0. 0. 0. -3.21771040e-05
      -3.21771040e-05 0. 0. 0. 0. 0. -3.21771040e-05 0. 3.21771040e-05
      0. 0. -3.21771040e-05 0. 0. -6.43542080e-05 0. 0. 0. 0. 0. 0. 0.
      0. -3.21771040e-05 0. 0. 0. -3.21771040e-05 0. 0. 9.65313084e-05
      3.21771040e-05 -3.21771040e-05 -3.21771040e-05 3.21771040e-05 0.
      6.43542080e-05 -3.21771040e-05 -6.43542080e-05 0. 3.21771040e-05
      0. 0. 0. 0. 0. 0. 0. 3.21771040e-05 0. 0. -3.21771040e-05 0.
      3.21771040e-05 -3.21771040e-05 3.21771040e-05 -3.21771040e-05
      3.21771040e-05 0. 0. 0. 0. -6.93889390e-18 3.21771040e-05 0. 0. 0.
      0. 0. 0. 3.21771040e-05 6.43542080e-05 0. 0. 6.43542080e-05 0. 0.
      -3.21771040e-05 -6.93889390e-18 0. 0. 0. -3.21771040e-05
      3.21771040e-05 0. 0. -1.93062617e-04 -3.21771040e-05 0. 0. 0. 0.
      0. 0. 0. 3.21771040e-05 0. 0. 0. 0. 0. 0. 0. 0. 3.21771040e-05 0.
      0. 0. 0. 0. 0. 0. 0. 0. -3.21771040e-05 0. 0. 3.21771040e-05
      -3.21771040e-05 9.65313084e-05 0. 0. 0. 0. 0. 0. -3.21771040e-05
      3.21771040e-05 -6.93889390e-18 0. 0. 0. 3.21771040e-05 0. 0.
      -6.43542080e-05 -3.21771040e-05 0. 0. 0. 0. 0. -9.65313084e-05 0.
      -3.21771040e-05 3.21771040e-05 0. 0. 0. 0. -6.43542080e-05
      -6.43542080e-05 0. 0. -3.21771040e-05 0. 0. 0. 3.21771040e-05
      -1.28708416e-04 9.65313084e-05 -3.21771040e-05 -6.43542080e-05 0.
      0. 3.21771040e-05 -6.93889390e-18 -1.28708416e-04 0. 0.
      3.21771040e-05 -6.43542080e-05 3.21771040e-05 -6.93889390e-18
      -3.21771040e-05 3.21771040e-05 -3.21771040e-05 -3.21771040e-05 0.
      -6.93889390e-18 -3.21771040e-05 0. 9.65313055e-04 3.21771040e-05
      -3.21771040e-05 0. -3.21771040e-05 3.21771040e-05 3.21771040e-05
      -1.38777878e-17 0. 9.65313084e-05 -6.43542080e-05 0.
      -6.43542080e-05 -6.93889390e-18 0. 3.21771040e-05 -3.21771040e-05
      -9.65313084e-05 0. 0. 0. -3.21771040e-05 0. 6.43542080e-05
      3.21771040e-05 -6.93889390e-18 -6.43542080e-05 -3.21771040e-05 0.
      0. 0. 0. -1.38777878e-17 0. 0. 0. 0. 0. 0. 0. -3.21771040e-05
      -3.21771040e-05 3.21771040e-05 -3.21771040e-05 0. 0.
      -3.21771040e-05 3.21771040e-05 -3.21771040e-05 3.21771040e-05 0.
      -3.21771040e-05 0. 0. 0. 0. 0. 0. 0. 0. 0. 0. -3.21771040e-05 0.
      0. -6.43542080e-05 0. -6.93889390e-18 -3.21771040e-05
      6.43542080e-05 0. 0. 0. -3.21771040e-05 -3.21771040e-05 0.
      3.21771040e-05 0. 0. 0. 0. 0. 6.43542080e-05 0. 0. 0. 0. 0.
      3.21771040e-05 0. 0. 0. 0. 0. 0. 0. 0. -6.93889390e-18
      -3.21771040e-05 0. 3.21771040e-05 0. 0. 0. 0. -1.38777878e-17
      -6.93889390e-18 0. -3.21771040e-05 3.21771040e-05 0.
      -3.21771040e-05 -6.93889390e-18 3.21771040e-05 0. 0. 0. 0. 0. 0.
      -6.93889390e-18 0. 0. 0. 0. 0. -3.21771040e-05 0. -3.21771040e-05
      -6.43542080e-05 0. 3.21771040e-05 0. 0. 0. -3.21771040e-05
      3.21771040e-05 0. 3.21771040e-05 0. 0. -6.93889390e-18 0. 0.
      6.43542080e-05 -6.93889390e-18 0. 0. 0. -6.93889390e-18 0. 0.
      6.43542080e-05 -6.93889390e-18 0. 0. 3.21771040e-05 0. 0. 0. 0.
      -3.21771040e-05 0. 0. 0. 0. 0. 0. 0. 0. 0. 0. 0. 0. 0. 0. 0. 0. 0.
      0. 0. 0. 0. 0. -3.21771040e-05 0. 0. 0. 0. -3.21771040e-05 0. 0.
      6.43542080e-05 3.21771040e-05 0. -3.21771040e-05 0.
      -3.21771040e-05 0. 0. 0. 3.21771040e-05 0. 0. 3.21771040e-05 0. 0.
      -3.21771040e-05 0. -3.21771040e-05 3.21771040e-05 3.21771040e-05
      0. -1.28708416e-04 0. -6.43542080e-05 0. 3.21771040e-05 0. 0. 0.
      -3.21771040e-05 0. 3.21771040e-05 0. -3.21771040e-05 0. 0. 0. 0.
      0. 3.21771040e-05 -6.43542080e-05 -6.43542080e-05 -6.43542080e-05
      0. -3.21771040e-05 -3.21771040e-05 0. -9.65313084e-05
      -2.25239724e-04 3.21771040e-05 -3.21771040e-05 -3.21771040e-05 0.
      3.21771040e-05 0. -6.93889390e-18 -3.21771040e-05 -6.43542080e-05
      -3.21771040e-05 -3.21771040e-05 -6.93889390e-18 -6.93889390e-18
      -1.28708416e-04 -6.43542080e-05 1.22272992e-03 -3.21771040e-05
      6.43542080e-05 -3.21771040e-05 -6.43542080e-05 0. 0. 0.
      -6.43542080e-05 3.21771040e-05 -1.28708416e-04 3.21771040e-05
      -6.43542080e-05 -3.21771040e-05 0. 3.21771040e-05 -3.21771040e-05
      -3.21771040e-05 -3.21771040e-05 0. 3.21771040e-05 -3.21771040e-05
      0. 0. -9.65313084e-05 3.21771040e-05 0. 0. 0. -3.21771040e-05 0.
      -3.21771040e-05 0. -3.21771040e-05 3.21771040e-05 0. 0. 0. 0. 0.
      0. -6.93889390e-18 6.43542080e-05 3.21771040e-05 -6.43542080e-05
      3.21771040e-05 0. 0. -6.43542080e-05 3.21771040e-05 3.21771040e-05
      0. 3.21771040e-05 0. 0. 0. 0. 0. 0. 0. 0. -3.21771040e-05 0.
      -3.21771040e-05 -6.43542080e-05 9.65313084e-05 -3.21771040e-05 0.
      -3.21771040e-05 0. 0. 0. 0. -3.21771040e-05 0. 0. 0. 0. 0. 0.
      3.21771040e-05 0. 0. 0. 0. 0. 0. 0. 0. 0. 0. 0. 3.21771040e-05 0.
      0. 0. 0. -6.43542080e-05 -3.21771040e-05 0. 3.21771040e-05 0. 0.
      0. 3.21771040e-05 -6.43542080e-05 -3.21771040e-05 0.
      -6.93889390e-18 -3.21771040e-05 -3.21771040e-05 3.21771040e-05
      -6.43542080e-05 -3.21771040e-05 0. 0. 0. 0. 0. 0. -6.93889390e-18
      0. 0. 0. 0. -3.21771040e-05 0. 3.21771040e-05 0. 6.43542080e-05 0.
      0. -3.21771040e-05 0. 0. 3.21771040e-05 0. -3.21771040e-05 0. 0.
      0. 0. 0. 3.21771040e-05 -6.93889390e-18 3.21771040e-05
      3.21771040e-05 3.21771040e-05 -6.93889390e-18 0. 0. 0.
      -6.43542080e-05 -3.21771040e-05 3.21771040e-05 0. 0. 0. 0. 0.
      -3.21771040e-05 0. 0. 0. 0. 0. 0. 0. 0. 0. 0. 0. 0. 0. 0. 0. 0. 0.
      -3.21771040e-05 0. 0. 0. 0. 3.21771040e-05 0. -3.21771040e-05 0.
      0. 0. 0. 0. 0. 0. 3.21771040e-05 -3.21771040e-05 3.21771040e-05 0.
      -3.21771040e-05 0. 0. 0. 0. -6.43542080e-05 0. 0. 6.43542080e-05
      0. 0. 3.21771040e-05 -3.21771040e-05 0. 3.21771040e-05
      -3.21771040e-05 -3.21771040e-05 -3.21771040e-05 0. -3.21771040e-05
      0. -3.21771040e-05 0. 0. 0. 0. 0. 0. 3.21771040e-05 0.
      -3.21771040e-05 0. 0. 0. 0. -6.43542080e-05 -3.21771040e-05
      -6.93889390e-18 -3.21771040e-05 -3.21771040e-05 -9.65313084e-05
      -3.21771040e-05 -3.21771040e-05 -1.38777878e-17 -9.65313084e-05 0.
      -3.21771040e-05 0. -3.21771040e-05 0. -6.93889390e-18
      -9.65313084e-05 3.21771040e-05 -6.43542080e-05 -3.21771040e-05
      -3.21771040e-05 -6.93889390e-18 9.65313084e-05 -3.21771040e-05
      1.41579250e-03 6.43542080e-05 -3.21771040e-05 -3.21771040e-05 0.
      -3.21771040e-05 0. -3.21771040e-05 -3.21771040e-05 3.21771040e-05
      6.43542080e-05 3.21771040e-05 3.21771040e-05 0. 0. 0.
      -3.21771040e-05 -1.38777878e-17 -6.93889390e-18 0. 0.
      9.65313084e-05 0. 6.43542080e-05 -9.65313084e-05 3.21771040e-05 0.
      0. -3.21771040e-05 0. 0. 0. -6.43542080e-05 -6.93889390e-18
      -3.21771040e-05 6.43542080e-05 0. 0. 0. 0. -3.21771040e-05
      -9.65313084e-05 0. 0. -3.21771040e-05 0. 0. 0. -3.21771040e-05
      3.21771040e-05 0. -3.21771040e-05 0. 0. 0. 0. 0. 0. 0. 0.
      3.21771040e-05 0. 0. 0. -6.43542080e-05 6.43542080e-05
      -3.21771040e-05 -3.21771040e-05 0. 0. 0. -3.21771040e-05 0.
      -6.93889390e-18 0. 0. 0. 0. 0. 0. 0. 0. 3.21771040e-05
      -3.21771040e-05 0. 0. 0. -3.21771040e-05 -3.21771040e-05 0. 0. 0.
      0. 0. 0. 0. 0. -3.21771040e-05 0. -3.21771040e-05 0.
      -3.21771040e-05 0. 0. -6.93889390e-18 6.43542080e-05 0. 0.
      3.21771040e-05 -3.21771040e-05 3.21771040e-05 0. 3.21771040e-05 0.
      0. 0. 0. -3.21771040e-05 0. -6.93889390e-18 0. 3.21771040e-05 0.
      0. 0. 0. 0. 0. -3.21771040e-05 -9.65313084e-05 3.21771040e-05
      3.21771040e-05 0. 0. 0. -3.21771040e-05 0. -3.21771040e-05 0. 0.
      0. 0. 0. 0. 0. -6.93889390e-18 0. -3.21771040e-05 3.21771040e-05
      -3.21771040e-05 0. -3.21771040e-05 3.21771040e-05 0. 0. 0. 0.
      6.43542080e-05 0. 0. -3.21771040e-05 0. 0. 0. 0. 0. 0. 0. 0. 0. 0.
      0. 0. 0. 0. 0. 0. 0. 0. 0. 0. 0. 0. -3.21771040e-05
      -6.93889390e-18 -3.21771040e-05 3.21771040e-05 0. 0. 0.
      -6.43542080e-05 0. 3.21771040e-05 0. -6.43542080e-05 0. 0. 0. 0.
      0. 0. -6.43542080e-05 0. 0. -3.21771040e-05 0. 0. -6.93889390e-18
      0. 9.65313084e-05 3.21771040e-05 -6.93889390e-18 3.21771040e-05
      9.65313084e-05 0. 3.21771040e-05 -3.21771040e-05 3.21771040e-05 0.
      0. 0. -3.21771040e-05 0. 0. -3.21771040e-05 0. -3.21771040e-05
      -6.43542080e-05 3.21771040e-05 -3.21771040e-05 0. 6.43542080e-05
      3.21771040e-05 9.65313084e-05 -9.65313084e-05 0. -6.43542080e-05
      -6.93889390e-18 0. 0. -1.38777878e-17 -6.93889390e-18 0.
      -3.21771040e-05 0. 9.65313084e-05 -3.21771040e-05 -6.93889390e-18
      -6.93889390e-18 -3.21771040e-05 3.21771040e-05 0. -9.65313084e-05
      -1.60885509e-04 -6.43542080e-05 -1.38777878e-17 7.07896252e-04
      6.43542080e-05 -3.21771040e-05 -3.21771040e-05 -3.21771040e-05
      -6.43542080e-05 3.21771040e-05 -3.21771040e-05 0. -9.65313084e-05
      3.21771040e-05 3.21771040e-05 -6.43542080e-05 0. 0.
      -6.43542080e-05 0. -6.43542080e-05 6.43542080e-05 0.
      -6.43542080e-05 -6.43542080e-05 0. 3.21771040e-05 3.21771040e-05
      0. 0. 0. 0. 0. 0. 0. -3.21771040e-05 -3.21771040e-05
      3.21771040e-05 0. 0. -3.21771040e-05 0. -6.43542080e-05
      3.21771040e-05 3.21771040e-05 -3.21771040e-05 0. -9.65313084e-05
      0. 0. 0. -1.38777878e-17 0. 0. 0. 0. 0. -3.21771040e-05 0. 0.
      -3.21771040e-05 0. 0. 3.21771040e-05 0. 3.21771040e-05 0.
      -9.65313084e-05 -1.38777878e-17 0. 3.21771040e-05 0.
      3.21771040e-05 0. 0. 3.21771040e-05 -6.93889390e-18
      -3.21771040e-05 0. 0. 0. 0. 0. 0. 0. 0. 0. 0. -6.43542080e-05 0.
      0. 0. 0. 0. 3.21771040e-05 0. 0. 0. 0. 0. 6.43542080e-05 0. 0.
      -3.21771040e-05 0. 0. 0. -3.21771040e-05 3.21771040e-05
      9.65313084e-05 0. 0. 0. 3.21771040e-05 0. -9.65313084e-05
      -3.21771040e-05 -3.21771040e-05 -3.21771040e-05 0. 0. 0. 0.
      -3.21771040e-05 3.21771040e-05 0. 0. -3.21771040e-05 0. 0.
      6.43542080e-05 0. 6.43542080e-05 3.21771040e-05 -3.21771040e-05 0.
      0. 0. -6.93889390e-18 0. 3.21771040e-05 -6.93889390e-18 0.
      -6.43542080e-05 0. 0. 0. -3.21771040e-05 0. 0. 0. 3.21771040e-05
      -3.21771040e-05 0. 2.25239724e-04 3.21771040e-05 0.
      -3.21771040e-05 0. 0. -3.21771040e-05 0. 3.21771040e-05
      -9.65313084e-05 3.21771040e-05 0. 0. 0. 0. 0. 0. 0.
      -6.93889390e-18 0. 0. 0. 0. 0. 0. 3.21771040e-05 0.
      -3.21771040e-05 0. 0. 0. 0. -3.21771040e-05 3.21771040e-05 0. 0.
      0. 0. -3.21771040e-05 0. 0. -3.21771040e-05 -3.21771040e-05
      3.21771040e-05 0. 0. 0. 0. 0. 0. 0. 3.21771040e-05 0.
      3.21771040e-05 0. 0. 0. 3.21771040e-05 -3.21771040e-05
      -3.21771040e-05 0. -3.21771040e-05 -3.21771040e-05 0.
      3.21771040e-05 -6.93889390e-18 3.21771040e-05 -3.21771040e-05
      3.21771040e-05 -3.21771040e-05 0. 0. 0. -3.21771040e-05
      6.43542080e-05 0. 0. 0. 0. 0. 0. -6.93889390e-18 3.21771040e-05
      9.65313084e-05 0. -1.38777878e-17 6.43542080e-05 -6.93889390e-18
      0. -1.60885509e-04 3.21771040e-05 3.21771040e-05 -6.93889390e-18
      0. 3.21771040e-05 0. -3.21771040e-05 -9.65313084e-05
      -6.93889390e-18 -3.21771040e-05 3.21771040e-05 3.21771040e-05
      -6.93889390e-18 -6.43542080e-05 -3.21771040e-05 5.14833664e-04
      6.43542080e-05 -3.21771040e-05 3.21771040e-05 -3.21771040e-05 0.
      0. -3.21771040e-05 -3.21771040e-05 1.93062617e-04 -6.93889390e-18
      0. 0. 0. 3.21771040e-05 0. -3.21771040e-05 -9.65313084e-05 0. 0.
      -6.43542080e-05 -3.21771040e-05 3.21771040e-05 -1.60885509e-04 0.
      0. 0. 0. 0. 6.43542080e-05 0. 0. 3.21771040e-05 0. 0. 0. 0. 0. 0.
      0. 0. 0. 6.43542080e-05 0. 6.43542080e-05 -3.21771040e-05 0. 0.
      3.21771040e-05 6.43542080e-05 0. 0. 0. 0. 0. 0. -6.43542080e-05
      3.21771040e-05 0. 0. 3.21771040e-05 0. 0. 0. -3.21771040e-05
      -3.21771040e-05 -3.21771040e-05 0. 0. -3.21771040e-05 0.
      3.21771040e-05 -3.21771040e-05 -6.93889390e-18 -6.93889390e-18 0.
      3.21771040e-05 0. 0. 0. 3.21771040e-05 0. 0. 0. 0. 0. 0.
      -3.21771040e-05 0. 0. 0. 0. 0. 0. 0. 0. 0. -3.21771040e-05 0. 0.
      3.21771040e-05 0. 0. 0. 0. -6.93889390e-18 -3.21771040e-05 0.
      3.21771040e-05 -3.21771040e-05 0. 3.21771040e-05 -6.93889390e-18
      0. 0. 0. 0. 0. 0. 0. -3.21771040e-05 0. 3.21771040e-05 0. 0. 0. 0.
      0. -3.21771040e-05 0. 0. -3.21771040e-05 -3.21771040e-05 0. 0.
      3.21771040e-05 0. -3.21771040e-05 3.21771040e-05 0. 0.
      3.21771040e-05 0. 0. 0. -6.43542080e-05 0. 0. 0. -3.21771040e-05
      0. -6.43542080e-05 -3.21771040e-05 3.21771040e-05 0. 0.
      -3.21771040e-05 -3.21771040e-05 0. -3.21771040e-05 -6.43542080e-05
      0. 0. 0. 0. 0. 0. 0. 0. 0. 0. 0. 0. 0. 0. 0. 0. 0. 0. 0. 0. 0. 0.
      0. 0. 0. 0. 0. -3.21771040e-05 0. 0. -6.43542080e-05
      -1.60885509e-04 6.43542080e-05 3.21771040e-05 -3.21771040e-05
      -3.21771040e-05 0. 0. 3.21771040e-05 -6.93889390e-18
      -3.21771040e-05 -3.21771040e-05 0. 0. 0. 0. 0. 0. -3.21771040e-05
      0. 0. 0. 3.21771040e-05 0. 3.21771040e-05 -3.21771040e-05
      3.21771040e-05 0. 0. 0. 3.21771040e-05 0. 0. 0. 3.21771040e-05
      3.21771040e-05 0. 3.21771040e-05 0. 0. -6.43542080e-05
      -3.21771040e-05 -6.43542080e-05 -3.21771040e-05 0. -1.38777878e-17
      -6.93889390e-18 -3.21771040e-05 -3.21771040e-05 6.43542080e-05
      -6.93889390e-18 6.43542080e-05 6.43542080e-05 3.21771040e-05
      -9.65313084e-05 0. -6.43542080e-05 3.21771040e-05 -3.21771040e-05
      -6.43542080e-05 3.21771040e-05 3.21771040e-05 0. -6.93889390e-18
      -6.93889390e-18 6.11364958e-04 3.21771040e-05 -3.21771040e-05
      6.43542080e-05 3.21771040e-05 -3.21771040e-05 -6.43542080e-05
      -9.65313084e-05 -3.21771040e-05 1.28708416e-04 -6.93889390e-18
      -3.21771040e-05 -6.43542080e-05 -6.93889390e-18 0. -3.21771040e-05
      0. -3.21771040e-05 -6.43542080e-05 -3.21771040e-05 0.
      -6.93889390e-18 -3.21771040e-05 3.21771040e-05 3.21771040e-05 0.
      3.21771040e-05 0. 0. 6.43542080e-05 0. 3.21771040e-05
      -3.21771040e-05 0. 0. 0. 0. 0. 0. -3.21771040e-05 0.
      6.43542080e-05 0. 0. -3.21771040e-05 0. 0. -3.21771040e-05
      -9.65313084e-05 -6.43542080e-05 0. 0. 0. 0. 0. 0. 3.21771040e-05
      0. 0. 0. 0. 0. 0. 3.21771040e-05 -1.28708416e-04 -6.93889390e-18
      -3.21771040e-05 0. -3.21771040e-05 -3.21771040e-05 0. 0. 0. 0. 0.
      0. -3.21771040e-05 0. 0. 0. -6.93889390e-18 -3.21771040e-05 0. 0.
      0. 3.21771040e-05 0. 0. 0. -3.21771040e-05 0. 0. 0. 0. 0. 0.
      3.21771040e-05 -6.93889390e-18 0. 0. 3.21771040e-05 0. 0. 0. 0.
      6.43542080e-05 -6.93889390e-18 0. 0. 0. 0. 0. 9.65313084e-05 0. 0.
      0. 0. 0. 0. 0. 6.43542080e-05 0. 3.21771040e-05 0. 0. 0.
      -3.21771040e-05 -3.21771040e-05 -3.21771040e-05 6.43542080e-05 0.
      0. 0. 0. 0. 3.21771040e-05 0. 0. -3.21771040e-05 0. 0. 0. 0.
      -6.93889390e-18 6.43542080e-05 -6.93889390e-18 0. 3.21771040e-05
      -3.21771040e-05 -6.93889390e-18 -3.21771040e-05 -6.93889390e-18
      -3.21771040e-05 3.21771040e-05 0. 0. -3.21771040e-05 0. 0.
      -6.43542080e-05 0. 0. 0. 0. 0. 0. 0. 0. 0. 0. 3.21771040e-05 0. 0.
      0. 0. 0. 0. 0. 3.21771040e-05 0. 0. 0. 0. -3.21771040e-05 0. 0. 0.
      -3.21771040e-05 0. -3.21771040e-05 0. 0. -6.93889390e-18
      3.21771040e-05 -3.21771040e-05 -3.21771040e-05 0. 0. 0.
      -3.21771040e-05 0. 0. 3.21771040e-05 0. 3.21771040e-05
      -3.21771040e-05 0. 0. 0. -6.93889390e-18 0. 0. -3.21771040e-05
      3.21771040e-05 0. 0. -6.43542080e-05 -3.21771040e-05 0. 0. 0. 0.
      -3.21771040e-05 3.21771040e-05 3.21771040e-05 3.21771040e-05 0.
      -3.21771040e-05 -3.21771040e-05 -6.93889390e-18 3.21771040e-05 0.
      0. 6.43542080e-05 3.21771040e-05 0. -3.21771040e-05 3.21771040e-05
      -6.43542080e-05 -3.21771040e-05 -3.21771040e-05 -9.65313084e-05 0.
      0. 0. -6.43542080e-05 -3.21771040e-05 0. -3.21771040e-05
      -6.93889390e-18 -6.93889390e-18 -3.21771040e-05 0. -6.43542080e-05
      -1.28708416e-04 -6.93889390e-18 9.33135976e-04 -6.43542080e-05
      -6.93889390e-18 3.21771040e-05 -3.21771040e-05 3.21771040e-05 0.
      0. 0. 3.21771040e-05 -6.93889390e-18 6.43542080e-05 3.21771040e-05
      -3.21771040e-05 -3.21771040e-05 0. -6.43542080e-05 3.21771040e-05
      -6.43542080e-05 0. -3.21771040e-05 6.43542080e-05 -6.43542080e-05
      -3.21771040e-05 -6.43542080e-05 3.21771040e-05 3.21771040e-05 0.
      0. 3.21771040e-05 3.21771040e-05 -3.21771040e-05 -3.21771040e-05
      3.21771040e-05 0. 0. -3.21771040e-05 0. 0. -3.21771040e-05 0.
      -6.93889390e-18 -3.21771040e-05 3.21771040e-05 0. 3.21771040e-05
      -3.21771040e-05 -3.21771040e-05 -9.65313084e-05 3.21771040e-05 0.
      0. 0. -3.21771040e-05 0. 3.21771040e-05 -3.21771040e-05 0. 0. 0.
      3.21771040e-05 3.21771040e-05 0. -3.21771040e-05 -6.43542080e-05
      -9.65313084e-05 0. -3.21771040e-05 -6.43542080e-05 3.21771040e-05
      0. 0. 0. 0. 3.21771040e-05 0. 0. 0. 0. 0. 0. -3.21771040e-05 0. 0.
      0. 0. 0. 0. -3.21771040e-05 0. 3.21771040e-05 0. 0. 0. 0. 0. 0. 0.
      3.21771040e-05 0. 3.21771040e-05 0. 0. -3.21771040e-05 0.
      3.21771040e-05 -1.38777878e-17 0. 3.21771040e-05 0.
      -6.93889390e-18 0. -6.43542080e-05 0. 0. 0. 0. 0. 0. 0. 0. 0.
      3.21771040e-05 -3.21771040e-05 0. 0. 3.21771040e-05 0.
      3.21771040e-05 3.21771040e-05 0. 0. 6.43542080e-05 0. 0. 0.
      -3.21771040e-05 0. -3.21771040e-05 3.21771040e-05 0.
      3.21771040e-05 0. 0. 3.21771040e-05 0. -3.21771040e-05 0. 0. 0. 0.
      0. -3.21771040e-05 0. 0. 0. 0. 0. -6.43542080e-05 0.
      -6.43542080e-05 0. 0. 0. 0. 3.21771040e-05 0. 0. 0. 0.
      3.21771040e-05 0. 0. 0. 0. 0. 0. 0. -3.21771040e-05 0. 0.
      3.21771040e-05 0. 0. 0. 0. 0. 0. 0. -3.21771040e-05
      -3.21771040e-05 -3.21771040e-05 -9.65313084e-05 3.21771040e-05 0.
      0. 0. 0. 0. -6.93889390e-18 6.43542080e-05 0. -3.21771040e-05 0.
      0. 3.21771040e-05 0. 0. -6.43542080e-05 -6.93889390e-18 0. 0. 0.
      9.65313084e-05 0. -6.93889390e-18 1.28708416e-04 -3.21771040e-05
      0. 0. 3.21771040e-05 0. 0. 0. -9.65313084e-05 -1.28708416e-04
      3.21771040e-05 0. -3.21771040e-05 0. 3.21771040e-05 0.
      6.43542080e-05 -1.38777878e-17 6.43542080e-05 -6.93889390e-18 0.
      0. -6.93889390e-18 -3.21771040e-05 -3.21771040e-05 3.21771040e-05
      -3.21771040e-05 0. -3.21771040e-05 0. -3.21771040e-05
      -6.43542080e-05 -6.93889390e-18 -6.93889390e-18 -3.21771040e-05 0.
      3.21771040e-05 -3.21771040e-05 6.43542080e-05 -1.38777878e-17
      5.47010743e-04 2.57416832e-04 -9.65313084e-05 0. -6.43542080e-05
      3.21771040e-05 3.21771040e-05 0. 0. -3.21771040e-05
      -6.93889390e-18 0. 3.21771040e-05 3.21771040e-05 0. 0.
      9.65313084e-05 -6.93889390e-18 0. 0. -6.93889390e-18
      -6.93889390e-18 0. -1.38777878e-17 -9.65313084e-05 3.21771040e-05
      6.43542080e-05 0. 0. -3.21771040e-05 0. 0. 3.21771040e-05 0. 0. 0.
      0. 0. 0. -3.21771040e-05 0. -6.93889390e-18 3.21771040e-05
      -3.21771040e-05 0. 0. 0. 0. 3.21771040e-05 -6.93889390e-18 0. 0.
      0. 0. 0. -6.43542080e-05 0. 0. -3.21771040e-05 0. 0. 0.
      -3.21771040e-05 -3.21771040e-05 -6.43542080e-05 -3.21771040e-05
      -6.43542080e-05 3.21771040e-05 3.21771040e-05 -3.21771040e-05 0.
      0. -3.21771040e-05 -3.21771040e-05 -6.43542080e-05 0. 0. 0. 0. 0.
      -3.21771040e-05 0. 0. 0. 0. 3.21771040e-05 0. 0. 0. 0.
      3.21771040e-05 0. 0. 0. 0. 3.21771040e-05 3.21771040e-05
      3.21771040e-05 0. 0. 0. 0. 0. -6.43542080e-05 0. -1.38777878e-17
      -1.28708416e-04 0. -3.21771040e-05 -3.21771040e-05 -3.21771040e-05
      0. -3.21771040e-05 -3.21771040e-05 0. 3.21771040e-05 0. 0. 0. 0.
      3.21771040e-05 3.21771040e-05 0. 0. 0. -3.21771040e-05
      -3.21771040e-05 0. -3.21771040e-05 -6.93889390e-18 0.
      -3.21771040e-05 3.21771040e-05 0. 0. 0. -3.21771040e-05
      3.21771040e-05 0. 0. -3.21771040e-05 0. 0. 0. 0. -3.21771040e-05
      0. -9.65313084e-05 -3.21771040e-05 0. 0. -1.28708416e-04
      -1.38777878e-17 -6.93889390e-18 0. -6.93889390e-18 -3.21771040e-05
      -3.21771040e-05 0. 0. 6.43542080e-05 0. 0. 0. 0. 0. 0.
      3.21771040e-05 0. 3.21771040e-05 0. 0. 0. 0. 0. 0. -3.21771040e-05
      0. 0. 0. 0. 0. 0. -3.21771040e-05 -6.43542080e-05 0. 0. 0. 0. 0.
      0. 0. -3.21771040e-05 -3.21771040e-05 0. 0. 0. 0. 0. 0. 0. 0.
      6.43542080e-05 0. 0. 0. 0. 0. -3.21771040e-05 0. 6.43542080e-05 0.
      0. -3.21771040e-05 -6.43542080e-05 0. 0. 0. 0. -3.21771040e-05 0.
      0. -3.21771040e-05 0. -6.43542080e-05 6.43542080e-05
      -3.21771040e-05 -3.21771040e-05 0. 0. 0. 3.21771040e-05 0.
      9.65313084e-05 -9.65313084e-05 0. 3.21771040e-05 6.43542080e-05
      3.21771040e-05 0. -6.43542080e-05 3.21771040e-05 0. 0.
      3.21771040e-05 0. 0. -9.65313084e-05 -3.21771040e-05
      3.21771040e-05 -3.21771040e-05 0. 6.43542080e-05 -3.21771040e-05
      -1.60885509e-04 -6.43542080e-05 1.09402149e-03 1.60885509e-04
      6.43542080e-05 3.21771040e-05 -3.21771040e-05 -6.93889390e-18
      -3.21771040e-05 -3.21771040e-05 3.21771040e-05 -3.21771040e-05
      -6.93889390e-18 0. -1.38777878e-17 0. 3.21771040e-05
      -3.21771040e-05 -3.21771040e-05 3.21771040e-05 3.21771040e-05
      -3.21771040e-05 3.21771040e-05 3.21771040e-05 0. -6.93889390e-18
      -3.21771040e-05 -3.21771040e-05 0. 0. 0. 3.21771040e-05
      3.21771040e-05 0. 0. 6.43542080e-05 -6.93889390e-18 0.
      3.21771040e-05 0. 0. 0. 0. -6.93889390e-18 -6.43542080e-05
      3.21771040e-05 6.43542080e-05 3.21771040e-05 0. 3.21771040e-05 0.
      6.43542080e-05 0. 0. 0. 0. 0. -3.21771040e-05 -3.21771040e-05 0.
      -3.21771040e-05 0. -3.21771040e-05 -3.21771040e-05 0.
      -6.43542080e-05 -3.21771040e-05 -1.38777878e-17 -6.43542080e-05 0.
      0. 0. 0. 0. 0. 3.21771040e-05 0. 0. -6.93889390e-18 3.21771040e-05
      0. 0. -3.21771040e-05 3.21771040e-05 0. 0. 0. -3.21771040e-05 0.
      0. 0. 0. 0. -3.21771040e-05 0. 0. 0. 0. 0. -1.28708416e-04 0.
      3.21771040e-05 3.21771040e-05 0. 0. -3.21771040e-05 0.
      -1.38777878e-17 -6.43542080e-05 3.21771040e-05 -3.21771040e-05
      -3.21771040e-05 -6.43542080e-05 -3.21771040e-05 -3.21771040e-05
      3.21771040e-05 3.21771040e-05 0. 0. 0. 3.21771040e-05 0. 0. 0.
      3.21771040e-05 -3.21771040e-05 0. 0. 6.43542080e-05 0.
      3.21771040e-05 -3.21771040e-05 0. 0. 0. 3.21771040e-05 0.
      -3.21771040e-05 0. 0. -3.21771040e-05 0. 3.21771040e-05
      6.43542080e-05 0. 0. 0. 0. 0. -3.21771040e-05 -3.21771040e-05
      -9.65313084e-05 -3.21771040e-05 -6.43542080e-05 -6.93889390e-18 0.
      0. 0. 0. 0. 0. 0. 0. -3.21771040e-05 0. 0. 0. 0. 0. 0. 0. 0. 0. 0.
      0. 3.21771040e-05 0. 0. -6.93889390e-18 -3.21771040e-05
      -3.21771040e-05 0. 0. 0. 0. 0. 0. 0. 3.21771040e-05 0. 0. 0.
      -3.21771040e-05 0. -6.43542080e-05 -3.21771040e-05 -3.21771040e-05
      -3.21771040e-05 0. 0. 0. 0. -3.21771040e-05 0. 0. 3.21771040e-05
      -3.21771040e-05 0. 3.21771040e-05 0. 0. 3.21771040e-05
      3.21771040e-05 0. 0. 0. 0. 0. -3.21771040e-05 3.21771040e-05 0.
      3.21771040e-05 0. -3.21771040e-05 0. 9.65313084e-05
      -3.21771040e-05 0. 0. 0. 0. 0. 0. 0. 0. -1.38777878e-17
      -6.93889390e-18 3.21771040e-05 0. -3.21771040e-05 0. 0.
      -3.21771040e-05 -3.21771040e-05 -3.21771040e-05 -3.21771040e-05
      3.21771040e-05 -6.93889390e-18 0. -6.93889390e-18 -6.93889390e-18
      -6.43542080e-05 -3.21771040e-05 0. -3.21771040e-05 -6.93889390e-18
      -3.21771040e-05 -6.43542080e-05 6.11364958e-04 -3.21771018e-04
      3.21771040e-05 0. -3.21771040e-05 1.28708416e-04 0. 0. 0.
      -6.43542080e-05 0. 0. 6.43542080e-05 -3.21771040e-05 0.
      -3.21771040e-05 1.60885509e-04 3.21771040e-05 0. -3.21771040e-05
      -6.93889390e-18 9.65313084e-05 0. -6.93889390e-18 -1.28708416e-04
      -3.21771040e-05 0. 0. 0. -3.21771040e-05 0. 0. -3.21771040e-05
      3.21771040e-05 0. 6.43542080e-05 0. 0. 0. 3.21771040e-05 0.
      -1.38777878e-17 -6.93889390e-18 0. -3.21771040e-05 0. 0.
      -6.43542080e-05 -6.93889390e-18 -3.21771040e-05 0. 0. 0.
      3.21771040e-05 0. 0. -6.93889390e-18 -3.21771040e-05
      3.21771040e-05 0. 3.21771040e-05 0. 0. 0. -3.21771040e-05
      -6.93889390e-18 0. 0. 0. 0. 0. 0. -3.21771040e-05 0.
      -6.93889390e-18 0. -3.21771040e-05 0. 0. 0. 0. -3.21771040e-05 0.
      0. 0. 0. 0. 0. 3.21771040e-05 0. -3.21771040e-05 0. 0. 0. 0. 0.
      3.21771040e-05 0. 0. -3.21771040e-05 -3.21771040e-05
      -3.21771040e-05 -6.93889390e-18 0. 0. 3.21771040e-05 0. 0.
      -3.21771040e-05 3.21771040e-05 0. -3.21771040e-05 -3.21771040e-05
      0. 0. 0. 0. 0. 3.21771040e-05 0. 0. 0. -3.21771040e-05 0.
      3.21771040e-05 3.21771040e-05 0. -3.21771040e-05 -6.93889390e-18
      -6.93889390e-18 3.21771040e-05 0. 0. -3.21771040e-05 0. 0. 0.
      -3.21771040e-05 -6.43542080e-05 3.21771040e-05 0. 0. 0. 0. 0.
      -3.21771040e-05 -6.93889390e-18 3.21771040e-05 0. 0. 0.
      -3.21771040e-05 3.21771040e-05 6.43542080e-05 0. 0. 0.
      -6.43542080e-05 0. 0. -3.21771040e-05 0. 0. 0. 0. 0. 0. 0. 0.
      3.21771040e-05 0. 0. -3.21771040e-05 0. 0. 0. 3.21771040e-05 0. 0.
      0. 0. 0. 0. 0. 0. 0. 0. 0. 0. 0. 0. 0. -6.43542080e-05
      -3.21771040e-05 0. -3.21771040e-05 0. 0. 0. 0. 0. 3.21771040e-05
      0. 0. 0. -3.21771040e-05 0. 0. 0. 1.28708416e-04 -6.93889390e-18
      0. 0. 0. 0. -3.21771040e-05 -3.21771040e-05 3.21771040e-05
      -3.21771040e-05 0. 3.21771040e-05 0. 0. 0. 0. 0. 0.
      -3.21771040e-05 0. 0. 0. -3.21771040e-05 -9.65313084e-05
      6.43542080e-05 3.21771040e-05 0. 3.21771040e-05 0. -9.65313084e-05
      0. -1.28708416e-04 -6.93889390e-18 0. 0. 0. -1.93062617e-04
      -6.43542080e-05 3.21771040e-05 3.21771040e-05 -6.43542080e-05
      -3.21771040e-05 0. -6.43542080e-05 3.21771040e-05 -6.43542080e-05
      -1.38777878e-17 1.09402149e-03 2.25239724e-04 -6.43542080e-05
      -6.43542080e-05 -6.93889390e-18 -6.93889390e-18 0. -6.43542080e-05
      -6.93889390e-18 9.65313084e-05 3.21771040e-05 3.21771040e-05
      3.21771040e-05 0. -3.21771040e-05 0. -6.93889390e-18
      -6.43542080e-05 0. -6.93889390e-18 0. -3.21771040e-05 0.
      3.21771040e-05 -3.21771040e-05 0. 3.21771040e-05 0. 0.
      3.21771040e-05 -3.21771040e-05 -3.21771040e-05 -6.93889390e-18
      -6.93889390e-18 0. 0. 0. 0. 0. 0. 0. -3.21771040e-05
      -6.43542080e-05 0. -3.21771040e-05 -6.93889390e-18 0. 0.
      1.28708416e-04 3.21771040e-05 0. 0. 0. 0. 0. 3.21771040e-05 0. 0.
      0. 0. 0. 0. -6.93889390e-18 0. -6.43542080e-05 6.43542080e-05 0.
      -3.21771040e-05 3.21771040e-05 0. 3.21771040e-05 3.21771040e-05
      -3.21771040e-05 -3.21771040e-05 -9.65313084e-05 0. -3.21771040e-05
      0. 0. 0. 0. 3.21771040e-05 0. 0. 0. 0. 0. 0. 0. 0. 3.21771040e-05
      0. 0. 0. 0. 0. 0. 3.21771040e-05 -3.21771040e-05 0. 0. 0. 0. 0. 0.
      -6.93889390e-18 -6.43542080e-05 0. 3.21771040e-05 -3.21771040e-05
      0. -3.21771040e-05 3.21771040e-05 3.21771040e-05 0. 0. 0.
      3.21771040e-05 0. -3.21771040e-05 0. 0. 0. 0. 0. 0. 0. 0.
      -6.43542080e-05 0. 3.21771040e-05 3.21771040e-05 -3.21771040e-05
      0. 0. -3.21771040e-05 0. 0. 0. 0. 0. -3.21771040e-05 0. 0.
      -3.21771040e-05 -6.93889390e-18 0. -3.21771040e-05 3.21771040e-05
      0. 0. -6.43542080e-05 -3.21771040e-05 0. 0. 0. 0. 0. 0.
      3.21771040e-05 -6.93889390e-18 0. 0. 0. 0. 0. 0. 0. 0. 0. 0. 0. 0.
      0. 0. 0. 3.21771040e-05 0. 0. 0. 0. -3.21771040e-05 0.
      3.21771040e-05 3.21771040e-05 0. 3.21771040e-05 0. -3.21771040e-05
      0. 3.21771040e-05 0. 3.21771040e-05 -6.43542080e-05 3.21771040e-05
      0. 0. 0. 0. 0. -3.21771040e-05 -3.21771040e-05 0. 0. 0. 0. 0.
      3.21771040e-05 0. -6.93889390e-18 0. 0. 3.21771040e-05
      -6.93889390e-18 -3.21771040e-05 -3.21771040e-05 -6.43542080e-05 0.
      0. 0. 0. 0. 0. 0. -3.21771040e-05 3.21771040e-05 0. 0. 0.
      -3.21771040e-05 0. 0. 3.21771040e-05 9.65313084e-05
      -3.21771040e-05 0. 3.21771040e-05 0. -6.43542080e-05
      3.21771040e-05 -6.93889390e-18 1.28708416e-04 -3.21771040e-05
      -3.21771040e-05 0. -3.21771040e-05 0. 0. -3.21771040e-05
      3.21771040e-05 -3.21771040e-05 3.21771040e-05 3.21771040e-05
      -6.43542080e-05 0. 3.21771040e-05 6.43542080e-05 6.43542080e-05
      -3.21771040e-05 -6.93889390e-18 -6.43542080e-05 0. -3.21771040e-05
      -6.93889390e-18 -3.21771040e-05 -6.43542080e-05 3.21771040e-05 0.
      3.21771040e-05 0. 0. 0. -3.21771040e-05 0. 0. 6.43542080e-05
      -3.21771040e-05 -6.43542080e-05 -3.21771040e-05 6.43542080e-05
      6.43542080e-05 -3.21771040e-05 0. 0. 0. 0. -3.21771040e-05
      -3.21771040e-05 -3.21771040e-05 -6.93889390e-18 0. 0. 0. 0. 0. 0.
      0. -3.21771040e-05 -6.43542080e-05 0. 0. 0. 0. 3.21771040e-05
      3.21771040e-05 0. 3.21771040e-05 0. 0. 3.21771040e-05 0.
      -3.21771040e-05 0. 9.65313084e-05 -3.21771040e-05 0. 0. 0. 0.
      3.21771040e-05 -1.38777878e-17 -6.43542080e-05 -6.93889390e-18 0.
      0. 0. 0. -3.21771040e-05 -6.43542080e-05 6.43542080e-05 0. 0. 0.
      0. 0. 0. 0. 0. 0. 0. 3.21771040e-05 0. 0. 0. 0. 0. -3.21771040e-05
      0. 0. 0. 0. 0. 0. -6.93889390e-18 0. 0. 3.21771040e-05 0. 0. 0.
      -3.21771040e-05 6.43542080e-05 -1.38777878e-17 0. -6.43542080e-05
      6.43542080e-05 -6.93889390e-18 0. 3.21771040e-05 3.21771040e-05 0.
      0. 0. 3.21771040e-05 0. 3.21771040e-05 0. 0. 0. 0. 0. 0. 0. 0.
      -3.21771040e-05 9.65313084e-05 6.43542080e-05 0. -3.21771040e-05
      0. 0. 0. 0. 0. 3.21771040e-05 0. 0. 0. 0. 0. 6.43542080e-05 0. 0.
      -3.21771040e-05 0. 0. 0. -9.65313084e-05 3.21771040e-05
      -3.21771040e-05 -6.93889390e-18 0. 3.21771040e-05 0. 0.
      -3.21771040e-05 -6.93889390e-18 0. 0. 0. 0. 0. 0. 0. 0.
      3.21771040e-05 0. 0. 0. 0. 0. 0. 0. 0. 0. 0. -3.21771040e-05 0. 0.
      -6.93889390e-18 -3.21771040e-05 0. -3.21771040e-05 0. 0. 0. 0.
      3.21771040e-05 3.21771040e-05 9.65313084e-05 0. 3.21771040e-05 0.
      0. 0. 0. 0. 9.65313084e-05 0. 0. 0. 0. 0. 0. 0. -6.93889390e-18 0.
      0. 3.21771040e-05 0. 0. -3.21771040e-05 -3.21771040e-05
      -3.21771040e-05 0. 0. 0. -6.93889390e-18 0. 0. 3.21771040e-05
      -1.28708416e-04 -6.93889390e-18 0. 0. 0. 0. 0. 0. 6.43542080e-05
      -2.77555756e-17 3.21771040e-05 -6.93889390e-18 6.43542080e-05
      3.21771040e-05 -3.21771040e-05 -3.21771040e-05 -3.21771040e-05 0.
      0. -3.21771040e-05 -3.21771040e-05 0. -3.21771040e-05 0.
      -9.65313084e-05 -9.65313084e-05 0. 3.21771040e-05 0.
      -3.21771040e-05 -6.93889390e-18 6.43542080e-05 6.43542080e-05
      -3.21771040e-05 -6.93889390e-18 3.21771040e-05 3.21771040e-05 0.
      0. -3.21771040e-05 -9.65313084e-05 3.21771040e-05 -3.21771040e-05
      -6.43542080e-05 0. 0. -3.21771040e-05 -3.21771040e-05
      3.21771040e-05 6.43542080e-05 0. -6.93889390e-18 3.21771040e-05
      3.21771040e-05 0. 3.21771040e-05 -6.93889390e-18 0. 3.21771040e-05
      0. -3.21771040e-05 0. 3.21771040e-05 -3.21771040e-05
      -3.21771040e-05 0. -6.93889390e-18 0. 6.43542080e-05 0. 0.
      -3.21771040e-05 -3.21771040e-05 -6.93889390e-18 3.21771040e-05
      3.21771040e-05 0. -6.93889390e-18 0. -9.65313084e-05
      -6.43542080e-05 -3.21771040e-05 0. 0. 0. 0. 3.21771040e-05
      3.21771040e-05 0. 0. 0. -3.21771040e-05 3.21771040e-05 0.
      3.21771040e-05 -6.43542080e-05 0. 0. 0. 0. -3.21771040e-05 0. 0.
      0. 0. -3.21771040e-05 0. 0. 0. 0. 0. -3.21771040e-05
      6.43542080e-05 0. 0. 0. 0. -3.21771040e-05 0. 0. 0. 0. 0. 0.
      -3.21771040e-05 0. 0. 3.21771040e-05 -3.21771040e-05
      3.21771040e-05 0. 0. 0. 3.21771040e-05 0. 0. -1.38777878e-17
      -3.21771040e-05 -3.21771040e-05 -6.43542080e-05 0. 0. 0.
      6.43542080e-05 0. 0. -3.21771040e-05 0. 0. 0. 0. 3.21771040e-05 0.
      -3.21771040e-05 0. -3.21771040e-05 0. 0. 0. -6.93889390e-18
      -3.21771040e-05 0. 3.21771040e-05 3.21771040e-05 0. 0. 0. 0.
      -3.21771040e-05 -6.93889390e-18 0. 0. 0. 0. 0. -3.21771040e-05
      1.28708416e-04 0. 0. 3.21771040e-05 0. 0. 0. 6.43542080e-05
      6.43542080e-05 0. 0. 0. 0. 0. -3.21771040e-05 3.21771040e-05 0. 0.
      0. 0. 0. 0. 0. 0. 0. 0. 0. 0. 0. 0. 0. -3.21771040e-05 0. 0. 0.
      -3.21771040e-05 0. 0. 0. 0. 3.21771040e-05 0. 0. 0. 0. 0. 0.
      3.21771040e-05 0. -3.21771040e-05 0. 0. 0. 0. 0. 0. 0. 0. 0. 0. 0.
      0. 0. -3.21771040e-05 3.21771040e-05 0. 6.43542080e-05 0.
      3.21771040e-05 0. 6.43542080e-05 -3.21771040e-05 0. 0. 0.
      -3.21771040e-05 9.65313084e-05 -3.21771040e-05 0. 6.43542080e-05
      -6.43542080e-05 3.21771040e-05 -3.21771040e-05 0. 0. 0.
      3.21771040e-05 3.21771040e-05 -6.43542080e-05 -3.21771040e-05
      -3.21771040e-05 0. 3.21771040e-05 -6.43542080e-05 3.21771040e-05
      1.28708416e-04 -6.43542080e-05 -6.93889390e-18 0. -6.93889390e-18
      6.43542080e-05 3.21771040e-05 6.43542080e-05 -1.38777878e-17
      -2.25239724e-04 6.43542080e-05 0. -3.21771040e-05 -1.38777878e-17
      0. -6.93889390e-18 -9.65313084e-05 -6.43542080e-05 -1.38777878e-17
      -3.21771040e-05 -6.93889390e-18 3.21771040e-05 0. 0.
      6.43542080e-05 3.21771040e-05 3.21771040e-05 3.21771040e-05
      6.43542080e-05 3.21771040e-05 0. 3.21771040e-05 3.21771040e-05
      -1.28708416e-04 3.21771040e-05 -3.21771040e-05 3.21771040e-05
      6.43542080e-05 0. 0. 3.21771040e-05 -3.21771040e-05
      -6.93889390e-18 0. 3.21771040e-05 0. -3.21771040e-05
      3.21771040e-05 6.43542080e-05 3.21771040e-05 0. 0. 3.21771040e-05
      0. 0. 0. 0. 3.21771040e-05 -6.43542080e-05 0. -6.93889390e-18 0.
      0. 3.21771040e-05 3.21771040e-05 0. 3.21771040e-05 0. 0. 0. 0.
      -3.21771040e-05 -6.93889390e-18 -3.21771040e-05 0. 0.
      3.21771040e-05 0. 0. 0. -1.38777878e-17 -6.93889390e-18 0.
      -3.21771040e-05 0. 0. 0. 0. 0. -6.43542080e-05 0. 0. 0. 0.
      3.21771040e-05 0. 3.21771040e-05 0. 3.21771040e-05 0. 0. 0. 0. 0.
      0. 0. 0. 0. 0. 0. 0. 0. 0. 0. -3.21771040e-05 0. -3.21771040e-05
      3.21771040e-05 0. 3.21771040e-05 0. -6.43542080e-05
      -9.65313084e-05 0. 0. -3.21771040e-05 -6.43542080e-05
      -3.21771040e-05 -6.93889390e-18 0. 0. 0. 3.21771040e-05 0. 0. 0.
      -6.93889390e-18 0. 0. 0. 0. 0. -3.21771040e-05 0. 3.21771040e-05
      3.21771040e-05 0. 0. 0. 0. -3.21771040e-05 -3.21771040e-05
      6.43542080e-05 0. 3.21771040e-05 0. -3.21771040e-05 0. 0. 0.
      3.21771040e-05 -9.65313084e-05 3.21771040e-05 0. 0. 0.
      3.21771040e-05 -9.65313084e-05 3.21771040e-05 3.21771040e-05 0. 0.
      0. 0. 0. 0. 3.21771040e-05 0. 0. 0. 0. 0. 0. 0. 0. -6.43542080e-05
      3.21771040e-05 0. 0. 0. 0. 0. 0. 0. 0. 0. 0. 0. 0. -3.21771040e-05
      9.65313084e-05 0. -3.21771040e-05 0. 0. 0. 0. -6.93889390e-18
      3.21771040e-05 -6.43542080e-05 3.21771040e-05 -3.21771040e-05
      -6.43542080e-05 0. 0. 0. 0. 3.21771040e-05 3.21771040e-05 0. 0. 0.
      0. 0. -6.93889390e-18 3.21771040e-05 0. 0. 0. 3.21771040e-05 0.
      3.21771040e-05 -6.43542080e-05 0. 0. 0. 0. 3.21771040e-05 0. 0.
      3.21771040e-05 -6.43542080e-05 0. 0. -3.21771040e-05 0. 0.
      3.21771040e-05 0. -2.57416832e-04 -3.21771040e-05 3.21771040e-05
      6.43542080e-05 0. -3.21771040e-05 -3.21771040e-05 3.21771040e-05
      9.65313084e-05 0. 0. -3.21771040e-05 -6.43542080e-05
      3.21771040e-05 3.21771040e-05 6.43542080e-05 -6.43542080e-05
      -6.93889390e-18 0. -9.65313084e-05 -1.38777878e-17 3.21771040e-05
      -6.43542080e-05 9.65313084e-05 6.43542080e-05 6.43542080e-05
      -6.93889390e-18 -6.93889390e-18 9.65313084e-05 -6.93889390e-18
      -3.21771040e-05 6.43542080e-05 3.21771040e-05 -3.21771040e-05
      3.21771040e-05 -3.21771040e-05 -6.93889390e-18 3.21771040e-05 0.
      0. -3.21771040e-05 0. -6.93889390e-18 3.21771040e-05
      6.43542080e-05 -3.21771040e-05 -3.21771040e-05 2.25239724e-04
      3.21771040e-05 -6.93889390e-18 3.21771040e-05 0. 0. 0. 0.
      -6.93889390e-18 0. 0. -3.21771040e-05 0. 0. 0. 0. 0.
      -3.21771040e-05 0. 0. -3.21771040e-05 3.21771040e-05
      -6.43542080e-05 0. 6.43542080e-05 0. -6.93889390e-18 0. 0. 0. 0.
      0. 0. 0. 0. 0. 0. 0. 0. 0. 3.21771040e-05 -9.65313084e-05 0.
      3.21771040e-05 0. -3.21771040e-05 0. 3.21771040e-05 0.
      -6.43542080e-05 3.21771040e-05 0. 0. 0. 0. -3.21771040e-05 0. 0.
      3.21771040e-05 0. 0. 3.21771040e-05 0. 0. 6.43542080e-05 0. 0. 0.
      0. 3.21771040e-05 0. 0. 0. 3.21771040e-05 0. 0. 0. 0. 0. 0.
      -6.43542080e-05 0. -3.21771040e-05 0. -3.21771040e-05
      3.21771040e-05 -3.21771040e-05 0. -3.21771040e-05 -3.21771040e-05
      0. 0. 0. -3.21771040e-05 0. 0. -3.21771040e-05 0. 3.21771040e-05
      0. -6.93889390e-18 0. 0. 0. -9.65313084e-05 -1.28708416e-04 0.
      -3.21771040e-05 3.21771040e-05 -6.43542080e-05 0. 0.
      3.21771040e-05 0. 0. 0. 0. 0. 0. 0. 3.21771040e-05 3.21771040e-05
      0. -3.21771040e-05 0. -6.43542080e-05 0. -3.21771040e-05
      -9.65313084e-05 3.21771040e-05 -6.43542080e-05 0. 0. 0. 0.
      -6.93889390e-18 1.28708416e-04 0. 0. 0. 0. 0. 0. 0. 0.
      3.21771040e-05 0. 0. 0. 0. 0. 0. 0. 0. 0. -3.21771040e-05 0. 0. 0.
      -3.21771040e-05 -6.93889390e-18 0. -3.21771040e-05 0. 0.
      -3.21771040e-05 0. 0. 0. -3.21771040e-05 0. 0. 0. 3.21771040e-05
      0. 0. 0. -6.93889390e-18 0. 0. 0. 0. -6.93889390e-18
      -3.21771040e-05 0. -9.65313084e-05 0. 3.21771040e-05 0.
      -6.43542080e-05 0. -3.21771040e-05 -6.43542080e-05 0. 0. 0. 0. 0.
      0. -6.93889390e-18 6.43542080e-05 -3.21771040e-05 0. 0. 0.
      -3.21771040e-05 0. 0. 0. -3.21771040e-05 -6.93889390e-18
      -3.21771040e-05 0. 0. 0. 0. 0. -3.21771040e-05 0. 0. 0.
      3.21771040e-05 0. -6.43542080e-05 1.28708416e-04 -9.65313084e-05
      -3.21771040e-05 0. 0. -6.43542080e-05 -3.21771040e-05
      -6.93889390e-18 5.14833664e-04 -3.21771040e-05 -6.43542080e-05
      9.65313084e-05 -6.93889390e-18 6.43542080e-05 0. 6.43542080e-05 0.
      9.65313084e-05 -3.21771040e-05 0. 9.65313084e-05 -3.21771040e-05
      0. 0. -6.43542080e-05 -3.21771040e-05 3.21771040e-05 0. 0.
      6.43542080e-05 0. 3.21771040e-05 0. 0. 0. 0. -3.21771040e-05
      6.43542080e-05 0. -6.43542080e-05 -3.21771040e-05 3.21771040e-05
      0. -3.21771040e-05 0. -3.21771040e-05 0. 3.21771040e-05 0.
      3.21771040e-05 0. 0. 1.60885509e-04 3.21771040e-05 0.
      -3.21771040e-05 3.21771040e-05 0. 0. 0. 0. 0. 0. 0.
      -3.21771040e-05 0. 0. 0. 0. 3.21771040e-05 0. -3.21771040e-05
      -3.21771040e-05 -3.21771040e-05 -6.43542080e-05 0. 0.
      -6.93889390e-18 0. 3.21771040e-05 0. -3.21771040e-05
      -3.21771040e-05 0. -3.21771040e-05 0. 0. 0. -3.21771040e-05
      3.21771040e-05 0. 0. 0. 0. 0. 3.21771040e-05 0. -3.21771040e-05 0.
      0. 0. 0. 0. 0. 0. 3.21771040e-05 0. 0. -3.21771040e-05 0. 0.
      3.21771040e-05 0. -3.21771040e-05 -6.43542080e-05 3.21771040e-05
      3.21771040e-05 0. -6.43542080e-05 0. 3.21771040e-05 0. 0.
      -3.21771040e-05 0. 0. 0. 0. 0. 0. -3.21771040e-05 -3.21771040e-05
      3.21771040e-05 0. -3.21771040e-05 0. -9.65313084e-05
      -6.93889390e-18 0. 0. -6.93889390e-18 3.21771040e-05 0. 0. 0. 0.
      0. 0. 0. 0. 0. 0. 0. -3.21771040e-05 0. -3.21771040e-05 0.
      3.21771040e-05 0. -6.43542080e-05 -3.21771040e-05 0. 0. 0. 0. 0.
      0. 0. 0. 0. 0. 0. 0. 0. 0. 0. 0. 0. 0. 0. 3.21771040e-05 0. 0. 0.
      0. -3.21771040e-05 0. -6.43542080e-05 0. 0. 0. -3.21771040e-05
      -3.21771040e-05 0. 0. 0. 3.21771040e-05 0. 0. 0. -6.93889390e-18
      -3.21771040e-05 -6.43542080e-05 3.21771040e-05 0. 3.21771040e-05
      0. 0. 0. -3.21771040e-05 3.21771040e-05 0. 0. 0. 0. 0. 0.
      -3.21771040e-05 0. 0. 0. 1.28708416e-04 3.21771040e-05
      3.21771040e-05 -3.21771040e-05 0. 0. 0. 0. 0. 0. 0. 0.
      -3.21771040e-05 0. 0. 0. 0. 0. 0. 0. -1.60885509e-04
      -3.21771040e-05 3.21771040e-05 -3.21771040e-05 0. 0. 0.
      6.43542080e-05 0. 0. 0. 0. -9.65313084e-05 0. -6.43542080e-05
      -6.43542080e-05 -6.93889390e-18 -3.21771040e-05 0. 0.
      -1.60885509e-04 -3.21771040e-05 -3.21771040e-05 7.40073388e-04
      6.43542080e-05 -3.21771040e-05 3.21771040e-05 9.65313084e-05
      6.43542080e-05 0. -6.93889390e-18 -6.93889390e-18 -2.77555756e-17
      3.21771040e-05 3.21771040e-05 3.21771040e-05 -6.43542080e-05 0. 0.
      1.28708416e-04 9.65313084e-05 -6.43542080e-05 0. -6.43542080e-05
      -3.21771040e-05 0. 0. -3.21771040e-05 6.43542080e-05
      -3.21771040e-05 -3.21771040e-05 3.21771040e-05 3.21771040e-05
      3.21771040e-05 0. 9.65313084e-05 -3.21771040e-05 0. 3.21771040e-05
      0. 0. 0. 0. 0. 0. 3.21771040e-05 0. 0. 0. 0. 3.21771040e-05 0. 0.
      0. 0. 0. 0. 0. 0. 0. 3.21771040e-05 0. -3.21771040e-05
      3.21771040e-05 0. 3.21771040e-05 0. 6.43542080e-05 6.43542080e-05
      0. 0. 0. -3.21771040e-05 0. 0. 0. 6.43542080e-05 0. 0. 0. 0. 0. 0.
      0. -3.21771040e-05 0. 0. 0. 0. 0. 0. 0. 0. 0. 0. 0.
      -3.21771040e-05 0. 0. 0. 3.21771040e-05 3.21771040e-05 0. 0. 0. 0.
      3.21771040e-05 3.21771040e-05 -1.38777878e-17 0. 0. 0. 0. 0. 0.
      6.43542080e-05 0. 0. 0. 0. 0. 0. 0. -3.21771040e-05 3.21771040e-05
      0. 0. 0. 0. 0. 3.21771040e-05 3.21771040e-05 3.21771040e-05
      -6.93889390e-18 0. 0. 0. 0. 0. 0. -3.21771040e-05 0. 0. 0. 0. 0.
      0. 0. -9.65313084e-05 0. 0. 0. 0. 0. 3.21771040e-05
      -1.38777878e-17 3.21771040e-05 0. 0. 0. 0. 0. -3.21771040e-05
      3.21771040e-05 0. 0. 0. 0. 0. 0. 0. 0. 3.21771040e-05
      3.21771040e-05 0. 0. 0. 0. 0. 0. 0. 0. 0. -3.21771040e-05 0. 0. 0.
      3.21771040e-05 0. 0. 0. 0. 0. 3.21771040e-05 0. 3.21771040e-05 0.
      0. 0. 0. -3.21771040e-05 0. 0. 6.43542080e-05 0. 0. 0. 0. 0. 0. 0.
      0. -6.93889390e-18 0. -3.21771040e-05 0. 6.43542080e-05 0.
      6.43542080e-05 0. 0. 0. 0. 3.21771040e-05 0. 0. 3.21771040e-05 0.
      9.65313084e-05 0. 3.21771040e-05 0. 0. 0. 0. 3.21771040e-05
      9.65313084e-05 3.21771040e-05 0. 0. -3.21771040e-05
      -6.93889390e-18 -3.21771040e-05 2.25239724e-04 0. 0. 0. 0.
      9.65313084e-05 3.21771040e-05 3.21771040e-05 0. -3.21771040e-05
      3.21771040e-05 0. 0. -3.21771040e-05 0. -1.28708416e-04
      -1.70538644e-03 -9.65313084e-05 0. 1.60885509e-04 -6.93889390e-18
      0. 0. 3.21771040e-05 3.21771040e-05 -9.65313084e-05 3.21771040e-05
      0. 0. 0. 0. 0. -3.21771040e-05 -6.93889390e-18 -3.21771040e-05
      -3.21771040e-05 -6.93889390e-18 6.43542080e-05 0. 0.
      6.43542080e-05 -3.21771040e-05 0. 0. 0. 3.21771040e-05 0. 0.
      -6.43542080e-05 3.21771040e-05 0. -3.21771040e-05 0. 0. 0. 0. 0.
      -6.93889390e-18 -6.93889390e-18 0. 6.43542080e-05 0. 0. 0.
      -6.43542080e-05 -3.21771040e-05 0. 0. -3.21771040e-05 0. 0. 0. 0.
      0. 0. 0. 0. -6.43542080e-05 0. 0. -3.21771040e-05 -1.38777878e-17
      -9.65313084e-05 -3.21771040e-05 0. -3.21771040e-05 0.
      -3.21771040e-05 -3.21771040e-05 -3.21771040e-05 -3.21771040e-05 0.
      0. -3.21771040e-05 0. 0. 0. -6.93889390e-18 3.21771040e-05 0. 0.
      0. 0. 0. 0. 0. 0. 0. 0. 0. 0. 0. 0. 3.21771040e-05 0.
      -3.21771040e-05 0. 0. 0. -3.21771040e-05 0. 3.21771040e-05
      9.65313084e-05 0. 0. 0. -3.21771040e-05 0. -6.43542080e-05 0. 0.
      0. 0. 0. 0. 0. 3.21771040e-05 0. 0. 0. 0. 0. 0. -3.21771040e-05
      -3.21771040e-05 -6.43542080e-05 0. -3.21771040e-05 -3.21771040e-05
      0. 0. 0. 0. 3.21771040e-05 0. 0. 0. 0. 0. 0. 3.21771040e-05
      -6.93889390e-18 0. 0. 3.21771040e-05 0. 0. 0. -6.43542080e-05 0.
      0. 0. 0. 0. -3.21771040e-05 0. 3.21771040e-05 0. 0. 0. 0. 0. 0. 0.
      0. -3.21771040e-05 0. -3.21771040e-05 0. 0. 0. 0. 0. 0. 0. 0. 0.
      -3.21771040e-05 0. 0. 0. 0. 0. 0. -6.93889390e-18 0.
      -3.21771040e-05 0. -3.21771040e-05 -6.93889390e-18 0. 0. 0. 0. 0.
      0. 0. 3.21771040e-05 0. 0. 0. 0. -3.21771040e-05 0. 0. 0.
      -3.21771040e-05 0. 0. 6.43542080e-05 0. -6.93889390e-18
      -3.21771040e-05 0. 0. 0. 0. -3.21771040e-05 0. 0. 0.
      -1.38777878e-17 0. 0. 0. 0. 0. 3.21771040e-05 0. -3.21771040e-05
      3.21771040e-05 -6.43542080e-05 -6.93889390e-18 0. 0. 0.
      -1.28708416e-04 -6.43542080e-05 3.21771040e-05 0. -3.21771040e-05
      0. -3.21771040e-05 -6.43542080e-05 0. -3.21771040e-05
      3.21771040e-05 0. -6.93889390e-18 0. -9.65313084e-05 0.
      1.15837564e-03 1.28708416e-04 -3.21771040e-05 3.21771040e-05
      -3.21771040e-05 9.65313084e-05 0. -3.21771040e-05 -9.65313084e-05
      -6.43542080e-05 -6.93889390e-18 0. -6.43542080e-05 0.
      3.21771040e-05 0. -9.65313084e-05 1.28708416e-04 6.43542080e-05
      -3.21771040e-05 3.21771040e-05 0. 0. -6.93889390e-18
      -3.21771040e-05 3.21771040e-05 -3.21771040e-05 0. 0. 0. 0.
      -6.93889390e-18 -2.77555756e-17 0. 0. -3.21771040e-05 0. 0. 0.
      -3.21771040e-05 0. -6.93889390e-18 -3.21771040e-05 0. 0.
      6.43542080e-05 0. 0. 3.21771040e-05 -3.21771040e-05 0. 0. 0. 0. 0.
      0. 3.21771040e-05 -3.21771040e-05 0. 0. 0. -3.21771040e-05
      -3.21771040e-05 0. -6.93889390e-18 -3.21771040e-05 0. 0. 0. 0. 0.
      0. 0. 3.21771040e-05 0. 0. 0. 0. 0. 0. 0. 3.21771040e-05 0. 0.
      3.21771040e-05 -3.21771040e-05 0. 0. -3.21771040e-05
      3.21771040e-05 0. 0. 0. 0. 0. 0. 0. -6.43542080e-05 0. 0. 0.
      3.21771040e-05 0. 0. 3.21771040e-05 -1.38777878e-17 0. 0.
      -3.21771040e-05 0. 0. 0. 6.43542080e-05 0. 0. 0. 0. 0. 0. 0. 0. 0.
      0. 0. -3.21771040e-05 0. 0. 0. 3.21771040e-05 3.21771040e-05 0.
      3.21771040e-05 0. 0. 0. 0. 3.21771040e-05 1.60885509e-04 0. 0.
      3.21771040e-05 0. 0. 0. -3.21771040e-05 -1.60885509e-04 0.
      3.21771040e-05 0. 0. 0. -6.93889390e-18 1.28708416e-04
      -6.93889390e-18 0. 3.21771040e-05 0. 0. 0. 0. -6.43542080e-05 0.
      0. 0. 0. 0. 0. 0. 0. 0. 0. 0. 0. 0. 0. 0. 0. 0. 0. 0. 0. 0. 0. 0.
      0. -6.93889390e-18 0. 0. 0. 0. 0. 0. -9.65313084e-05
      -3.21771040e-05 3.21771040e-05 0. 0. -3.21771040e-05 0. 0. 0. 0.
      0. 0. 3.21771040e-05 0. 0. 3.21771040e-05 6.43542080e-05
      -3.21771040e-05 3.21771040e-05 0. 0. 0. 0. -6.43542080e-05
      6.43542080e-05 0. 3.21771040e-05 0. 0. 0. 0. 0. 3.21771040e-05
      -9.65313084e-05 0. 0. -3.21771040e-05 -3.21771040e-05 0. 0.
      -6.43542080e-05 1.28708416e-04 -6.93889390e-18 -3.21771040e-05
      -3.21771040e-05 0. 3.21771040e-05 -3.21771040e-05 0.
      -6.43542080e-05 0. 0. 3.21771040e-05 -3.21771040e-05 0.
      3.21771040e-05 -3.21771040e-05 -3.21771040e-05 -6.43542080e-05 0.
      -6.93889390e-18 -1.38777878e-17 0. 0. 3.21771040e-05
      2.25239724e-04 3.21771040e-05 3.21771040e-05 3.21771040e-05
      -3.21771040e-05 -3.21771040e-05 -6.43542080e-05 -1.28708416e-04
      -1.28708416e-04 0. 0. 0. 3.21771040e-05 3.21771040e-05
      -6.93889390e-18 -1.60885509e-04 -9.65313084e-05 0. 0.
      -6.43542080e-05 3.21771040e-05 0. 6.43542080e-05 -1.60885509e-04
      -3.21771040e-05 3.21771040e-05 0. 3.21771040e-05 0. 0.
      -9.65313084e-05 -3.53948126e-04 6.43542080e-05 0. 0. 0.
      -3.21771040e-05 0. -3.21771040e-05 0. 3.21771040e-05 0. 0. 0. 0.
      0. 0. -3.21771040e-05 0. 3.21771040e-05 0. 0. -3.21771040e-05 0.
      0. -3.21771040e-05 0. -6.93889390e-18 0. -3.21771040e-05 0.
      3.21771040e-05 0. 9.65313084e-05 6.43542080e-05 0. 0. 0. 0. 0. 0.
      0. 3.21771040e-05 0. 0. 3.21771040e-05 0. 0. 0. 0. -3.21771040e-05
      0. 0. 0. 0. 0. 0. 0. 0. 0. 0. 3.21771040e-05 0. 0. 0. 0. 0.
      3.21771040e-05 0. 6.43542080e-05 0. 0. 3.21771040e-05
      3.21771040e-05 0. 0. 0. 0. -3.21771040e-05 0. 0. 3.21771040e-05
      3.21771040e-05 0. 0. 0. -3.21771040e-05 0. 0. -6.43542080e-05 0.
      0. 0. 0. 0. 0. 3.21771040e-05 6.43542080e-05 6.43542080e-05 0. 0.
      0. 3.21771040e-05 0. -3.21771040e-05 -3.21771040e-05
      -3.21771040e-05 0. 3.21771040e-05 0. 0. 0. 3.21771040e-05
      -6.93889390e-18 3.21771040e-05 0. 0. 0. 3.21771040e-05 0. 0.
      3.21771040e-05 0. 3.21771040e-05 0. 0. 6.43542080e-05 0. 0.
      -6.43542080e-05 0. 0. 0. 0. 0. 0. 3.21771040e-05 0. 0. 0. 0. 0.
      3.21771040e-05 0. 0. 3.21771040e-05 0. 3.21771040e-05 0.
      3.21771040e-05 -3.21771040e-05 0. 0. 3.21771040e-05 0. 0. 0.
      3.21771040e-05 0. 0. 0. 0. 3.21771040e-05 0. 3.21771040e-05 0. 0.
      0. 0. 0. 3.21771040e-05 3.21771040e-05 0. 0. 0. 0. -6.43542080e-05
      6.43542080e-05 -6.43542080e-05 -6.93889390e-18 0. -3.21771040e-05
      0. 3.21771040e-05 3.21771040e-05 -3.21771040e-05 3.21771040e-05 0.
      0. 0. 0. 0. 3.21771040e-05 -3.21771040e-05 -3.21771040e-05 0. 0.
      0. -3.21771040e-05 0. 0. -3.21771040e-05 -6.43542080e-05
      -3.21771040e-05 0. 3.21771040e-05 6.43542080e-05 0. 3.21771040e-05
      6.43542080e-05 -6.43542080e-05 -3.21771040e-05 0. -3.21771040e-05
      -3.21771040e-05 0. -3.21771040e-05 -3.21771040e-05 -6.43542080e-05
      6.43542080e-05 -3.21771040e-05 -6.93889390e-18 -3.21771040e-05 0.
      3.21771040e-05 1.93062617e-04 6.43542080e-05 6.43542080e-05
      -3.21771040e-05 3.21771040e-05 9.65313084e-05 0. -3.21771040e-05
      -1.60885509e-04 -6.43542080e-05 -6.43542080e-05 3.21771040e-05
      -3.21771040e-05 -6.43542080e-05 0. 3.21771040e-05 -2.57416832e-04
      1.28708416e-04 0. 0. 3.21771040e-05 0. -6.93889390e-18
      -9.65313084e-05 -2.57416832e-04 0. 0. -3.21771040e-05
      -3.21771040e-05 0. 0. -3.21771040e-05 -1.60885509e-04
      3.21771040e-05 0. 3.21771040e-05 0. 0. 0. 3.21771040e-05 0.
      6.43542080e-05 0. 6.43542080e-05 3.21771040e-05 0. 0. 0.
      3.21771040e-05 0. 0. 0. 0. 3.21771040e-05 0. 3.21771040e-05
      -6.93889390e-18 -3.21771040e-05 0. 0. 0. 0. 0. 0. 6.43542080e-05
      3.21771040e-05 -3.21771040e-05 3.21771040e-05 -3.21771040e-05
      3.21771040e-05 0. -6.43542080e-05 0. 3.21771040e-05 3.21771040e-05
      0. 0. 0. 0. 0. -3.21771040e-05 -6.93889390e-18 0. 0.
      3.21771040e-05 0. 3.21771040e-05 0. 6.43542080e-05 0. 0. 0. 0. 0.
      0. 0. 3.21771040e-05 -6.93889390e-18 0. 3.21771040e-05 0.
      3.21771040e-05 0. 0. 0. 0. -9.65313084e-05 0. 6.43542080e-05
      3.21771040e-05 3.21771040e-05 0. -6.93889390e-18 -3.21771040e-05
      0. 0. 0. 0. 0. 0. 0. 3.21771040e-05 0. 0. 0. -3.21771040e-05
      3.21771040e-05 0. 3.21771040e-05 0. 0. 0. -3.21771040e-05 0. 0.
      3.21771040e-05 0. -6.43542080e-05 0. 0. 3.21771040e-05 0. 0. 0.
      9.65313084e-05 -3.21771040e-05 0. 3.21771040e-05 -3.21771040e-05
      3.21771040e-05 0. -6.43542080e-05 -3.21771040e-05 0. 0. 0. 0. 0.
      -3.21771040e-05 0. -3.21771040e-05 0. 0. 0. 0. 0. 0. 0. 0.
      6.43542080e-05 3.21771040e-05 0. 0. 0. 0. 0. 0. 0. 0. 0. 0.
      -6.93889390e-18 0. -3.21771040e-05 -3.21771040e-05 -3.21771040e-05
      3.21771040e-05 0. 0. 0. 0. 0. 1.60885509e-04 3.21771040e-05 0. 0.
      3.21771040e-05 0. 0. 0. 0. -3.21771040e-05 0. 3.21771040e-05 0. 0.
      0. 0. 0. 0. 3.21771040e-05 -3.21771040e-05 -3.21771040e-05 0. 0.
      0. 6.43542080e-05 -3.21771040e-05 3.21771040e-05 0. 3.21771040e-05
      0. 0. 9.65313084e-05 3.21771040e-05 0. 0. -6.43542080e-05
      3.21771040e-05 3.21771040e-05 0. 0. 0. -6.43542080e-05 0. 0.
      9.65313084e-05 0. 3.21771040e-05 0. -3.21771040e-05 3.21771040e-05
      0. -6.93889390e-18 0. -6.43542080e-05 9.65313084e-05
      -3.21771040e-05 -3.21771040e-05 -1.28708416e-04 -3.21771040e-05 0.
      0. -6.43542080e-05 -6.43542080e-05 -3.21771040e-05 9.65313084e-05
      1.93062617e-04 0. -6.43542080e-05 -3.21771040e-05 -9.65313084e-05
      -3.21771040e-05 -3.21771040e-05 -9.65313084e-05 6.43542080e-05
      -6.93889390e-18 -3.21771040e-05 6.43542080e-05 0. 0. 0.
      -2.57416832e-04 6.43542080e-05 0. 0. 0. -3.21771040e-05 0.
      3.21771040e-05 -2.25239724e-04 -3.21771040e-05 0. 0.
      -6.93889390e-18 0. -6.93889390e-18 -3.21771040e-05 -6.43542080e-05
      -6.43542080e-05 0. 0. 0. 3.21771040e-05 0. 3.21771040e-05 0.
      -3.21771040e-05 0. 3.21771040e-05 2.57416832e-04 3.21771040e-05 0.
      3.21771040e-05 3.21771040e-05 -6.93889390e-18 0. 0. 0.
      -6.93889390e-18 0. 0. 0. 3.21771040e-05 3.21771040e-05 0. 0.
      -6.93889390e-18 0. 3.21771040e-05 0. -6.93889390e-18
      3.21771040e-05 -3.21771040e-05 3.21771040e-05 0. 0.
      -6.93889390e-18 0. 0. 0. 0. 0. 0. 0. 0. 0. 3.21771040e-05 0. 0. 0.
      3.21771040e-05 0. 0. -3.21771040e-05 0. 0. 0. 0. 0.
      -3.21771040e-05 0. 0. 3.21771040e-05 0. 3.21771040e-05
      3.21771040e-05 3.21771040e-05 0. 0. 0. 3.21771040e-05
      -3.21771040e-05 0. 3.21771040e-05 0. 3.21771040e-05 0. 0.
      -6.43542080e-05 0. 0. 0. 0. 0. -3.21771040e-05 0. 0. 0. 0. 0. 0.
      3.21771040e-05 0. 0. 0. 0. 0. 0. 0. 0. 0. 0. -3.21771040e-05 0. 0.
      -3.21771040e-05 0. 0. 0. 3.21771040e-05 0. -3.21771040e-05 0. 0.
      6.43542080e-05 3.21771040e-05 -3.21771040e-05 0. 0. 0. 0. 0.
      -3.21771040e-05 0. -9.65313084e-05 -3.21771040e-05 0. 0. 0. 0. 0.
      0. 0. 0. 0. 0. 0. 0. 0. 0. 0. -3.21771040e-05 0. 0. 0. 0. 0. 0. 0.
      0. 9.65313084e-05 0. 0. 0. 0. 0. 0. 3.21771040e-05 0.
      3.21771040e-05 3.21771040e-05 0. 0. 0. 0. 0. 0. 0. 3.21771040e-05
      3.21771040e-05 0. 0. 0. 3.21771040e-05 3.21771040e-05 0.
      3.21771040e-05 0. 6.43542080e-05 3.21771040e-05 3.21771040e-05
      -6.43542080e-05 -3.21771040e-05 0. 0. 0. 0. 0. 0. -6.43542080e-05
      3.21771040e-05 3.21771040e-05 0. 0. -3.21771040e-05 0. 0.
      -3.21771040e-05 -3.21771040e-05 -6.43542080e-05 0. 6.43542080e-05
      -6.93889390e-18 -6.93889390e-18 3.21771040e-05 6.43542080e-05
      -6.93889390e-18 -3.21771040e-05 0. 0. 3.21771040e-05
      -3.21771040e-05 3.21771040e-05 -9.65313084e-05 -6.43542080e-05
      6.43542080e-05 0. 0. 0. 3.21771040e-05 -3.21771040e-05
      -9.65313084e-05 1.28708416e-04 9.65313084e-05 3.21771040e-05 0. 0.
      0. -9.65313084e-05 -6.43542080e-05 -9.65313084e-05 -1.38777878e-17
      0. -6.93889390e-18 0. 3.21771040e-05 0. -2.89593911e-04
      -6.93889390e-18 0. 0. -3.21771040e-05 -1.28708416e-04 0.
      -3.21771040e-05 -6.43542080e-05 -3.21771040e-05 3.21771040e-05 0.
      0. 0. 0. 0. -1.28708416e-04 6.43542080e-05 0. 0. 0. 0. 0. 0. 0.
      -3.21771040e-05 3.21771040e-05 6.43542080e-05 9.65313084e-05
      3.21771040e-05 0. 0. -6.43542080e-05 0. 0. 0. 0. 3.21771040e-05 0.
      0. 0. 0. 0. 0. 3.21771040e-05 3.21771040e-05 0. 0. 6.43542080e-05
      9.65313084e-05 6.43542080e-05 0. 0. 0. 6.43542080e-05 0. 0.
      3.21771040e-05 3.21771040e-05 0. 0. 3.21771040e-05 0. 0. 0.
      3.21771040e-05 0. 0. 0. 0. 0. 0. 0. 0. 0. 0. 0. 0. 0. 0. 0.
      -9.65313084e-05 0. -6.93889390e-18 0. 0. 0. 3.21771040e-05 0.
      3.21771040e-05 -2.57416832e-04 0. -1.28708416e-04 0. 0. 0.
      9.65313084e-05 -3.21771040e-05 0. 0. 0. 3.21771040e-05 0. 0.
      -6.93889390e-18 0. 0. 0. 3.21771040e-05 0. 0. 0. 6.43542080e-05
      6.43542080e-05 0. 0. 0. 0. 0. 0. 0. 3.21771040e-05 0. 0.
      3.21771040e-05 0. 0. 0. 0. -3.21771040e-05 0. 0. 0.
      -9.65313084e-05 3.21771040e-05 3.21771040e-05 -3.21771040e-05
      -3.21771040e-05 0. 0. 0. 3.21771040e-05 0. 3.21771040e-05
      -3.21771040e-05 3.21771040e-05 0. 0. 0. 0. 0. 0. 0. 0. 0. 0. 0. 0.
      0. 0. 3.21771040e-05 0. 0. 0. 0. 0. 0. 0. 0. 0. 0. 0.
      3.21771040e-05 0. 0. 0. 9.65313084e-05 -6.93889390e-18 0. 0. 0. 0.
      0. 0. -3.21771040e-05 3.21771040e-05 0. 0. 0. 0. 0. 0.
      3.21771040e-05 -3.21771040e-05 0. 0. 0. -1.38777878e-17 0.
      -1.60885509e-04 6.43542080e-05 0. 0. 0. 0. 3.21771040e-05 0. 0.
      3.21771040e-05 -6.43542080e-05 0. 0. 0. 0. 0. 0. 0.
      -3.21771040e-05 -9.65313084e-05 0. 6.43542080e-05 3.21771040e-05
      0. 0. 9.65313084e-05 -3.21771040e-05 0. 0. 3.21771040e-05
      -9.65313084e-05 0. 0. 6.43542080e-05 -9.65313084e-05
      -6.93889390e-18 0. 3.21771040e-05 6.43542080e-05 -3.21771040e-05
      0. 3.21771040e-05 9.65313084e-05 6.43542080e-05 -6.43542080e-05
      -3.21771040e-05 -6.43542080e-05 0. -3.21771040e-05 -3.21771040e-05
      9.65313084e-05 3.21771040e-05 -6.93889390e-18 0. -3.21771040e-05
      0. 0. -6.43542080e-05 1.28708416e-04 -3.21771040e-05
      -6.93889390e-18 3.21771040e-05 9.65313084e-05 0. -1.38777878e-17
      2.25239724e-04 3.21771040e-05 0. 0. 0. 0. 0. 0. 9.65313084e-05
      3.21771040e-05 0. -3.21771040e-05 0. -3.21771040e-05 0. 0. 0.
      -6.93889390e-18 3.21771040e-05 -3.21771040e-05 0. 0. 0. 0.
      -9.65313084e-05 0. 0. 0. 0. 0. 0. 0. 0. 3.21771040e-05 0. 0. 0.
      -3.21771040e-05 0. 0. 3.21771040e-05 0. 0. 0. 0. -3.21771040e-05
      0. 0. -6.93889390e-18 0. 0. 0. 0. 0. 0. 0. 0. 0. -3.21771040e-05
      0. 0. -3.21771040e-05 0. -9.65313084e-05 0. 0. 0. 0. 0. 0. 0. 0.
      0. -3.21771040e-05 0. 0. 0. 0. 0. -6.93889390e-18 3.21771040e-05
      3.21771040e-05 -3.21771040e-05 0. -1.28708416e-04 0. 0. 0.
      -6.93889390e-18 0. 0. 0. 0. -6.43542080e-05 0. 0. 0. 0. 0. 0. 0.
      0. 0. 0. 0. -3.21771040e-05 0. -6.93889390e-18 0. 0. 0.
      3.21771040e-05 0. 3.21771040e-05 3.21771040e-05 0. -3.21771040e-05
      0. 0. 0. 0. 0. 0. -3.21771040e-05 0. -1.60885509e-04 0.
      -6.43542080e-05 -3.21771040e-05 0. 3.21771040e-05 0. 0. 0. 0. 0.
      -3.21771040e-05 0. 0. 0. 0. 0. 0. 0. 0. 0. 0. 0. -6.93889390e-18
      0. 0. 0. 0. 0. 0. 0. 0. 0. 0. 0. 0. 0. 0. 0. -3.21771040e-05
      3.21771040e-05 3.21771040e-05 0. -6.43542080e-05 -3.21771040e-05
      0. 0. 0. 0. 0. -3.21771040e-05 0. 3.21771040e-05 -3.21771040e-05
      0. 0. 0. 0. 0. 6.43542080e-05 3.21771040e-05 0. 0. 0.
      -2.25239724e-04 0. -1.28708416e-04 -9.65313084e-05 0.
      -3.21771040e-05 0. 3.21771040e-05 0. -3.21771040e-05 0.
      -6.43542080e-05 3.21771040e-05 0. 0. 0. 0. 0. 0. 6.43542080e-05
      1.60885509e-04 -3.21771040e-05 -3.21771040e-05 -6.93889390e-18
      -3.21771040e-05 0. 0. 1.60885509e-04 1.28708416e-04 0. 0. 0. 0. 0.
      -3.21771040e-05 6.43542080e-05 3.21771040e-05 3.21771040e-05 0. 0.
      0. 0. 0. 1.93062617e-04 -3.86125233e-04 -3.21771040e-05
      1.93062617e-04 -3.21771040e-05 0. 3.21771040e-05 -3.21771040e-05
      0. -6.43542080e-05 0. 3.21771040e-05 0. 0. 0. -3.21771040e-05
      -9.65313084e-05 -9.65313084e-05 -3.21771040e-05 0. 0.
      3.21771040e-05 0. -3.21771040e-05 -1.60885509e-04 -3.21771040e-05
      0. -6.43542080e-05 -3.21771040e-05 0. 0. -3.21771040e-05
      -3.21771040e-05 -1.38777878e-17 -6.93889390e-18 0. 0. 0. 0.
      3.21771040e-05 -3.21771040e-05 -6.43542080e-05 1.93062617e-04
      6.43542080e-05 1.93062617e-04 -3.21771040e-05 -3.21771040e-05 0.
      -9.65313084e-05 0. 0. 0. 0. 0. 0. 0. 0. -3.21771040e-05 0. 0.
      -3.21771040e-05 0. -3.21771040e-05 0. 0. 1.28708416e-04 0.
      3.21771040e-05 0. 3.21771040e-05 0. 0. 0. 0. 0. 3.21771040e-05 0.
      0. 0. 0. 0. -3.21771040e-05 0. 0. 0. 3.21771040e-05 0.
      -3.21771040e-05 0. 0. 0. 0. 0. 0. 0. 0. 0. -3.21771040e-05 0.
      3.21771040e-05 0. 0. 0. -3.21771040e-05 0. -6.43542080e-05
      9.65313084e-05 0. 6.43542080e-05 3.21771040e-05 0. 0.
      3.21771040e-05 -3.21771040e-05 0. 0. 0. 0. 0. -6.43542080e-05 0.
      0. 0. 0. -3.21771040e-05 0. 0. 0. -3.21771040e-05 -3.21771040e-05
      0. 0. 0. 0. 0. 0. -6.43542080e-05 0. 0. 0. 0. 0. 0. 0. 0.
      -6.43542080e-05 0. 0. 0. 6.43542080e-05 3.21771040e-05
      1.60885509e-04 0. 0. 0. 0. 0. -6.43542080e-05 3.21771040e-05 0.
      -1.38777878e-17 -3.21771040e-05 0. 0. 0. 0. 0. 0. 0. 0. 0. 0.
      -3.21771040e-05 0. 0. 0. 0. 0. 0. 0. 0. 0. 0. 0. 0. 0.
      -3.21771040e-05 0. 0. 0. -3.21771040e-05 0. 6.43542080e-05 0. 0.
      0. -3.21771040e-05 0. 0. -3.21771040e-05 0. 0. 0. 0. 0. 0. 0. 0.
      0. 0. 0. -3.21771040e-05 0. 3.86125233e-04 0. 6.43542080e-05
      -3.21771040e-05 0. 0. 3.21771040e-05 -3.21771040e-05 0. 0. 0.
      3.21771040e-05 0. 0. 0. -6.43542080e-05 0. 0. 0. -3.21771040e-05
      -3.21771040e-05 0. 0. -6.43542080e-05 0. 0. 0. -9.65313084e-05
      -6.43542080e-05 -3.21771040e-05 0. 0. 0. -3.21771040e-05
      -3.21771040e-05 -6.43542080e-05 -3.21771040e-05 -6.43542080e-05 0.
      -3.21771040e-05 -3.21771040e-05 6.43542080e-05 0. 8.68781761e-04
      6.43542080e-05 6.43542080e-05 -6.93889390e-18 -6.93889390e-18
      3.21771040e-05 0. -6.93889390e-18 -3.21771040e-05 -9.65313084e-05
      0. 3.21771040e-05 -3.21771040e-05 -6.93889390e-18 0. 0.
      -1.60885509e-04 -3.21771040e-05 6.43542080e-05 3.21771040e-05 0.
      -3.21771040e-05 0. -3.21771040e-05 2.25239724e-04 -1.93062617e-04
      -3.21771040e-05 0. -3.21771040e-05 0. 0. 3.21771040e-05
      -3.21771040e-05 3.21771040e-05 0. 3.21771040e-05 0. 0. 0.
      3.21771040e-05 0. -6.93889390e-18 -3.21771040e-05 3.21771040e-05
      3.21771040e-05 -3.21771040e-05 0. -3.21771040e-05 -3.21771040e-05
      -3.21771040e-05 0. 0. 0. 0. 0. 0. 3.21771040e-05 -3.21771040e-05
      0. 0. 3.21771040e-05 0. 0. 0. -6.43542080e-05 -6.43542080e-05 0.
      3.21771040e-05 0. 0. 0. 0. 3.21771040e-05 -6.93889390e-18 0. 0. 0.
      0. 0. 0. 0. 0. 0. 0. 3.21771040e-05 0. 0. 0. 0. 0. 0. 0. 0.
      3.21771040e-05 0. 0. 0. -3.21771040e-05 0. 0. 0. 0. 0. 0. 0. 0.
      3.21771040e-05 0. 3.21771040e-05 -3.21771040e-05 0. 0.
      -3.21771040e-05 3.21771040e-05 0. 0. -3.21771040e-05
      -3.21771040e-05 0. 0. 0. 0. 0. 3.21771040e-05 3.21771040e-05 0. 0.
      0. 6.43542080e-05 -3.21771040e-05 3.21771040e-05 0. 0. 0. 0. 0.
      -3.21771040e-05 -3.21771040e-05 0. 0. 0. 3.21771040e-05
      3.21771040e-05 0. -3.21771040e-05 0. 0. 0. 3.21771040e-05
      3.21771040e-05 0. 3.21771040e-05 -3.21771040e-05 -3.21771040e-05
      3.21771040e-05 0. 0. 0. 0. 0. 3.21771040e-05 0. 3.21771040e-05 0.
      0. 0. 0. 3.21771040e-05 0. 0. 0. 0. 0. 0. 3.21771040e-05 0.
      3.21771040e-05 0. 0. 0. 0. 0. 0. 0. 0. 0. 0. 0. 0. 0. 0. 0. 0. 0.
      0. -6.93889390e-18 0. 0. 0. 0. 0. 0. 0. 0. 0. 0. 0. 0. 0.
      -6.93889390e-18 -3.21771040e-05 0. 0. 3.21771040e-05 0.
      3.21771040e-05 -3.21771040e-05 0. 0. 3.21771040e-05 0. 0.
      3.21771040e-05 3.21771040e-05 -1.38777878e-17 6.43542080e-05 0. 0.
      -6.43542080e-05 3.21771040e-05 0. 0. -1.28708416e-04
      -6.43542080e-05 3.21771040e-05 0. -9.65313084e-05 3.21771040e-05
      3.21771040e-05 6.43542080e-05 -6.43542080e-05 -1.60885509e-04
      3.21771040e-05 0. -3.21771040e-05 -3.21771040e-05 -6.93889390e-18
      3.21771040e-05 -3.21771040e-05 9.65313084e-05 0. 0.
      -3.21771040e-05 3.21771040e-05 3.21771040e-05 -6.43542080e-05
      6.43542080e-05 1.60885509e-04 3.21771040e-05 1.28708416e-04 0.
      -3.21771040e-05 3.21771040e-05 -6.93889390e-18 3.21771040e-05
      9.65313084e-05 -6.43542080e-05 -3.21771040e-05 -6.43542080e-05 0.
      -3.21771040e-05 0. -6.43542080e-05 6.43542080e-05 0. 0. 0.
      -6.43542080e-05 -3.21771040e-05 3.21771040e-05 -6.43542080e-05
      3.21771040e-05 -6.93889390e-18 0. -3.21771040e-05 -6.43542080e-05
      6.43542080e-05 0. 0. -6.43542080e-05 0. -3.21771040e-05
      6.43542080e-05 0. -3.21771040e-05 0. 0. -9.65313084e-05
      3.21771040e-05 -6.43542080e-05 -6.43542080e-05 -3.21771040e-05 0.
      0. -3.21771040e-05 3.21771040e-05 3.21771040e-05 0. 0. 0. 0. 0. 0.
      -3.21771040e-05 0. 0. -3.21771040e-05 3.21771040e-05
      -6.43542080e-05 3.21771040e-05 -3.21771040e-05 -6.93889390e-18 0.
      3.21771040e-05 0. 0. 0. 3.21771040e-05 3.21771040e-05 0.
      -6.43542080e-05 0. 3.21771040e-05 3.21771040e-05 0. 0. 0.
      -6.43542080e-05 0. 0. 3.21771040e-05 0. 0. 3.21771040e-05 0. 0.
      3.21771040e-05 0. 0. 0. 0. 0. 0. -9.65313084e-05 0. 0.
      -3.21771040e-05 0. 0. 3.21771040e-05 -6.93889390e-18
      -3.21771040e-05 -3.21771040e-05 0. -3.21771040e-05 0. 0. 0.
      -6.93889390e-18 0. 0. 0. 0. 3.21771040e-05 0. 0. 0.
      -3.21771040e-05 0. 0. 0. 0. 0. 3.21771040e-05 -6.43542080e-05 0.
      3.21771040e-05 0. -3.21771040e-05 0. 0. 0. -3.21771040e-05
      -3.21771040e-05 0. 0. 0. -3.21771040e-05 0. 0. 3.21771040e-05
      9.65313084e-05 -3.21771040e-05 0. 3.21771040e-05 6.43542080e-05 0.
      3.21771040e-05 3.21771040e-05 3.21771040e-05 3.21771040e-05 0. 0.
      6.43542080e-05 -6.93889390e-18 0. 0. 0. 0. 0. 0. 0. 0. 0. 0. 0. 0.
      0. 0. 0. 0. 0. 0. 0. 3.21771040e-05 0. -3.21771040e-05 0. 0.
      -3.21771040e-05 3.21771040e-05 3.21771040e-05 0. 0. 0.
      -3.21771040e-05 3.21771040e-05 0. -1.38777878e-17 6.43542080e-05
      3.21771040e-05 0. 0. 0. 0. 0. 0. 0. 0. 0. -3.21771040e-05 0.
      3.21771040e-05 0. -3.21771040e-05 -6.43542080e-05 0. 0. 0.
      6.43542080e-05 -3.21771040e-05 3.21771040e-05 -3.21771040e-05 0.
      0. 0. 3.21771040e-05 3.21771040e-05 0. 0. 3.21771040e-05 0. 0. 0.
      0. 0. 0. 0. -6.93889390e-18 6.43542080e-05 -3.21771040e-05 0.
      -6.43542080e-05 0. 6.43542080e-05 0. -3.21771040e-05
      -1.60885509e-04 -3.21771040e-05 3.21771040e-05 0. 3.21771040e-05
      3.21771040e-05 -1.38777878e-17 -1.28708416e-04 -6.43542080e-05
      -3.21771040e-05 0. 0. -6.43542080e-05 3.21771040e-05
      1.28708416e-04 9.65313084e-05 6.43542080e-05 3.21771040e-05 0.
      -6.93889390e-18 0. 0. -3.21771040e-05 0. -3.21771040e-05 0.
      3.21771040e-05 0. -3.21771040e-05 0. -3.21771040e-05
      6.43542080e-05 3.21771040e-05 0. 0. -3.21771040e-05
      -3.21771040e-05 0. -6.43542080e-05 6.43542080e-05 0. 0. 0. 0.
      -3.21771040e-05 0. -6.93889390e-18 3.21771040e-05 6.43542080e-05
      0. 3.21771040e-05 0. 3.21771040e-05 0. 3.21771040e-05
      -3.21771040e-05 0. -6.93889390e-18 6.43542080e-05 0. 0.
      3.21771040e-05 0. 3.21771040e-05 3.21771040e-05 3.21771040e-05 0.
      0. 0. 0. 0. -3.21771040e-05 0. -3.21771040e-05 0. 0.
      3.21771040e-05 -3.21771040e-05 6.43542080e-05 0. -6.43542080e-05
      -6.93889390e-18 -6.43542080e-05 3.21771040e-05 -3.21771040e-05 0.
      0. -3.21771040e-05 0. 0. 0. 0. 3.21771040e-05 0. 0. 0. 0. 0.
      3.21771040e-05 0. 0. 0. 0. 3.21771040e-05 0. 0. 3.21771040e-05 0.
      0. 0. 0. 3.21771040e-05 -3.21771040e-05 0. 0. 0. -3.21771040e-05
      0. 0. 0. -3.21771040e-05 3.21771040e-05 -3.21771040e-05
      6.43542080e-05 0. 0. 0. 0. 0. -3.21771040e-05 0. 0. 0.
      -3.21771040e-05 3.21771040e-05 -6.93889390e-18 0. 3.21771040e-05
      0. 0. 0. 0. 0. -1.38777878e-17 6.43542080e-05 0. -3.21771040e-05
      -3.21771040e-05 0. 0. 0. 0. 0. 0. 0. 3.21771040e-05 0. 0. 0. 0.
      6.43542080e-05 0. 0. -6.93889390e-18 -6.93889390e-18 0.
      -3.21771040e-05 -3.21771040e-05 0. 3.21771040e-05 0.
      3.21771040e-05 0. 0. -3.21771040e-05 -3.21771040e-05
      -3.21771040e-05 3.21771040e-05 0. 0. 0. 0. 0. 0. 0. 0. 0. 0. 0.
      3.21771040e-05 3.21771040e-05 -3.21771040e-05 0. 0. 0.
      3.21771040e-05 0. 0. 0. 3.21771040e-05 3.21771040e-05 0. 0. 0.
      -3.21771040e-05 0. 3.21771040e-05 -9.65313084e-05 3.21771040e-05
      0. -6.93889390e-18 -3.21771040e-05 -3.21771040e-05 0.
      -6.93889390e-18 0. -3.21771040e-05 0. 0. 3.21771040e-05 0. 0. 0.
      0. 3.21771040e-05 0. -3.21771040e-05 0. 6.43542080e-05
      -3.21771040e-05 0. -3.21771040e-05 3.21771040e-05 0. 0. 0.
      3.21771040e-05 0. 0. -6.43542080e-05 -3.21771040e-05 0. 0.
      -3.21771040e-05 0. 3.21771040e-05 -3.21771040e-05 3.21771040e-05
      -6.43542080e-05 -6.93889390e-18 0. 6.43542080e-05 6.43542080e-05
      -3.21771040e-05 -3.21771040e-05 -6.93889390e-18 -6.43542080e-05 0.
      0. -3.21771040e-05 3.21771040e-05 3.21771040e-05 3.21771040e-05
      -6.43542080e-05 3.21771040e-05 -1.93062617e-04 -3.21771040e-05
      1.28708416e-04 -3.21771040e-05 -3.21771040e-05 3.21771040e-05
      -1.60885509e-04 9.65313084e-05 -6.93889390e-18 6.43542080e-05
      6.43542080e-05 -6.43542080e-05 0. 6.43542080e-05 -3.21771040e-05
      -6.43542080e-05 -6.43542080e-05 0. -6.43542080e-05 -6.43542080e-05
      0. 0. 6.43542080e-05 -6.43542080e-05 0. -3.21771040e-05 0. 0.
      -6.93889390e-18 -6.93889390e-18 -3.21771040e-05 -3.21771040e-05
      -3.21771040e-05 0. 0. 0. 0. 0. 2.25239724e-04 -6.93889390e-18 0.
      -3.21771040e-05 0. 0. 0. 0. 3.21771040e-05 -1.38777878e-17 0.
      -6.93889390e-18 0. 0. 0. 0. 3.21771040e-05 3.21771040e-05
      -3.21771040e-05 0. 0. 0. 0. 3.21771040e-05 0. 0. -6.93889390e-18
      0. -3.21771040e-05 0. 0. 0. -1.38777878e-17 6.43542080e-05 0.
      6.43542080e-05 0. 0. 0. 0. 0. 0. 0. 0. -9.65313084e-05 0. 0. 0. 0.
      -3.21771040e-05 0. 0. 0. 3.21771040e-05 0. 3.21771040e-05
      -3.21771040e-05 0. 0. 0. 0. 0. 0. 0. 0. 6.43542080e-05 0. 0. 0. 0.
      0. 0. -3.21771040e-05 -3.21771040e-05 0. 3.21771040e-05
      -9.65313084e-05 -3.21771040e-05 0. -6.93889390e-18 -9.65313084e-05
      -3.21771040e-05 0. 0. 0. 0. 0. -3.21771040e-05 0. 0. 0. 0. 0. 0.
      0. 0. 0. 0. 0. 3.21771040e-05 0. 0. 0. -6.43542080e-05 0. 0. 0. 0.
      0. 0. 0. -3.21771040e-05 -3.21771040e-05 -3.21771040e-05 0. 0.
      3.21771040e-05 3.21771040e-05 -3.21771040e-05 6.43542080e-05
      -6.93889390e-18 -3.21771040e-05 -3.21771040e-05 0. 3.21771040e-05
      3.21771040e-05 0. -3.21771040e-05 -3.21771040e-05 0. 0. 0. 0. 0.
      0. 0. 0. -3.21771040e-05 0. 0. -3.21771040e-05 0. 0.
      -6.43542080e-05 0. 0. 0. 0. 0. 0. 0. -3.21771040e-05
      -6.93889390e-18 0. 0. 0. 0. -3.21771040e-05 0. 3.21771040e-05
      6.43542080e-05 -6.93889390e-18 0. 3.21771040e-05 0.
      -3.21771040e-05 0. 0. 0. -3.21771040e-05 3.21771040e-05 0.
      -3.21771040e-05 -3.21771040e-05 0. 0. 0. 3.21771040e-05 0. 0. 0.
      -6.43542080e-05 0. 3.21771040e-05 -1.38777878e-17 -3.21771040e-05
      0. 0. -6.43542080e-05 0. 0. 0. -3.21771040e-05 3.21771040e-05 0.
      0. 0. 0. 0. -3.21771040e-05 3.21771040e-05 6.43542080e-05
      -1.28708416e-04 -3.21771040e-05 -3.21771040e-05 -3.21771040e-05 0.
      0. -9.65313084e-05 6.43542080e-05 0. 0. 0. -6.43542080e-05
      -3.21771040e-05 -3.21771040e-05 -9.65313084e-05 6.43542080e-05
      -9.65313084e-05 0. -3.21771040e-05 0. -9.65313084e-05
      -6.43542080e-05 1.15837564e-03 6.43542080e-05 -6.93889390e-18
      3.21771040e-05 -3.21771040e-05 3.21771040e-05 0. 3.21771040e-05
      3.21771040e-05 3.21771040e-05 3.21771040e-05 -3.21771040e-05
      3.21771040e-05 0. 0. 0. 3.21771040e-05 0. -3.21771040e-05
      3.21771040e-05 0. -3.21771040e-05 0. 6.43542080e-05 1.28708416e-04
      0. 0. 0. 0. 0. 0. 0. -6.93889390e-18 9.65313084e-05 3.21771040e-05
      0. -3.21771040e-05 0. 0. 0. 3.21771040e-05 -6.93889390e-18
      -9.65313084e-05 0. -2.89593911e-04 0. 0. 0. 0. 0. 0.
      3.21771040e-05 0. 0. 0. 0. 3.21771040e-05 0. 0. 0. 0. 0. 0. 0.
      3.21771040e-05 -1.60885509e-04 3.21771040e-05 -3.21771040e-05 0.
      0. 0. 0. 0. -3.21771040e-05 3.21771040e-05 0. -3.21771040e-05 0.
      0. 0. 0. 0. 0. 0. 0. 0. 0. 0. 0. 0. 0. 0. 0. 0. 0. 0.
      3.21771040e-05 -6.43542080e-05 -6.93889390e-18 -3.21771040e-05 0.
      0. 0. 0. 0. -9.65313084e-05 -1.38777878e-17 0. -1.93062617e-04 0.
      0. 0. -6.93889390e-18 3.21771040e-05 0. 0. 0. 0. 0. 0.
      3.21771040e-05 0. 0. 3.21771040e-05 3.21771040e-05 0. 0.
      -6.93889390e-18 6.43542080e-05 -1.38777878e-17 3.21771040e-05
      -3.21771040e-05 0. 0. 0. 0. 0. 0. 3.21771040e-05 0. 0. 0. 0.
      3.21771040e-05 0. 3.21771040e-05 0. 3.21771040e-05 3.21771040e-05
      -1.60885509e-04 0. -2.77555756e-17 3.21771040e-05 0.
      -6.93889390e-18 0. 0. -6.43542080e-05 0. 0. 0. 3.21771040e-05 0.
      0. 0. 0. 0. 0. 0. 6.43542080e-05 0. 0. 0. 0. 0. 0. 0. 0. 0. 0.
      -3.21771040e-05 0. 0. -3.21771040e-05 6.43542080e-05 0.
      3.21771040e-05 0. 0. 0. 0. 3.21771040e-05 3.21771040e-05
      -6.93889390e-18 0. 0. 0. 0. 0. 0. 0. -3.21771040e-05 0. 0. 0. 0.
      0. 0. 0. -6.43542080e-05 0. -3.21771040e-05 0. -2.57416832e-04 0.
      -1.28708416e-04 -3.21771040e-05 0. 0. 0. 3.21771040e-05 0. 0.
      -3.21771040e-05 3.21771040e-05 3.21771040e-05 0. 0. 0. 0. 0. 0.
      -3.21771040e-05 2.89593911e-04 -6.43542080e-05 0. 0.
      3.21771040e-05 -3.21771040e-05 0. -6.93889390e-18 1.28708416e-04
      0. 0. 0. -3.21771040e-05 0. -6.93889390e-18 -6.43542080e-05
      -1.38777878e-17 0. 0. 9.65313084e-05 -3.21771040e-05
      -3.21771040e-05 -1.38777878e-17 1.60885509e-04 3.21771040e-05
      -6.93889390e-18 -6.43542080e-05 0. 6.43542080e-05 0. 0.
      3.21771040e-05 3.21771040e-05 3.21771040e-05 0. 6.43542080e-05 0.
      0. 0. 3.53948126e-04 -1.38777878e-17 3.21771040e-05 3.21771040e-05
      0. -6.93889390e-18 0. -1.38777878e-17 6.43542080e-05
      6.43542080e-05 0. 0. 3.21771040e-05 0. 3.21771040e-05 0. 0.
      3.21771040e-05 0. 0. 0. 0. 0. 0. 3.21771040e-05 0. 6.43542080e-05
      0. 9.65313084e-05 3.21771040e-05 0. 3.21771040e-05 3.21771040e-05
      0. 0. 0. 0. 0. 0. 0. 0. 0. 0. 0. 3.21771040e-05 0. 0. 0.
      3.21771040e-05 -2.57416832e-04 -3.21771040e-05 3.21771040e-05
      3.21771040e-05 -3.21771040e-05 -3.21771040e-05 0. 0. 0.
      -3.21771040e-05 0. 0. 0. -3.21771040e-05 0. 0. 3.21771040e-05
      3.21771040e-05 0. 0. -3.21771040e-05 0. -3.21771040e-05 0.
      -3.21771040e-05 0. 0. 0. 0. 0. 0. 0. 0. 3.21771040e-05 0. 0. 0. 0.
      0. 0. 0. 9.65313084e-05 3.21771040e-05 6.43542080e-05
      3.21771040e-05 -3.21771040e-05 0. -3.21771040e-05 0. 0. 0. 0.
      6.43542080e-05 0. 3.21771040e-05 3.21771040e-05 0. 0. 0. 0. 0.
      -3.21771040e-05 0. 3.21771040e-05 -6.43542080e-05 0.
      -9.65313084e-05 0. 0. 0. -3.21771040e-05 0. 0. 0. 3.21771040e-05
      0. 0. 0. 0. 3.21771040e-05 0. 0. -1.28708416e-04 -3.21771040e-05
      -1.60885509e-04 0. -5.14833664e-04 6.43542080e-05 3.21771040e-05
      0. 0. 0. 0. -3.21771040e-05 0. 6.43542080e-05 0. 0. 0. 0. 0. 0. 0.
      0. 0. 0. 0. 0. 0. 0. 0. 0. -3.21771040e-05 0. -3.21771040e-05 0.
      -3.21771040e-05 0. -3.21771040e-05 0. 0. 0. 0. 0. -3.21771040e-05
      -6.43542080e-05 0. -6.43542080e-05 -3.21771040e-05 3.21771040e-05
      3.21771040e-05 0. -6.93889390e-18 0. 0. 0. 0. 3.21771040e-05 0. 0.
      0. 0. 3.21771040e-05 0. 3.21771040e-05 0. 6.43542080e-05
      3.21771040e-05 1.28708416e-04 0. -1.93062617e-04 -9.65313084e-05
      0. 0. 0. 0. 0. -3.21771040e-05 0. 0. 3.21771040e-05 0. 0. 0. 0. 0.
      0. 3.21771040e-05 6.43542080e-05 -3.21771040e-05 0. 3.21771040e-05
      0. 0. 3.21771040e-05 2.89593911e-04 3.21771040e-05 0. 0.
      -3.21771040e-05 -6.93889390e-18 0. -6.43542080e-05 -3.21771040e-05
      -6.93889390e-18 3.21771040e-05 0. 0. -6.43542080e-05
      -1.60885509e-04 -6.43542080e-05 -1.28708416e-04 -1.28708416e-04
      -6.93889390e-18 -2.77555756e-17 -3.21771040e-05 0. -3.21771040e-05
      -3.21771040e-05 -6.43542080e-05 -1.60885509e-04 0. 0.
      3.21771040e-05 0. 0. 0. 0. -6.43542080e-05 3.21771040e-05 0. 0.
      3.21771040e-05 -3.21771040e-05 0. -3.21771040e-05 -6.43542080e-05
      -3.21771040e-05 0. -3.21771040e-05 -6.43542080e-05 0. 0.
      -3.21771040e-05 3.21771040e-05 3.21771040e-05 6.43542080e-05
      -6.93889390e-18 0. 0. 3.21771040e-05 -3.21771040e-05
      -6.93889390e-18 -6.93889390e-18 6.43542080e-05 4.50479449e-04 0.
      0. 3.21771040e-05 -3.21771040e-05 -3.21771040e-05 0. 0.
      -3.21771040e-05 0. 0. 0. -3.21771040e-05 0. 0. 0. -3.21771040e-05
      0. -3.21771040e-05 0. -3.21771040e-05 0. -3.21771040e-05
      -3.21771040e-05 0. 0. 0. 0. 0. -3.21771040e-05 -6.93889390e-18 0.
      0. 0. 0. 3.21771040e-05 0. 0. 0. 0. 0. 6.43542080e-05 0.
      -3.21771040e-05 -3.21771040e-05 0. 0. 0. 0. 0. 0. 0.
      3.21771040e-05 -3.21771040e-05 0. 3.21771040e-05 -3.21771040e-05
      0. 0. 0. 0. -6.93889390e-18 -3.21771040e-05 -3.21771040e-05
      3.21771040e-05 0. 0. 0. 3.21771040e-05 0. 0. 0. 0. -6.93889390e-18
      0. 3.21771040e-05 3.21771040e-05 3.21771040e-05 0. 0. 0. 0.
      3.21771040e-05 0. -6.43542080e-05 0. 0. 0. -3.21771040e-05
      3.21771040e-05 0. 0. 0. -3.21771040e-05 0. 0. 0. 0. 0. 0.
      -3.21771040e-05 -3.21771040e-05 3.21771040e-05 0. 0.
      -3.21771040e-05 0. -3.21771040e-05 0. 0. -3.21771040e-05 0. 0. 0.
      0. -3.21771040e-05 -3.21771040e-05 0. 0. 0. 0. 0. 0. 0. 0. 0. 0.
      0. 0. 0. 0. 0. 0. 3.21771040e-05 0. 0. 0. 0. 0. 0. 0. 0.
      -6.93889390e-18 0. -3.21771040e-05 0. 0. -3.21771040e-05 0. 0. 0.
      0. 0. 0. 0. 0. 0. 0. 0. 0. 0. 0. 0. 0. 0. 0. 0. 0. 0.
      1.28708416e-04 0. 0. 0. 0. 0. 0. -3.21771040e-05 0. 0. 0.
      -1.38777878e-17 -6.43542080e-05 0. -3.21771040e-05 0.
      3.21771040e-05 0. 3.21771040e-05 -1.60885509e-04 -9.65313084e-05
      6.43542080e-05 0. -6.93889390e-18 0. 3.21771040e-05 0.
      -2.57416832e-04 -9.65313084e-05 0. 0. -3.21771040e-05
      -3.21771040e-05 0. -9.65313084e-05 0. -6.43542080e-05
      -3.21771040e-05 0. 0. -3.21771040e-05 6.43542080e-05
      -3.21771040e-05 1.22272992e-03 2.89593911e-04 -3.21771040e-05 0.
      -6.43542080e-05 -3.21771040e-05 0. -3.21771040e-05 0.
      2.25239724e-04 -3.21771040e-05 0. -3.21771040e-05 6.43542080e-05
      0. 0. -1.60885509e-04 1.28708416e-04 3.21771040e-05 3.21771040e-05
      9.65313084e-05 3.21771040e-05 0. -6.43542080e-05 -1.28708416e-04
      3.21771040e-05 -6.43542080e-05 -3.21771040e-05 0. -6.93889390e-18
      0. 0. -6.93889390e-18 -6.43542080e-05 0. 0. 0. 0. 0.
      3.21771040e-05 0. -3.21771040e-05 0. 0. -6.43542080e-05
      -6.93889390e-18 0. -3.21771040e-05 -6.43542080e-05 -6.93889390e-18
      0. 0. 0. 0. 0. 0. 0. 0. 3.21771040e-05 0. 0. 0. 0. -3.21771040e-05
      3.21771040e-05 -3.21771040e-05 3.21771040e-05 3.21771040e-05 0. 0.
      0. 0. 0. 0. 0. 0. 0. 3.21771040e-05 0. 0. -3.21771040e-05 0. 0. 0.
      0. -3.21771040e-05 0. 0. -3.21771040e-05 0. 0. 0. 0. 0. 0. 0. 0.
      -6.43542080e-05 0. 0. 0. 0. 0. 0. -6.93889390e-18 -9.65313084e-05
      0. -6.93889390e-18 3.21771040e-05 0. 0. 0. -9.65313084e-05
      6.43542080e-05 3.21771040e-05 0. 0. -3.21771040e-05 0. 0.
      -3.21771040e-05 3.21771040e-05 0. 0. 0. -3.21771040e-05 0. 0. 0.
      6.43542080e-05 0. 3.21771040e-05 -3.21771040e-05 0. 0. 0. 0. 0.
      -6.93889390e-18 0. 0. 0. 0. 0. 0. 0. 3.21771040e-05
      -3.21771040e-05 0. 0. 0. 0. -6.93889390e-18 0. 0. 0. 0.
      6.43542080e-05 3.21771040e-05 0. -3.21771040e-05 0. 0. 0. 0. 0. 0.
      0. 0. 0. 0. 0. 0. 0. 0. 0. 0. 0. 0. 0. 0. 3.21771040e-05 0. 0.
      -3.21771040e-05 3.21771040e-05 -3.21771040e-05 0. 0. 0. 0. 0.
      -3.21771040e-05 3.21771040e-05 0. 0. 0. 0. 0. -3.21771040e-05
      3.21771040e-05 3.21771040e-05 0. 0. 0. 0. 0. 0. -3.21771040e-05
      -3.21771040e-05 0. 6.43542080e-05 -3.21771040e-05 -3.21771040e-05
      0. 3.21771040e-05 -6.43542080e-05 0. 0. 0. -3.21771040e-05
      -3.21771040e-05 0. 3.21771040e-05 -6.93889390e-18 3.21771040e-05
      3.21771040e-05 0. 0. 0. 0. -6.93889390e-18 -6.43542080e-05
      -6.43542080e-05 -6.43542080e-05 3.21771040e-05 -6.43542080e-05 0.
      0. 0. 6.43542080e-05 0. 3.21771040e-05 0. -1.38777878e-17
      -1.38777878e-17 3.21771040e-05 -3.21771040e-05 6.43542080e-05
      -3.21771040e-05 -9.65313084e-05 0. -3.21771040e-05 0.
      3.21771040e-05 -3.21771040e-05 2.89593911e-04 3.21771040e-05 0.
      6.43542080e-05 -3.21771040e-05 3.21771040e-05 0. 3.21771040e-05
      -6.43542080e-05 -2.77555756e-17 3.21771040e-05 -3.21771040e-05
      9.65313084e-05 3.21771040e-05 0. 3.21771040e-05 -1.93062617e-04
      3.21771040e-05 -9.65313084e-05 0. -3.21771040e-05 -6.93889390e-18
      0. 0. -3.21771040e-05 -6.43542080e-05 0. -3.21771040e-05 0. 0.
      3.21771040e-05 -6.93889390e-18 -1.28708416e-04 -1.28708416e-04 0.
      0. 0. 0. 0. 0. 0. 0. 0. 0. 0. 0. 3.21771040e-05 0. 0. 0. 0. 0.
      -3.21771040e-05 0. 0. 0. -6.43542080e-05 0. -6.43542080e-05 0. 0.
      0. -3.21771040e-05 0. -3.21771040e-05 6.43542080e-05 0. 0. 0.
      3.21771040e-05 0. 3.21771040e-05 0. 0. 0. 0. 0. 0. 0. 0. 0.
      6.43542080e-05 0. 0. 0. 0. 0. 3.21771040e-05 0. 0. 0. 0. 0. 0. 0.
      0. 0. 3.21771040e-05 0. 0. 0. 0. 0. 0. 0. 0. 3.21771040e-05 0.
      -3.21771040e-05 3.21771040e-05 0. 3.21771040e-05 -3.21771040e-05
      1.28708416e-04 0. 0. 0. 0. 0. 0. -3.21771040e-05 3.21771040e-05 0.
      0. 0. 0. 0. -3.21771040e-05 0. -3.21771040e-05 0. 0. 0. 0. 0. 0.
      0. -6.43542080e-05 0. 0. 0. 0. 0. -3.21771040e-05 0.
      6.43542080e-05 -3.21771040e-05 0. 0. -6.93889390e-18 0.
      -6.43542080e-05 -1.38777878e-17 3.21771040e-05 0. 0.
      3.21771040e-05 0. 0. -3.21771040e-05 3.21771040e-05
      -3.21771040e-05 0. 0. 0. 0. 0. 0. 0. 0. 0. 0. 3.21771040e-05 0. 0.
      0. 0. 0. 0. 0. 0. 0. 0. 0. -3.21771040e-05 0. 3.21771040e-05 0. 0.
      3.21771040e-05 3.21771040e-05 3.21771040e-05 9.65313084e-05
      3.21771040e-05 0. 0. 3.21771040e-05 0. 0. 6.43542080e-05 0.
      -3.21771040e-05 0. 0. 0. 0. 0. 0. -3.21771040e-05 3.21771040e-05
      0. 0. 0. 0. 3.21771040e-05 -6.43542080e-05 -6.93889390e-18
      -6.43542080e-05 0. 0. 0. 3.21771040e-05 0. 0. -6.43542080e-05
      -1.28708416e-04 -3.21771040e-05 0. 0. 0. 0. 3.21771040e-05
      -3.21771040e-05 -6.43542080e-05 3.21771040e-05 0. -1.38777878e-17
      3.21771040e-05 3.21771040e-05 -3.21771040e-05 -3.21771040e-05
      3.21771040e-05 3.21771040e-05 0. -3.21771040e-05 3.21771040e-05 0.
      -6.93889390e-18 -1.60885509e-04 -9.65313084e-05 6.43542080e-05 0.
      0. -3.21771040e-05 0. 3.21771040e-05 4.82656527e-04 3.21771040e-05
      3.21771040e-05 -6.43542080e-05 -6.43542080e-05 3.21771040e-05 0.
      3.21771040e-05 -6.43542080e-05 -6.93889390e-18 0. -6.43542080e-05
      -6.93889390e-18 0. -3.21771040e-05 3.21771040e-05 0.
      1.28708416e-04 0. 9.65313084e-05 0. -3.21771040e-05 0.
      3.21771040e-05 -6.43542080e-05 3.21771040e-05 3.21771040e-05 0. 0.
      -3.21771040e-05 0. 3.21771040e-05 -1.28708416e-04 6.43542080e-05
      0. 0. -3.21771040e-05 3.21771040e-05 -3.21771040e-05
      -3.21771040e-05 0. -3.21771040e-05 -3.21771040e-05 3.21771040e-05
      -9.65313084e-05 3.21771040e-05 0. 0. -9.65313084e-05 0.
      3.21771040e-05 0. 0. 0. 0. 0. 0. -3.21771040e-05 0. 0. 0. 0. 0. 0.
      -6.93889390e-18 -6.93889390e-18 3.21771040e-05 0. 0.
      3.21771040e-05 0. 0. 0. 3.21771040e-05 0. 0. 0. 0. 0. 0.
      -6.93889390e-18 6.43542080e-05 0. 0. 0. 0. 0. 0. -6.93889390e-18
      -3.21771040e-05 0. 0. 0. 0. 0. 0. 0. -3.21771040e-05 0. 0. 0. 0.
      0. -6.93889390e-18 -3.21771040e-05 -3.21771040e-05 0. 0.
      -3.21771040e-05 0. 0. 0. -3.21771040e-05 0. 0. 0. 0.
      -3.21771040e-05 0. -3.21771040e-05 -3.21771040e-05 0. 0.
      3.21771040e-05 3.21771040e-05 3.21771040e-05 0. -6.43542080e-05
      -3.21771040e-05 -6.93889390e-18 0. -3.21771040e-05 3.21771040e-05
      -6.93889390e-18 0. 0. 0. 0. 0. 0. 0. 0. 0. 0. -3.21771040e-05
      9.65313084e-05 -3.21771040e-05 0. 0. 3.21771040e-05 0. 0.
      -6.43542080e-05 -9.65313084e-05 -6.93889390e-18 3.21771040e-05 0.
      0. 0. 0. -3.21771040e-05 0. 0. 0. 0. 0. 0. 0. 0. 0. 0. 0. 0.
      3.21771040e-05 0. 0. -3.21771040e-05 3.21771040e-05 0.
      -3.21771040e-05 0. 0. -3.21771040e-05 0. -6.93889390e-18
      3.21771040e-05 0. 0. 0. -3.21771040e-05 0. 0. -3.21771040e-05
      -6.43542080e-05 -3.21771040e-05 0. 0. 0. 0. 6.43542080e-05 0.
      -3.21771040e-05 0. 0. -3.21771040e-05 0. 0. 0. -3.21771040e-05
      -3.21771040e-05 3.21771040e-05 0. 0. 3.21771040e-05 0. 0.
      -6.93889390e-18 0. 0. 0. -6.93889390e-18 0. 0. 0. 0.
      -1.38777878e-17 3.21771040e-05 6.43542080e-05 -3.21771040e-05 0.
      0. -3.21771040e-05 0. -1.38777878e-17 -6.43542080e-05 0.
      -6.43542080e-05 -3.21771040e-05 -3.21771040e-05 3.21771040e-05
      -3.21771040e-05 9.65313084e-05 -3.21771040e-05 3.21771040e-05
      6.43542080e-05 3.21771040e-05 6.43542080e-05 3.21771040e-05
      6.43542080e-05 -2.77555756e-17 -1.38777878e-17 0. -6.93889390e-18
      -6.93889390e-18 3.21771040e-05 3.21771040e-05 3.53948126e-04
      1.28708416e-04 3.21771040e-05 0. -6.43542080e-05 -6.43542080e-05
      -3.21771040e-05 9.65313084e-05 3.21771040e-05 6.43542080e-05
      -3.21771040e-05 0. 3.21771040e-05 3.21771040e-05 3.21771040e-05 0.
      -9.65313084e-05 -3.21771040e-05 -6.93889390e-18 -3.21771040e-05 0.
      -3.21771040e-05 0. -3.21771040e-05 -1.60885509e-04 -3.21771040e-05
      0. 0. 0. 0. 0. 3.21771040e-05 -3.21771040e-05 3.21771040e-05 0. 0.
      -3.21771040e-05 0. 0. 0. 0. 9.65313084e-05 0. 0. 3.21771040e-05 0.
      0. -6.93889390e-18 -6.43542080e-05 -6.93889390e-18 0. 0. 0. 0. 0.
      0. -3.21771040e-05 0. 3.21771040e-05 0. 0. 0. 0. 0.
      -6.93889390e-18 -1.38777878e-17 0. 3.21771040e-05 0. 0. 0.
      -6.93889390e-18 6.43542080e-05 -3.21771040e-05 3.21771040e-05
      3.21771040e-05 0. 0. 3.21771040e-05 0. 0. 0. 0. 3.21771040e-05 0.
      0. 0. 0. 0. 0. 0. 0. 0. 0. 0. 3.21771040e-05 -3.21771040e-05 0.
      -3.21771040e-05 0. 0. -6.93889390e-18 0. 3.21771040e-05 0. 0.
      9.65313084e-05 0. 6.43542080e-05 -3.21771040e-05 0. 0.
      -6.93889390e-18 0. 0. 3.21771040e-05 0. 0. 0. 0. -6.43542080e-05
      -3.21771040e-05 0. 0. -3.21771040e-05 0. 0. 0. 6.43542080e-05
      -6.43542080e-05 0. 0. 0. 6.43542080e-05 0. 3.21771040e-05 0. 0. 0.
      0. 0. 0. 0. 0. 0. 0. 0. 0. 0. 0. -3.21771040e-05 0.
      -6.93889390e-18 -3.21771040e-05 0. 0. -3.21771040e-05 0.
      3.21771040e-05 0. -6.43542080e-05 0. 0. 0. 0. 0. 0. 0. 0. 0. 0. 0.
      3.21771040e-05 3.21771040e-05 0. 0. 0. -3.21771040e-05 0. 0. 0. 0.
      0. 0. 0. -3.21771040e-05 0. 0. 0. 0. -3.21771040e-05
      -3.21771040e-05 -6.93889390e-18 -6.93889390e-18 0. -6.43542080e-05
      0. 0. 0. 0. 0. 0. 0. 0. 3.21771040e-05 0. 0. 0. -3.21771040e-05
      -3.21771040e-05 0. -3.21771040e-05 0. 3.21771040e-05
      3.21771040e-05 -6.93889390e-18 -3.21771040e-05 0. 0. 0. 0.
      3.21771040e-05 3.21771040e-05 0. -3.21771040e-05 0.
      -3.21771040e-05 0. 0. 0. 0. 0. 3.21771040e-05 -3.21771040e-05
      3.21771040e-05 3.21771040e-05 -3.21771040e-05 -3.21771040e-05 0.
      0. -9.65313084e-05 -6.43542080e-05 -3.21771040e-05 3.21771040e-05
      0. -9.65313084e-05 3.21771040e-05 0. -1.93062617e-04
      -1.28708416e-04 3.21771040e-05 -3.21771040e-05 0. 3.21771040e-05
      6.43542080e-05 3.21771040e-05 4.82656527e-04 1.60885509e-04
      -3.21771040e-05 1.28708416e-04 -6.43542080e-05 0. 0. 0.
      3.21771040e-05 -1.28708416e-04 -6.93889390e-18 0. -1.38777878e-17
      0. 0. 0. -9.65313084e-05 -6.93889390e-18 0. 3.21771040e-05 0. 0.
      0. -6.43542080e-05 -3.21771040e-05 0. 0. 0. 0. 0. 0. 0.
      -3.21771040e-05 0. 0. 6.43542080e-05 0. 0. 0. 0. 0. 3.21771040e-05
      3.21771040e-05 3.21771040e-05 -1.38777878e-17 0. 0. 0.
      3.21771040e-05 0. 0. 0. 0. 0. 0. 0. 0. -6.43542080e-05 0. 0. 0. 0.
      0. -3.21771040e-05 -6.93889390e-18 1.93062617e-04 0.
      9.65313084e-05 0. 3.21771040e-05 0. 0. 0. 3.21771040e-05
      -3.21771040e-05 0. 0. 0. 0. 0. 0. 0. 0. 0. 0. 6.43542080e-05 0.
      -3.21771040e-05 0. 0. 0. 0. 0. 0. 0. 0. 0. -3.21771040e-05 0. 0.
      3.21771040e-05 0. 0. 3.21771040e-05 0. -3.21771040e-05
      -6.43542080e-05 0. -1.38777878e-17 0. 0. 0. -3.21771040e-05 0. 0.
      0. 0. 0. 0. 0. 0. 0. 0. 0. 3.21771040e-05 0. 3.21771040e-05 0. 0.
      3.21771040e-05 0. 0. 0. 0. 0. 3.21771040e-05 0. 0. 0. 0.
      3.21771040e-05 0. 0. 0. 0. -3.21771040e-05 0. 0. 3.21771040e-05
      9.65313084e-05 0. -3.21771040e-05 -1.60885509e-04 0.
      3.21771040e-05 0. 0. -3.21771040e-05 -3.21771040e-05 0.
      3.21771040e-05 0. 0. 0. 0. 0. 0. 0. 0. 0. -3.21771040e-05 0. 0. 0.
      0. 0. 0. 0. 0. 0. 0. 0. 0. 0. 0. 0. 0. 0. 6.43542080e-05 0.
      -3.21771040e-05 0. 3.21771040e-05 3.21771040e-05 0. 0. 0. 0. 0. 0.
      0. 0. 0. 0. 0. 0. 0. 0. 0. -3.21771040e-05 0. 0. 0. 1.28708416e-04
      6.43542080e-05 -1.38777878e-17 3.21771040e-05 0. 0. 0. 0. 0. 0. 0.
      0. -6.43542080e-05 0. 0. 0. 0. 0. -3.21771040e-05 0.
      -1.60885509e-04 -9.65313084e-05 0. -6.93889390e-18 0. 0. 0.
      -3.21771040e-05 -9.65313084e-05 3.21771040e-05 0. 0.
      -6.93889390e-18 0. -3.21771040e-05 0. -9.65313084e-05
      6.43542080e-05 0. -6.93889390e-18 3.21771040e-05 0. 0.
      -9.65313084e-05 6.43542080e-05 3.21771040e-05 -6.43542080e-05
      -6.93889390e-18 -3.21771040e-05 0. -6.93889390e-18 -1.28708416e-04
      3.21771040e-05 -3.21771040e-05 -1.38777878e-17 -9.65313084e-05
      3.21771040e-05 0. -3.21771040e-05 -6.43542080e-05 -3.21771040e-05
      0. 0. 0. -6.43542080e-05 0. -3.21771040e-05 -1.38777878e-17 0. 0.
      0. 0. -3.21771040e-05 0. 0. -1.60885509e-04 3.21771040e-05 0.
      6.43542080e-05 3.21771040e-05 -3.21771040e-05 0. 0. 0.
      3.21771040e-05 9.65313084e-05 0. -1.38777878e-17 0. 0.
      3.21771040e-05 0. 0. 0. 0. 0. 0. 0. 0. 3.21771040e-05 0.
      -3.21771040e-05 0. 0. 0. 0. 0. -1.28708416e-04 -6.43542080e-05 0.
      -6.93889390e-18 3.21771040e-05 3.21771040e-05 0. -3.21771040e-05
      3.21771040e-05 0. 0. 0. 0. 0. 0. 0. 0. 0. 0. 0. 0. 0. 0. 0. 0. 0.
      0. 0. 0. 0. 0. 0. 0. -3.21771040e-05 0. -3.21771040e-05 0. 0. 0.
      0. 0. -6.93889390e-18 1.60885509e-04 0. 1.93062617e-04
      3.21771040e-05 0. 0. -3.21771040e-05 0. 3.21771040e-05 0. 0. 0. 0.
      0. 0. 0. 0. 0. 0. 0. 0. 0. 3.21771040e-05 0. 0. -3.21771040e-05 0.
      0. 0. 0. 0. 0. 0. 0. 0. 0. 0. 0. 0. -9.65313084e-05 0.
      -3.21771040e-05 0. -1.60885509e-04 0. -3.21771040e-05
      -9.65313084e-05 0. 0. 0. 3.21771040e-05 0. -3.21771040e-05 0.
      3.21771040e-05 0. 0. 0. 0. 0. 0. 0. 0. 0. 0. 3.21771040e-05 0. 0.
      0. 0. 0. 0. 0. 0. 0. 0. 0. 0. 0. 0. 0. 0. 0. 0. 0. 0.
      -3.21771040e-05 3.21771040e-05 0. 3.21771040e-05 0. 0. 0. 0.
      -3.21771040e-05 0. 3.21771040e-05 0. 0. 0. 0. 0. 0.
      -1.38777878e-17 0. 0. 0. 1.60885509e-04 3.21771040e-05
      3.21771040e-05 -9.65313084e-05 0. 0. 0. 0. 0. 0. 0. 3.21771040e-05
      -1.38777878e-17 0. 3.21771040e-05 -3.21771040e-05 0. 0. 0.
      -3.21771040e-05 0. -6.93889390e-18 0. 0. 3.21771040e-05 0. 0.
      -6.93889390e-18 -1.93062617e-04 0. 0. 0. 3.21771040e-05 0.
      -6.43542080e-05 -6.43542080e-05 -1.28708416e-04 -3.21771040e-05 0.
      0. 0. -9.65313084e-05 -6.93889390e-18 8.68781761e-04
      -1.28708416e-04 3.21771040e-05 6.43542080e-05 6.43542080e-05
      9.65313084e-05 -3.21771040e-05 0. 3.21771040e-05 6.43542080e-05
      -6.43542080e-05 -6.93889390e-18 3.21771040e-05 -6.93889390e-18
      3.21771040e-05 -3.21771040e-05 -9.65313084e-05 -6.43542080e-05
      -6.93889390e-18 3.21771040e-05 0. -9.65313084e-05 0. 0.
      -1.28708416e-04 -3.21771040e-05 0. -3.21771040e-05 -3.21771040e-05
      -6.93889390e-18 3.21771040e-05 6.43542080e-05 -1.28708416e-04
      -3.21771040e-05 0. 0. -6.93889390e-18 0. 0. 0. -3.21771040e-05 0.
      0. 0. 0. 0. 0. 0. 6.43542080e-05 0. 0. -3.21771040e-05 0. 0. 0. 0.
      3.21771040e-05 -6.43542080e-05 3.21771040e-05 0. 0. 0. 0. 0.
      3.21771040e-05 6.43542080e-05 0. 0. -6.43542080e-05
      -6.93889390e-18 0. 0. -3.21771040e-05 6.43542080e-05
      3.21771040e-05 0. 0. 3.21771040e-05 0. 0. 0. 0. 0. 0. 0. 0. 0.
      3.21771040e-05 6.43542080e-05 0. 0. 0. 0. 0. 0. 0. -3.21771040e-05
      -6.43542080e-05 -3.21771040e-05 0. 0. 0. 0. 0. 0. -3.21771040e-05
      0. -3.21771040e-05 -6.93889390e-18 3.21771040e-05 0. 0.
      3.21771040e-05 3.21771040e-05 0. 0. 0. 0. 0. 0. 0. 0. 0. 0. 0. 0.
      0. -3.21771040e-05 -3.21771040e-05 -6.93889390e-18 0. 0. 0. 0. 0.
      -3.21771040e-05 0. 3.21771040e-05 0. 0. 0. 0. 0. 0. 0.
      6.43542080e-05 0. 0. 0. 0. 0. 3.21771040e-05 3.21771040e-05
      3.21771040e-05 0. 0. 0. -3.21771040e-05 0. 0. 3.21771040e-05 0. 0.
      0. 0. 0. 0. 0. -3.21771040e-05 0. 0. 0. 3.21771040e-05 0. 0. 0.
      -3.21771040e-05 0. 0. 0. 0. 0. 0. 0. -3.21771040e-05
      -6.93889390e-18 0. 0. 0. 0. 0. 0. -1.38777878e-17 1.28708416e-04
      0. 0. 0. 0. 0. 0. 0. 0. 0. 0. -3.21771040e-05 0. 0. 0.
      3.21771040e-05 3.21771040e-05 0. 0. 0. -3.21771040e-05 0.
      3.21771040e-05 3.21771040e-05 -3.21771040e-05 0. 0. 3.21771040e-05
      -3.21771040e-05 3.21771040e-05 0. -3.21771040e-05 -9.65313084e-05
      0. 0. -6.43542080e-05 3.21771040e-05 -3.21771040e-05 0.
      -6.43542080e-05 -1.38777878e-17 0. 0. 0. 0. -3.21771040e-05
      3.21771040e-05 0. -1.60885509e-04 -6.93889390e-18 0.
      -6.43542080e-05 9.65313084e-05 -3.21771040e-05 -3.21771040e-05
      -3.21771040e-05 -3.21771040e-05 3.21771040e-05 0. 0.
      3.21771040e-05 0. -6.43542080e-05 5.14833664e-04 3.21771018e-04
      3.21771040e-05 -6.43542080e-05 -3.21771040e-05 -6.43542080e-05 0.
      -3.21771040e-05 0. 6.43542080e-05 3.21771040e-05 0.
      -3.21771040e-05 -3.21771040e-05 6.43542080e-05 -6.43542080e-05
      -9.65313084e-05 1.60885509e-04 9.65313084e-05 0. -3.21771040e-05
      0. 0. -3.21771040e-05 0. 0. -6.93889390e-18 -6.93889390e-18
      -3.21771040e-05 6.43542080e-05 0. 0. -6.43542080e-05
      3.21771040e-05 0. 0. 0. 0. 0. 3.21771040e-05 0. 0. 0. 0.
      -3.21771040e-05 0. 0. 0. -6.43542080e-05 -3.21771040e-05 0. 0. 0.
      0. 0. 0. 0. 3.21771040e-05 0. 3.21771040e-05 0. -3.21771040e-05 0.
      0. -6.93889390e-18 -6.43542080e-05 3.21771040e-05 3.21771040e-05
      0. 0. 0. 0. 3.21771040e-05 0. -3.21771040e-05 0. 0. 0. 0. 0. 0.
      3.21771040e-05 0. 0. 0. 0. 0. 0. 0. 0. 0. 0. 0. 3.21771040e-05 0.
      0. 0. -3.21771040e-05 0. 0. 0. -6.93889390e-18 0. 3.21771040e-05
      0. -6.43542080e-05 3.21771040e-05 -3.21771040e-05 -6.93889390e-18
      0. 0. 3.21771040e-05 6.43542080e-05 -3.21771040e-05
      -3.21771040e-05 0. 0. 0. 0. 0. -6.43542080e-05 3.21771040e-05 0.
      0. 3.21771040e-05 0. 0. 0. 6.43542080e-05 -3.21771040e-05 0. 0. 0.
      0. 0. 0. 0. 0. 0. 3.21771040e-05 0. 0. 3.21771040e-05 0. 0.
      -9.65313084e-05 0. 0. 3.21771040e-05 -3.21771040e-05 0.
      -6.43542080e-05 -3.21771040e-05 3.21771040e-05 0. 3.21771040e-05
      0. 6.43542080e-05 0. 0. -3.21771040e-05 0. 0. 0. 0. 0. 0.
      3.21771040e-05 0. 0. 0. 0. 0. 0. 0. 0. 0. 0. 0. 0. 0. 0. 0. 0.
      -6.43542080e-05 0. 0. 0. 0. 3.21771040e-05 -3.21771040e-05 0.
      -6.93889390e-18 3.21771040e-05 0. -3.21771040e-05 0. 0. 0. 0.
      -6.93889390e-18 -6.93889390e-18 0. 0. 0. 0. 3.21771040e-05 0.
      3.21771040e-05 -1.38777878e-17 -3.21771040e-05 -3.21771040e-05 0.
      -1.93062617e-04 -3.21771040e-05 -1.28708416e-04 3.21771040e-05 0.
      6.43542080e-05 0. 0. -6.43542080e-05 0. 0. -3.21771040e-05
      -6.93889390e-18 0. -6.93889390e-18 0. 0. 0. 0. 3.21771040e-05
      -1.93062617e-04 0. 3.21771040e-05 -6.43542080e-05 -9.65313084e-05
      6.43542080e-05 0. -1.38777878e-17 -9.65313084e-05 -3.21771040e-05
      0. 0. -6.43542080e-05 0. -9.65313084e-05 -6.43542080e-05
      -3.21771040e-05 0. 0. -3.21771040e-05 3.21771040e-05
      -6.43542080e-05 -3.21771040e-05 8.36604682e-04 1.60885509e-04 0.
      6.43542080e-05 -6.43542080e-05 -1.38777878e-17 0. -6.43542080e-05
      -3.21771040e-05 -1.28708416e-04 -6.93889390e-18 -6.43542080e-05
      6.43542080e-05 6.43542080e-05 -3.21771040e-05 -6.93889390e-18
      -3.21771040e-05 -2.77555756e-17 9.65313084e-05 0. 0.
      -3.21771040e-05 -3.21771040e-05 3.21771040e-05 -3.21771040e-05
      9.65313084e-05 3.21771040e-05 0. 3.21771040e-05 3.21771040e-05 0.
      -3.21771040e-05 -1.28708416e-04 -6.93889390e-18 0. -3.21771040e-05
      0. 0. 0. 0. 0. -3.21771040e-05 -6.93889390e-18 0. -3.21771040e-05
      0. 0. 3.21771040e-05 -1.60885509e-04 3.21771040e-05 0. 0. 0. 0. 0.
      0. -3.21771040e-05 -6.43542080e-05 3.21771040e-05 0. 0. 0. 0.
      -3.21771040e-05 3.21771040e-05 6.43542080e-05 -3.21771040e-05
      -3.21771040e-05 3.21771040e-05 0. 0. 0. 3.21771040e-05 0. 0. 0. 0.
      0. 0. 0. 0. 0. -3.21771040e-05 0. 0. 0. 0. 0. 0. 0. 0. 0. 0. 0. 0.
      0. 0. 3.21771040e-05 0. -3.21771040e-05 3.21771040e-05 0. 0. 0.
      -3.21771040e-05 -6.93889390e-18 0. 0. -9.65313084e-05 0. 0. 0.
      3.21771040e-05 -3.21771040e-05 3.21771040e-05 0. 0. 3.21771040e-05
      0. 0. 0. 0. 0. 0. 0. 0. 0. 0. 0. 0. 0. -3.21771040e-05 0. 0. 0. 0.
      0. 6.43542080e-05 0. 0. 0. 0. 0. 0. -9.65313084e-05
      -1.38777878e-17 0. 0. 0. -3.21771040e-05 3.21771040e-05
      -6.43542080e-05 -3.21771040e-05 3.21771040e-05 -3.21771040e-05 0.
      0. -6.43542080e-05 0. 3.21771040e-05 3.21771040e-05 0. 0. 0. 0. 0.
      0. 0. 0. 0. 0. 0. 0. 0. 0. 0. 0. 0. 0. 0. 0. 0. 0. 3.21771040e-05
      -3.21771040e-05 0. -3.21771040e-05 0. 0. 0. 0. 0. -6.93889390e-18
      3.21771040e-05 0. 0. 0. 0. 0. 0. 0. 0. 0. 0. 0. 3.21771040e-05 0.
      0. -6.93889390e-18 0. 0. 0. 0. 0. 0. 0. -6.43542080e-05
      3.21771040e-05 0. 0. 0. -6.93889390e-18 0. 3.21771040e-05
      3.21771040e-05 -3.21771040e-05 0. 0. 3.21771040e-05 0. 0. 0.
      -6.93889390e-18 -3.21771040e-05 -6.43542080e-05 -3.21771040e-05
      -3.21771040e-05 0. -3.21771040e-05 3.21771040e-05 -9.65313084e-05
      -3.21771040e-05 0. 0. -3.21771040e-05 -3.21771040e-05
      -3.21771040e-05 0. 1.28708416e-04 -6.93889390e-18 3.21771040e-05
      0. -3.21771040e-05 0. -9.65313084e-05 0. 7.07896252e-04
      9.65313084e-05 -6.93889390e-18 3.21771040e-05 0. 6.43542080e-05 0.
      -3.21771040e-05 0. 6.43542080e-05 3.21771040e-05 0. 0.
      3.21771040e-05 0. -3.21771040e-05 9.65313084e-05 3.21771040e-05
      -1.38777878e-17 -9.65313084e-05 3.21771040e-05 3.21771040e-05 0.
      -3.21771040e-05 -6.43542080e-05 -6.43542080e-05 -6.93889390e-18
      -3.21771040e-05 -3.21771040e-05 -3.21771040e-05 6.43542080e-05
      -6.93889390e-18 3.21771040e-05 3.21771040e-05 -3.21771040e-05 0.
      0. 0. 0. 0. -6.43542080e-05 -6.93889390e-18 3.21771040e-05
      3.21771040e-05 3.21771040e-05 0. 0. -6.93889390e-18 0.
      -9.65313084e-05 0. 0. 0. 0. 0. 0. 3.21771040e-05 0. 0. 0. 0. 0. 0.
      -3.21771040e-05 -6.43542080e-05 3.21771040e-05 0. 0. 0.
      3.21771040e-05 0. 0. 0. 0. 0. 0. 0. 0. 0. 0. 3.21771040e-05
      3.21771040e-05 0. 0. 0. 0. 0. -3.21771040e-05 -3.21771040e-05
      3.21771040e-05 0. 0. 0. 0. 0. 0. 0. 3.21771040e-05 0. 0.
